{"features.0.weight": [[[[0.280318021774292, -0.23936164379119873, -0.20960703492164612], [0.01531971711665392, -0.25502607226371765, -0.07044239342212677], [0.12659665942192078, -0.054136332124471664, -0.26454025506973267]]], [[[0.0557013675570488, 0.34909510612487793, 0.0550999790430069], [-0.3986060917377472, 0.17369356751441956, -0.30169302225112915], [0.14802230894565582, -0.36693260073661804, 0.256885290145874]]], [[[-0.2024327665567398, -0.4980505406856537, -0.24275636672973633], [-0.29908326268196106, 0.3460589647293091, 0.3469763696193695], [0.018304377794265747, 0.5120171308517456, -0.019517557695508003]]], [[[-0.04830501973628998, 0.03907876834273338, -0.20714887976646423], [0.2542581856250763, -0.13894668221473694, 0.15214723348617554], [0.2274545580148697, 0.3315364718437195, 0.2272578924894333]]], [[[0.10549536347389221, -0.3342607021331787, -0.07419344037771225], [0.036259282380342484, 0.3197360634803772, -0.026733392849564552], [0.06586309522390366, 0.1555120348930359, 0.1314423829317093]]], [[[0.22298380732536316, 0.7100812792778015, -0.0671936646103859], [0.07049896568059921, -0.45662254095077515, -0.42183417081832886], [-0.16699518263339996, 0.04142911732196808, -0.0011763887014240026]]], [[[-0.2738876938819885, 0.6646313667297363, -0.3771839737892151], [-0.11491605639457703, 0.4391147494316101, -0.3235911428928375], [-0.02300415188074112, 0.162382110953331, -0.1369636207818985]]], [[[-0.10789244621992111, 0.08884834498167038, -0.5579801201820374], [0.35264521837234497, 0.3463335633277893, -0.3690302073955536], [0.18723618984222412, 0.1978442221879959, -0.03207457810640335]]]], "features.0.bias": [0.20464766025543213, 0.008498637937009335, 0.07641611248254776, -0.3463284969329834, 0.40824103355407715, 0.014395282603800297, 0.2030056118965149, 0.2624807357788086], "features.3.weight": [[[[-0.07302477955818176, 0.02757672220468521, 0.19649338722229004], [0.12429386377334595, 0.019104618579149246, 0.04684392735362053], [0.0643584281206131, -0.10156132280826569, -0.005930906627327204]], [[-0.29377883672714233, -0.2971852123737335, 0.02829497680068016], [-0.5326890349388123, -0.3514685332775116, -0.27444523572921753], [-0.3655981123447418, -0.4749600887298584, -0.2813515067100525]], [[-0.06688351184129715, -0.08113254606723785, -0.011350979097187519], [-0.37435173988342285, -0.2944051921367645, 0.00838394183665514], [-0.42032289505004883, -0.353306382894516, -0.09442133456468582]], [[-0.09418731182813644, -0.10924670845270157, 0.014882786199450493], [-0.14711594581604004, -0.10000978410243988, 0.06823927164077759], [-0.13443726301193237, -0.03955938294529915, 0.04510866850614548]], [[0.12713640928268433, -0.034379713237285614, 0.21801385283470154], [-0.016502536833286285, 0.08960317075252533, 0.08243048936128616], [0.04999230057001114, 0.002873700810596347, -0.06944562494754791]], [[0.031842224299907684, -0.04871303588151932, 0.16480161249637604], [-0.11703077703714371, -0.27079445123672485, 0.07235921174287796], [-0.054576173424720764, -0.20660078525543213, -0.12736615538597107]], [[-0.04333746060729027, 0.15953998267650604, 0.05326604098081589], [0.07101805508136749, 0.14596250653266907, 0.17981354892253876], [-0.05245289206504822, 0.03388753905892372, -0.0067211780697107315]], [[0.1031758114695549, 0.07361961901187897, 0.09516195952892303], [-0.0328051932156086, 0.013564864173531532, 0.07795578986406326], [-0.06394784152507782, 0.0727647989988327, -0.011607554741203785]]], [[[-0.058182813227176666, 0.08758548647165298, 0.09070631861686707], [-0.08658187091350555, 0.13492143154144287, 0.11391274631023407], [-0.015545975416898727, 0.03170352801680565, -0.03084399551153183]], [[-0.2991536259651184, -0.10257762670516968, 0.07415186613798141], [-0.3044080436229706, -0.1882248818874359, 0.048173658549785614], [-0.22304370999336243, -0.16986466944217682, -0.1722562313079834]], [[0.08951926231384277, -0.18418976664543152, -0.14833366870880127], [0.08661120384931564, -0.3342428505420685, 0.04166947305202484], [-0.07218192517757416, -0.2509487271308899, 0.020841997116804123]], [[0.22952067852020264, 0.08000138401985168, -0.19146603345870972], [0.09173978865146637, -0.017173778265714645, -0.3285280764102936], [0.08510993421077728, 0.07415193319320679, -0.21844349801540375]], [[0.1714133769273758, 0.15325228869915009, -0.17228226363658905], [0.21317742764949799, 0.06980521231889725, -0.27837949991226196], [0.13170725107192993, -0.02875843271613121, -0.1264556646347046]], [[-0.12634976208209991, 0.0462859608232975, 0.19078823924064636], [-0.08480531722307205, 0.06883487105369568, 0.15166577696800232], [-0.022943323478102684, 0.08374958485364914, 0.005763824097812176]], [[0.08442473411560059, 0.08346939086914062, -0.04314332827925682], [0.17134088277816772, -0.029997019097208977, -0.07943916320800781], [0.053424637764692307, -0.14358997344970703, -0.13747890293598175]], [[0.099202960729599, 0.05075354874134064, 0.12181638181209564], [0.25573107600212097, -0.04289513826370239, -0.17359934747219086], [0.12925872206687927, 0.06833139806985855, -0.17257384955883026]]], [[[-0.0369892343878746, 0.13517941534519196, -0.001896421192213893], [-0.000722457654774189, 0.11458683013916016, -0.03143971040844917], [0.1359095275402069, 0.09984367340803146, 0.04490044713020325]], [[-0.0033758021891117096, -0.23705047369003296, -0.04967774823307991], [0.06714700907468796, -0.022913362830877304, -0.1112905964255333], [0.1175711452960968, 0.1251036673784256, 0.07744082808494568]], [[-0.30909618735313416, -0.42510920763015747, -0.3625428378582001], [-0.17260639369487762, -0.30036962032318115, -0.2564544081687927], [0.1262669861316681, 0.14667510986328125, 0.16551467776298523]], [[-0.17551416158676147, -0.2802327573299408, -0.1388511210680008], [-0.0111719174310565, 0.012631299905478954, 0.07258585095405579], [0.042810484766960144, 0.17657218873500824, 0.0029785630758851767]], [[-0.010784946382045746, -0.04245376214385033, 0.05319460481405258], [0.02686379663646221, -0.051267728209495544, 0.023791881278157234], [0.22678734362125397, 0.20410002768039703, 0.28467419743537903]], [[-0.025651203468441963, -0.04113689810037613, -0.08919323980808258], [-0.09084019064903259, -0.06806281208992004, 0.03235511854290962], [-0.07577627897262573, 0.10446948558092117, 0.08083544671535492]], [[-0.1362268328666687, -0.19589225947856903, -0.08855542540550232], [-0.26230454444885254, -0.38634246587753296, -0.1940823793411255], [-0.056645046919584274, -0.14216852188110352, 0.03496415540575981]], [[-0.13167992234230042, -0.14874908328056335, -0.04480201005935669], [-0.10120169818401337, -0.1236826553940773, 0.05748158320784569], [0.16721639037132263, 0.2192116230726242, 0.1144803985953331]]], [[[0.20293548703193665, -0.09558561444282532, -0.06455864012241364], [0.05975230783224106, 0.07323235273361206, -0.1116911992430687], [-0.0976129025220871, 0.1548776924610138, 0.13769595324993134]], [[0.3665602505207062, 0.45309993624687195, -0.04753671959042549], [-0.15836720168590546, 0.3940739035606384, 0.3278290331363678], [0.03515150770545006, 0.007448822725564241, 0.3709608316421509]], [[-0.12124551832675934, -0.2690373659133911, 0.05244892090559006], [0.2458113133907318, -0.3390669822692871, -0.035523757338523865], [-0.1659751534461975, 0.10900552570819855, -0.07427067309617996]], [[-0.1188974529504776, -0.05863381177186966, 0.19879308342933655], [0.08196762949228287, -0.09519977867603302, -0.08184347301721573], [0.027058716863393784, 0.055231571197509766, -0.12145325541496277]], [[-0.21819525957107544, 0.05295659229159355, 0.09134397655725479], [0.20126084983348846, -0.08476371318101883, 0.18850672245025635], [0.0631728395819664, 0.08624964207410812, -0.11356368660926819]], [[0.07370878010988235, -0.08963361382484436, -0.2588593661785126], [-0.1297815591096878, -0.003343882504850626, -0.10292103886604309], [-0.16031606495380402, -0.18336398899555206, -0.0978853851556778]], [[-0.2315845787525177, 0.00605140021070838, 0.11251334846019745], [0.043499913066625595, -0.12716741859912872, 0.014120715670287609], [0.07859613746404648, 0.04552106931805611, -0.1830364465713501]], [[-0.11744081228971481, 0.05426053702831268, 0.266344279050827], [0.1840047389268875, -0.2151768058538437, -0.10320505499839783], [0.06825916469097137, 0.17367398738861084, -0.054928794503211975]]], [[[0.12847250699996948, -0.028717080131173134, -0.06252998858690262], [0.1943487524986267, -0.03898036479949951, -0.16584353148937225], [0.28915825486183167, 0.028284721076488495, -0.06133861094713211]], [[0.02741289511322975, 0.06164517626166344, -0.15554122626781464], [0.035306308418512344, -0.10759422928094864, -0.3641085922718048], [-0.006134677678346634, -0.19763541221618652, -0.23224657773971558]], [[-0.10411299765110016, -0.08530661463737488, 0.12183008342981339], [-0.028255490586161613, 0.13900025188922882, -0.0865369662642479], [0.20765522122383118, 0.18824338912963867, -0.3229959309101105]], [[-0.21428292989730835, -0.07842058688402176, 0.1359083652496338], [-0.18476341664791107, -0.023113029077649117, 0.1765994131565094], [-0.0171920545399189, 0.054698605090379715, 0.10232696682214737]], [[-0.0071865650825202465, -0.02414223924279213, 0.2153184562921524], [-0.07656972855329514, -0.04268653690814972, 0.1629607230424881], [-0.030820243060588837, -0.09902472794055939, 0.11219733953475952]], [[0.03126995638012886, 0.07681943476200104, -0.26758304238319397], [0.12422537058591843, -0.07652008533477783, -0.3036750853061676], [0.0943237915635109, -0.15353436768054962, -0.15087498724460602]], [[0.006732047535479069, -0.06317847222089767, 0.09861423075199127], [-0.03843420371413231, -0.07734441757202148, 0.03126205503940582], [-0.1769060343503952, -0.12739773094654083, 0.11952333897352219]], [[-0.08041968196630478, -0.03161131590604782, 0.13121327757835388], [-0.0596020482480526, -0.16518563032150269, 0.14710712432861328], [-0.07696027308702469, -0.17024165391921997, 0.21643847227096558]]], [[[0.06939320266246796, 0.1794271171092987, -0.016619758680462837], [0.1653345674276352, 0.020728688687086105, -0.10841954499483109], [-0.01030834298580885, -0.13234809041023254, -0.07913053035736084]], [[-0.03442072123289108, 0.15002630650997162, -0.13006697595119476], [0.1315901130437851, -0.11706770956516266, -0.05071570724248886], [-0.13232605159282684, -0.08972600847482681, -0.11287166178226471]], [[-0.020414935424923897, 0.08491368591785431, 0.35205596685409546], [0.13413159549236298, 0.41766929626464844, -0.1247287467122078], [0.3273320198059082, 0.07635262608528137, -0.05010812357068062]], [[-0.05169118940830231, -0.026936136186122894, -0.07060284912586212], [0.05796860530972481, -0.07189396023750305, 0.0011673442786559463], [-0.052085019648075104, 0.02794741652905941, -0.11259784549474716]], [[-0.00625542551279068, 0.10394992679357529, -0.06024111807346344], [0.10706298798322678, 0.03263482451438904, -0.0207546167075634], [0.1226060688495636, 0.05538802593946457, 0.0071657332591712475]], [[-0.004298435058444738, 0.1692509651184082, -0.0067336102947592735], [0.34837010502815247, -0.11354059725999832, 0.00884184055030346], [-0.06902512162923813, 0.01188395544886589, 0.09738531708717346]], [[0.08562677353620529, 0.09820839017629623, 0.10109122842550278], [0.049752846360206604, -0.10536183416843414, -0.11427599936723709], [-0.2703055143356323, -0.22949804365634918, -0.0650557354092598]], [[-0.021153241395950317, -0.12057260423898697, -0.07017046213150024], [-0.08117441087961197, -0.09596596658229828, -0.04805274307727814], [-0.10755329579114914, -0.024111272767186165, -0.09774944186210632]]], [[[-0.013494818471372128, 0.03768226131796837, -0.04849706590175629], [-0.12857122719287872, -0.1601060926914215, -0.09321895241737366], [0.03516625985503197, 0.10443827509880066, 0.07423309981822968]], [[-0.0984211191534996, 0.07779525220394135, -0.0038239278364926577], [0.05551885440945625, -0.20730048418045044, 0.09323270618915558], [-0.009619460441172123, 0.14637576043605804, 0.022830428555607796]], [[-0.027179496362805367, 0.014723096042871475, 0.1357249766588211], [0.05166473984718323, 0.07190852612257004, -0.058724548667669296], [0.030628465116024017, -0.12728209793567657, 0.16037540137767792]], [[-0.09164310991764069, -0.03712926059961319, -0.05809801444411278], [-0.04144895449280739, 0.07425505667924881, -0.039892762899398804], [-0.013201340101659298, -0.13176089525222778, 0.16777940094470978]], [[0.16168740391731262, 0.06679102778434753, -0.014715850353240967], [0.2520575523376465, 0.20213773846626282, 0.12471586465835571], [0.13701054453849792, 0.13467827439308167, 0.17658120393753052]], [[-0.026733292266726494, -0.11472269892692566, -0.003150440752506256], [-0.0067376140505075455, -0.10382767766714096, 0.19979675114154816], [0.19741566479206085, 0.16636919975280762, 0.11771589517593384]], [[0.03439474478363991, -0.07677219063043594, -0.03974824771285057], [-0.1163022518157959, 0.009366021491587162, -0.015161704272031784], [-0.07202860713005066, -0.19061020016670227, -0.1800079345703125]], [[-0.013887611217796803, -0.11586005240678787, -0.09173303097486496], [-0.03132112696766853, 0.011108094826340675, 0.01901344396173954], [-0.13902147114276886, -0.1150398775935173, -0.005402673501521349]]], [[[0.06377626210451126, -0.11098986864089966, -0.08398262411355972], [0.14638108015060425, -0.1983867585659027, -0.09424301981925964], [0.1556806117296219, -0.15078413486480713, -0.028706153854727745]], [[0.04920227453112602, -0.07695788890123367, 0.1750442385673523], [-0.13411493599414825, -0.02831627056002617, -0.011459575034677982], [0.06488732248544693, 0.23275989294052124, 0.15701386332511902]], [[-0.06637725234031677, 0.11280029267072678, -0.03689957037568092], [-0.05461660027503967, 0.016556480899453163, -0.0029321755282580853], [0.04236961156129837, -0.021152455359697342, 0.08936380594968796]], [[0.012752431444823742, 0.006063133478164673, 0.03197500854730606], [-0.18494287133216858, 0.13748277723789215, -0.025424787774682045], [-0.12988576292991638, 0.12590336799621582, 0.08384473621845245]], [[-0.11740271002054214, -0.05431925877928734, -0.043168142437934875], [-0.01428742241114378, -0.0553993321955204, -0.03665100410580635], [-0.1553136706352234, 0.051415666937828064, -0.08128735423088074]], [[0.0792604610323906, -0.08595017343759537, -0.07466122508049011], [0.04167807102203369, -0.01707201637327671, -0.029038188979029655], [-0.0730762854218483, -0.12818334996700287, -0.07767404615879059]], [[-0.12188597768545151, 0.3236705958843231, 0.022621270269155502], [0.1602317839860916, 0.4393351078033447, 0.27326565980911255], [0.26539352536201477, 0.16196325421333313, 0.25418657064437866]], [[-0.10182297229766846, 0.15283457934856415, -0.016311950981616974], [-0.17847216129302979, 0.19373059272766113, -0.08306238055229187], [0.030620021745562553, 0.018306193873286247, 0.027289295569062233]]], [[[0.020436711609363556, 0.1433405727148056, 0.012699116952717304], [0.0362657830119133, 0.07090982794761658, -0.031417366117239], [0.005972329061478376, 0.048295192420482635, -0.02980286069214344]], [[-0.08871705830097198, 0.060901984572410583, 0.03150413930416107], [-0.2407822608947754, -0.12137079238891602, -0.015372682362794876], [-0.19468310475349426, 0.03952644392848015, 0.03138475492596626]], [[-0.07809984683990479, -0.07307329028844833, 0.06923795491456985], [-0.16804911196231842, -0.13798615336418152, -0.062317147850990295], [-0.1740662157535553, -0.02434309385716915, -0.11337248980998993]], [[-0.10045824199914932, -0.01814783550798893, 0.050575338304042816], [-0.022757044062018394, -0.1532624512910843, 0.03879035264253616], [-0.02485017478466034, -0.23941494524478912, 0.07206814736127853]], [[-0.06604287028312683, -0.07009443640708923, 0.11349396407604218], [-0.01669195480644703, -0.1021631583571434, 0.0813107043504715], [0.09072080999612808, -0.06782408803701401, 0.20084135234355927]], [[-0.09533219039440155, 0.007619624491780996, -0.05986281856894493], [-0.12175952643156052, -0.19497951865196228, -0.197838693857193], [-0.12959879636764526, -0.12888813018798828, -0.29778018593788147]], [[0.10666610300540924, 0.03350158780813217, -0.002853969344869256], [0.2264201045036316, 0.08487331122159958, 0.15317858755588531], [0.25304192304611206, 0.10446576029062271, 0.180668905377388]], [[0.004914028570055962, 0.06414981931447983, -0.07927002757787704], [-0.01276281476020813, 0.06926409155130386, 0.10329976677894592], [0.18256604671478271, -0.1055983453989029, 0.06402559578418732]]], [[[0.019380081444978714, -0.032822415232658386, -0.16371601819992065], [-0.001666527008637786, 0.05192095786333084, 0.08888278901576996], [0.10106674581766129, 0.05599849671125412, 0.007020196411758661]], [[-0.08095872402191162, -0.14743836224079132, -0.1869574934244156], [-0.13826707005500793, -0.41563764214515686, 0.0035889160353690386], [-0.09108030050992966, -0.2794230878353119, -0.0745515301823616]], [[-0.046977315098047256, 0.03566359728574753, -0.15747010707855225], [0.037090789526700974, -0.1296674907207489, -0.047840483486652374], [-0.27622726559638977, -0.42622217535972595, -0.2273794561624527]], [[0.22702904045581818, 0.08264628797769547, -0.054011084139347076], [0.10223439335823059, 0.12941044569015503, 0.014230323024094105], [0.04901602491736412, 0.08622124046087265, 0.034630753099918365]], [[0.08731258660554886, 0.16111713647842407, 0.10204937309026718], [0.08955474197864532, 0.21383850276470184, -0.025305287912487984], [0.045225441455841064, 0.0881628543138504, -0.006727891508489847]], [[-0.15591448545455933, -0.08416852355003357, -0.07690438628196716], [-0.1499105840921402, -0.05551151558756828, -0.14164303243160248], [-0.08787684887647629, -0.012221273966133595, -0.08915407210588455]], [[-0.14619162678718567, -0.1295953243970871, 0.022756099700927734], [0.053038954734802246, 0.058754682540893555, -0.0014473737683147192], [-0.06753383576869965, 0.0924421027302742, -0.003509626490995288]], [[0.1729273647069931, 0.035408370196819305, 0.09898988902568817], [0.16766729950904846, 0.11059636622667313, -0.021458329632878304], [-0.1303844451904297, 0.16168177127838135, -0.05363411083817482]]], [[[-0.2160802036523819, -0.01966417394578457, 0.01926719956099987], [-0.038772083818912506, 0.17022259533405304, -0.06497951596975327], [0.00839384738355875, 0.06723213940858841, -0.1182338073849678]], [[-0.34832486510276794, -0.008549045771360397, -0.004348245449364185], [-0.08630058914422989, -0.10993462800979614, 0.04233283922076225], [-0.061227187514305115, -0.16126111149787903, -0.09435944259166718]], [[0.1557309776544571, -0.3620340824127197, 0.338858038187027], [-0.2907749116420746, 0.029610808938741684, 0.2537144720554352], [-0.1657123863697052, 0.4495949149131775, 0.0015166854718700051]], [[0.08695772290229797, -0.1485409289598465, 0.06535026431083679], [-0.11170406639575958, -0.0027965896297246218, 0.05863472819328308], [0.09951189160346985, 0.028464611619710922, -0.02717912569642067]], [[0.05860739201307297, -0.029878774657845497, -0.09206166863441467], [-0.0790327936410904, -0.10959221422672272, -0.033655449748039246], [-0.1273924559354782, -0.016708586364984512, -0.014071551151573658]], [[-0.14670565724372864, 0.2507097125053406, -0.011720128357410431], [0.05742655321955681, 0.2673459053039551, -0.1623820811510086], [0.3178443908691406, -0.050874628126621246, 0.009963628835976124]], [[0.2708777189254761, 0.16168063879013062, -0.05763228237628937], [0.4546085596084595, 0.1753474324941635, 0.29361972212791443], [0.14730152487754822, 0.1871376633644104, 0.2946453392505646]], [[-0.10950031131505966, -0.046482522040605545, -0.11230720579624176], [0.1531659960746765, -0.11895765364170074, 0.06855997443199158], [0.13218457996845245, -0.16560892760753632, -0.06846719980239868]]], [[[-0.14058592915534973, -0.1268986016511917, -0.2678404450416565], [0.041877541691064835, 0.015618156641721725, 0.03693060576915741], [0.14099912345409393, 0.053459327667951584, -0.025143995881080627]], [[0.02314581535756588, 0.006426766514778137, 0.02791479043662548], [-0.0013128402642905712, -0.1012486070394516, -0.07402803003787994], [-0.03892294690012932, -0.04998549818992615, -0.06422109156847]], [[-0.004581394139677286, 0.15929265320301056, -0.057034626603126526], [0.1299648880958557, -0.10821960866451263, -0.10672428458929062], [-0.026845186948776245, -0.00518479198217392, 0.09998007863759995]], [[0.05901840329170227, 0.09249015152454376, 0.15155412256717682], [-0.07408446073532104, 0.05767381563782692, 0.1411687284708023], [0.021125011146068573, 0.04263212904334068, 0.11658791452646255]], [[0.041525375097990036, 0.049612708389759064, 0.1956796944141388], [-0.01894978992640972, 0.08386831730604172, 0.0412527360022068], [-0.08235090225934982, -0.16536414623260498, -0.10931513458490372]], [[0.0747542679309845, 0.00868870411068201, 0.03740669786930084], [0.010077515617012978, 0.10958820581436157, 0.07104164361953735], [0.1137353926897049, 0.12363693863153458, 0.03534494340419769]], [[0.1563529372215271, 0.0663071870803833, 0.14932887256145477], [-0.0601101890206337, -0.09336460381746292, -0.0619293712079525], [-0.07265453040599823, -0.13233518600463867, -0.01249781809747219]], [[0.10442276298999786, 0.007563918828964233, 0.12934572994709015], [-0.10845562815666199, -0.18647296726703644, -0.0753977969288826], [0.09301219135522842, -0.018961844965815544, 0.008366906084120274]]], [[[-0.013264562003314495, 0.02106924168765545, 0.13666558265686035], [0.06146342307329178, 0.03857243433594704, 0.13030968606472015], [0.041719332337379456, -0.08307984471321106, 0.11091746389865875]], [[-0.04055643081665039, 0.052647337317466736, -0.0013621217804029584], [0.15147598087787628, 0.148503378033638, 0.12741386890411377], [-0.23652414977550507, -0.16820591688156128, -0.2029590755701065]], [[0.07495259493589401, -0.04238548129796982, -0.05812526121735573], [0.08862508833408356, 0.15030309557914734, -0.01789628341794014], [0.16544172167778015, 0.06640442460775375, 0.017200324684381485]], [[0.11905284970998764, 0.16521412134170532, 0.14903251826763153], [0.03325272724032402, 0.13422136008739471, -0.011148746125400066], [0.10029038041830063, 0.1515331119298935, 0.11355716735124588]], [[-0.12866029143333435, -0.08400864899158478, -0.16488584876060486], [-0.00965145044028759, -0.058420609682798386, -0.21701310575008392], [0.02644072286784649, -0.04639219492673874, -0.045469991862773895]], [[-0.00234126765280962, -0.0054632010869681835, 0.13773594796657562], [0.13645078241825104, 0.0983923152089119, 0.09307393431663513], [0.007965993136167526, -0.15887032449245453, -0.10791003704071045]], [[0.0919901430606842, -0.03218387812376022, 0.1052454486489296], [-0.029088018462061882, -0.12289217859506607, 0.15937794744968414], [-0.20627495646476746, -0.1273069679737091, -0.0008295485167764127]], [[0.004948500078171492, 0.07216943800449371, 0.16586677730083466], [0.007954482920467854, -0.14629283547401428, -0.03614896163344383], [-0.02327829785645008, -0.004267426207661629, 0.04478038474917412]]], [[[0.012889494188129902, -0.020781997591257095, 0.018649589270353317], [-0.058851998299360275, 0.07212822884321213, 0.028712386265397072], [-0.054185666143894196, -0.0666050836443901, -0.02956576645374298]], [[0.015551728196442127, -0.10724173486232758, 0.03133535012602806], [0.179815411567688, 0.23418746888637543, 0.20737753808498383], [-0.06937393546104431, -0.14526592195034027, -0.13915587961673737]], [[0.17016321420669556, 0.12242390215396881, 0.07291574031114578], [0.03806161880493164, -0.1323198676109314, -0.169723242521286], [0.0901627391576767, 0.1561022400856018, 0.015527226962149143]], [[-0.002462575910612941, 0.03691378980875015, 0.11723808944225311], [0.16665905714035034, -0.03234940767288208, 0.004967866465449333], [-0.012899922206997871, -0.14052340388298035, 0.04424763098359108]], [[0.06900546699762344, 0.10898175090551376, 0.07228932529687881], [-0.00340957660228014, -0.030729664489626884, -0.1313621997833252], [-0.08011399954557419, -0.16561512649059296, -0.11966679245233536]], [[0.05837799608707428, -0.040122583508491516, -0.020862272009253502], [0.22332514822483063, 0.07423632591962814, 0.2511434555053711], [-0.01644364558160305, -0.13408976793289185, -0.028597502037882805]], [[0.18981976807117462, 0.17972777783870697, -0.03739529103040695], [-0.039748769253492355, -0.09677541255950928, -0.08358202874660492], [0.09614695608615875, -0.09281826764345169, -0.05535302311182022]], [[0.12554152309894562, 0.017665209248661995, 0.09903882443904877], [0.03087026998400688, -0.015827273949980736, -0.11672884970903397], [0.011335660703480244, -0.08013232052326202, -0.09312945604324341]]], [[[0.09658388048410416, -0.006173900328576565, -0.10092515498399734], [-0.06347467005252838, 0.035173218697309494, 0.10071460902690887], [-0.041707322001457214, 0.014194079674780369, 0.13290810585021973]], [[0.310588538646698, 0.16196779906749725, 0.18104995787143707], [0.18279097974300385, 0.3226813077926636, 0.17715959250926971], [-0.13817377388477325, 0.04952961578965187, 0.13874748349189758]], [[-0.010227802209556103, 0.04632382094860077, -0.07862363755702972], [-0.21755345165729523, -0.05447392165660858, 0.03506333380937576], [0.15702424943447113, 0.11319191753864288, 0.06297948211431503]], [[0.010311713442206383, -8.129798516165465e-05, 0.12469612061977386], [0.01819535717368126, 0.12606196105480194, 0.03117803856730461], [0.12560856342315674, -0.1203458160161972, -0.23298707604408264]], [[0.06632348895072937, -0.06163417547941208, -0.04157015308737755], [0.08074622601270676, 0.1471749246120453, 0.07920251041650772], [0.1728217899799347, -0.01763039454817772, -0.13159163296222687]], [[0.032632894814014435, -0.09951182454824448, 0.018906906247138977], [-0.13897092640399933, 0.0856950506567955, 0.08143974095582962], [-0.3165719509124756, 0.20746630430221558, 0.18395039439201355]], [[0.013307027518749237, 0.028808144852519035, -0.029696913436055183], [-0.13598865270614624, -0.03692536801099777, 0.001967373304069042], [0.008609705604612827, -0.17982010543346405, -0.1693439483642578]], [[-0.05934399738907814, 0.01905594766139984, -0.02497350051999092], [0.010866223834455013, -0.07049747556447983, 0.1836082935333252], [0.13088399171829224, -0.011996033601462841, -0.22280538082122803]]], [[[0.04773661866784096, -0.040578778833150864, -0.0722326934337616], [-0.09639827162027359, 0.0549774095416069, 0.01120595633983612], [-0.15900170803070068, -0.012544767931103706, -0.0015736509812995791]], [[0.16274262964725494, 0.1865030825138092, 0.20075839757919312], [0.08725262433290482, 0.04635511338710785, 0.2820121645927429], [0.011042234487831593, 0.17498207092285156, 0.10671849548816681]], [[0.1160699725151062, 0.15701641142368317, -0.13658803701400757], [-0.14408013224601746, 0.0602082721889019, 0.10028012096881866], [-0.04677443206310272, 0.05730491504073143, 0.06998659670352936]], [[0.07964380085468292, -0.18126161396503448, 0.0823013111948967], [0.0683024451136589, -0.1224001944065094, 0.06546259671449661], [-0.014271349646151066, -0.0768626406788826, -0.05055097118020058]], [[-0.053405605256557465, -0.16152846813201904, 0.05730026960372925], [0.04043526202440262, -0.09317626059055328, -0.0698838010430336], [0.08685991913080215, -0.1321367621421814, -0.14379426836967468]], [[0.06492377072572708, -0.18725866079330444, -0.16119025647640228], [-0.09866346418857574, 0.04926848039031029, -0.20763403177261353], [-0.07525783777236938, -0.09718402475118637, -0.007797680329531431]], [[0.20336942374706268, 0.1670002043247223, 0.10633090138435364], [0.2719413638114929, 0.2931869626045227, 0.18998943269252777], [0.08847732841968536, 0.22626791894435883, 0.029573066160082817]], [[0.1966717541217804, 0.05366194620728493, -0.0008824546239338815], [0.14029037952423096, 0.1935606300830841, -0.10883281379938126], [-0.002060887636616826, 0.0991298109292984, 0.11274506151676178]]]], "features.3.bias": [0.2938201427459717, -0.16291184723377228, 0.18606644868850708, -0.09527892619371414, -0.06590186059474945, -0.11581697314977646, 0.22373127937316895, 0.08476579934358597, 0.2394789308309555, -0.06524775922298431, -0.1284807026386261, 0.030031030997633934, -0.3161431550979614, -0.12595012784004211, -0.24862079322338104, -0.21672390401363373], "features.6.weight": [[[[-0.13906577229499817, 0.003368575358763337, 0.04963590204715729], [-0.10556796938180923, -0.025944164022803307, -0.127865731716156], [0.1945183277130127, 0.005192973185330629, -0.15409418940544128]], [[-0.05434878543019295, -0.12138178944587708, -0.09403758496046066], [0.08987652510404587, -0.0726483017206192, 0.040581442415714264], [-0.04045417532324791, -0.01851634494960308, -0.1290930211544037]], [[0.03697263076901436, 0.07145634293556213, 0.20204900205135345], [-0.11134703457355499, -0.12506474554538727, -0.004024648107588291], [-0.07140163332223892, -0.19325433671474457, 0.017431067302823067]], [[-0.031003734096884727, -0.02298312820494175, 0.07666193693876266], [-0.04773377254605293, 0.24963723123073578, 0.12880399823188782], [0.2636364698410034, 0.12760689854621887, 0.006793511565774679]], [[-0.04814998060464859, -0.0937969908118248, -0.18150676786899567], [0.054158613085746765, -0.05872441083192825, -0.1491793394088745], [0.007401725742965937, 0.0185162965208292, -0.06716457009315491]], [[-0.06547153741121292, -0.05005325749516487, -0.08859828114509583], [-0.060045819729566574, -0.18319034576416016, -0.07182352989912033], [0.050172578543424606, 0.12285827845335007, 0.18224678933620453]], [[0.20522381365299225, 0.0397430844604969, 0.039934732019901276], [-0.050955384969711304, -0.01190188992768526, 0.0025014772545546293], [-0.13672751188278198, -0.08608061820268631, -0.007254756987094879]], [[-0.2066928744316101, -0.14292427897453308, -0.15076944231987], [0.017135467380285263, 0.1665254831314087, 0.06409594416618347], [0.043117646127939224, 0.12731994688510895, 0.05287172645330429]], [[-0.23191507160663605, -0.255829781293869, -0.05954117327928543], [0.18682299554347992, -0.0887267217040062, -0.06373388320207596], [0.14213550090789795, -0.03910079225897789, -0.0575772263109684]], [[0.041968055069446564, 0.1624067723751068, 0.035789694637060165], [-0.19182613492012024, -0.0493798702955246, 0.0006295561324805021], [-0.0441010445356369, 0.05040382221341133, 0.019137680530548096]], [[-0.07916133105754852, -0.11338730901479721, -0.0795995369553566], [0.30843430757522583, 0.18295222520828247, 0.08487257361412048], [0.18979038298130035, 0.2326986938714981, 0.1678435057401657]], [[0.08673928678035736, 0.05483289435505867, -0.00454405602067709], [-0.018775243312120438, 0.04607057943940163, 0.014049380086362362], [-0.19834811985492706, -0.04016004875302315, -0.01599300280213356]], [[-0.11841867119073868, -0.09314796328544617, -0.10688372701406479], [0.017961032688617706, -0.07541746646165848, -0.06604986637830734], [0.00027126172790303826, 0.10323188453912735, 0.14255446195602417]], [[0.07025498151779175, 0.022065214812755585, 0.02220016159117222], [-0.0012760715326294303, 0.04352417588233948, 0.04176649451255798], [-0.16321389377117157, -0.10875058174133301, -0.050900064408779144]], [[-0.08508563041687012, -0.11330854147672653, -0.09416621178388596], [-0.04896936193108559, -0.12170728296041489, -0.10576168447732925], [-0.09514376521110535, 0.017606712877750397, -0.08864278346300125]], [[-0.25914493203163147, -0.16354088485240936, -0.013640763238072395], [0.11455285549163818, 0.04353473708033562, 0.014063915237784386], [0.1332799196243286, 0.1904427856206894, 0.13026130199432373]]], [[[-0.13776682317256927, 0.02059366926550865, 0.07712316513061523], [-0.026256300508975983, -0.018541261553764343, 0.0081334812566638], [0.0037157253827899694, -0.1683727502822876, -0.07942575961351395]], [[0.004995831288397312, 0.1629185974597931, 0.248041033744812], [0.2691895663738251, 0.31618016958236694, 0.018040837720036507], [0.046045053750276566, -0.09561973810195923, 0.09804284572601318]], [[0.07474207878112793, -0.06622321158647537, -0.01519677136093378], [-0.1290290355682373, -0.15124109387397766, 0.06155863404273987], [0.0961938127875328, -0.04743642359972, 0.03574062138795853]], [[-0.06257382035255432, -0.007444743067026138, -0.013256224803626537], [0.05338028818368912, -0.007358822971582413, 0.018378883600234985], [-0.06064658239483833, -0.10682272911071777, -0.08237975090742111]], [[0.149495929479599, 0.07835757732391357, -0.11894581466913223], [0.20165206491947174, 0.0616234727203846, 0.0791938379406929], [0.017755279317498207, -0.07394976913928986, -0.13402648270130157]], [[-0.02467643842101097, -0.0217475276440382, 0.003253346309065819], [-0.035368070006370544, -0.08438137173652649, -0.0452711395919323], [-0.11871614307165146, -0.06215245649218559, -0.03747371584177017]], [[0.05656683072447777, 0.019153710454702377, -0.12391334027051926], [0.2056386023759842, 0.1289789378643036, -0.13768334686756134], [0.007838577032089233, 0.04818172752857208, 0.10178585350513458]], [[-0.15699335932731628, -0.060433052480220795, -0.17035003006458282], [0.11392837762832642, 0.05555354058742523, -0.07955501973628998], [-0.09892597049474716, -0.030005408450961113, -0.12161439657211304]], [[-0.04697149246931076, -0.15201443433761597, -0.0872504860162735], [-0.03548033535480499, -0.2273535579442978, -0.03671140596270561], [-0.18109464645385742, -0.20937851071357727, -0.03798834607005119]], [[0.10185080766677856, 0.1803252100944519, -0.10674431174993515], [0.31298670172691345, 0.1847544014453888, -0.04365911707282066], [0.10366414487361908, -0.02269803360104561, -0.026585744693875313]], [[0.1370435655117035, 0.11193603277206421, 0.11889351904392242], [0.11796946823596954, 0.18099689483642578, 0.06085633486509323], [0.03901490196585655, -0.0002061831037281081, -0.005698321852833033]], [[0.04675019532442093, 0.05617513880133629, -0.05820678919553757], [0.04117853567004204, 0.1409355252981186, -0.07269761711359024], [-0.02597654238343239, -0.023928867653012276, -0.06595429033041]], [[-0.051758456975221634, -0.12188083678483963, -0.0829850509762764], [0.06656736135482788, -0.004750361666083336, 0.019367443397641182], [-0.0363466776907444, 0.020630549639463425, 0.042141713201999664]], [[-0.15876825153827667, -0.13385994732379913, 0.09372683614492416], [0.2354917675256729, 0.21072661876678467, -0.12002886831760406], [0.12492991983890533, 0.08088935911655426, 0.14382460713386536]], [[-0.041008614003658295, 0.01418677531182766, 0.09355994313955307], [0.013488829135894775, -0.003079896792769432, -0.15596573054790497], [0.0026973902713507414, -0.06471461802721024, -0.0033502939622849226]], [[-0.15605752170085907, -0.08388719707727432, -0.07974589616060257], [-0.09254877269268036, 0.011128311045467854, -0.13311761617660522], [-0.20499643683433533, -0.10710200667381287, -0.11726275086402893]]], [[[-0.16784678399562836, -0.1054522693157196, -0.17039412260055542], [-0.05066939815878868, -0.15745234489440918, -0.12920153141021729], [0.06281507760286331, 0.08717910200357437, -0.002246433636173606]], [[0.1295742392539978, -0.06305045634508133, 0.02331758849322796], [-0.22889278829097748, -0.36039999127388, -0.09332853555679321], [-0.12908442318439484, -0.29606348276138306, -0.02903597429394722]], [[-0.055427100509405136, -0.08791278302669525, 0.057902395725250244], [0.18374848365783691, 0.12537534534931183, 0.13331620395183563], [0.09730583429336548, 0.09895167499780655, 0.14811386168003082]], [[0.20478470623493195, 0.12401778995990753, 0.08380851149559021], [0.05250769481062889, -0.08641192317008972, -0.13137033581733704], [-0.04846591129899025, -0.09531611949205399, -0.11977432668209076]], [[-0.15825949609279633, -0.1570724993944168, 0.07953731715679169], [-0.28235891461372375, -0.3400630056858063, 0.03273257985711098], [-0.36723363399505615, -0.4077051877975464, -0.0207382645457983]], [[0.020188065245747566, -0.040541715919971466, 0.0031317544635385275], [-0.10827260464429855, -0.11426696181297302, -0.08899006992578506], [0.003736246144399047, 0.1069633737206459, 0.12870639562606812]], [[0.11583433300256729, 0.13130268454551697, 0.13940845429897308], [0.05892234668135643, 0.10482433438301086, 0.09293463826179504], [-0.08866806328296661, 0.0045977504923939705, -0.007873278111219406]], [[0.0997467190027237, 0.21589311957359314, 0.061576977372169495], [-0.14972461760044098, -0.08442075550556183, -0.10477853566408157], [-0.1972864419221878, -0.149062842130661, -0.16238318383693695]], [[-0.07272503525018692, 0.032474882900714874, 0.16099075973033905], [-0.1320936381816864, -0.197830468416214, -0.08051880449056625], [0.11831695586442947, -0.014025602489709854, 0.18108458817005157]], [[-0.050138119608163834, -0.09753412008285522, 0.0065949223935604095], [-0.09701867401599884, 0.0742034912109375, 0.08954502642154694], [-0.1417328268289566, -0.042675167322158813, -0.09595093876123428]], [[0.09810934960842133, 0.08630802482366562, 0.19092720746994019], [-0.3298599123954773, -0.36835113167762756, -0.08038131892681122], [-0.32608944177627563, -0.39333513379096985, -0.11268110573291779]], [[-0.047548551112413406, 0.07981259375810623, 0.10218080133199692], [0.13276034593582153, 0.054059676826000214, 0.05596201866865158], [-0.03748990595340729, -0.10474279522895813, 0.05050947144627571]], [[0.0038731484673917294, 0.07812358438968658, -0.03283492475748062], [-0.040562279522418976, -0.026188122108578682, -0.04044860601425171], [0.014796228148043156, 0.014040540903806686, 0.07158267498016357]], [[-0.0037030705716460943, -0.03601992502808571, -0.013740639202296734], [0.018923746421933174, 0.08380433171987534, 0.06745565682649612], [0.20229613780975342, 0.14255701005458832, 0.11217669397592545]], [[0.07361732423305511, 0.026274703443050385, 0.07223042845726013], [-0.0401877798140049, -0.03985291346907616, 0.08767632395029068], [-0.006265080533921719, 0.057310037314891815, 0.10637050122022629]], [[0.31303924322128296, 0.2159627228975296, 0.12257621437311172], [0.025921151041984558, -0.032940614968538284, -0.0402047298848629], [-0.15731486678123474, -0.27429842948913574, -0.06985163688659668]]], [[[-0.016649609431624413, -0.07788054645061493, -0.1848084181547165], [0.10606419295072556, -0.10266895592212677, -0.013981813564896584], [0.06363442540168762, -0.26976582407951355, -0.1396116316318512]], [[-0.050037067383527756, 0.00534313777461648, -0.11500916630029678], [0.0004568427975755185, 0.031201625242829323, -0.006369272246956825], [0.10520894080400467, -0.100926473736763, -0.4497016370296478]], [[0.03822527453303337, 0.13530132174491882, 0.11036083847284317], [-0.10748746991157532, 0.04548420384526253, 0.27571702003479004], [-0.1488656848669052, 0.08172667771577835, 0.19248639047145844]], [[0.07560411095619202, 0.12444319576025009, -0.07369813323020935], [0.1673903614282608, 0.1759951114654541, -0.2598726451396942], [0.18202972412109375, 0.09558595716953278, -0.18666820228099823]], [[-0.13680970668792725, -0.10263270884752274, -0.24993827939033508], [0.0184492077678442, -0.03892780467867851, -0.30677881836891174], [-0.1344374269247055, -0.23476432263851166, -0.40727561712265015]], [[-0.10594775527715683, -0.010044161230325699, -0.013200866989791393], [-0.12788867950439453, -0.16462168097496033, -0.16947609186172485], [0.0016629393212497234, 0.09127809852361679, 0.0031896170694381]], [[0.08310876786708832, 0.12809038162231445, 0.03038252703845501], [-0.14387179911136627, -0.09155925363302231, 0.13401468098163605], [-0.29794883728027344, 0.0013198148226365447, 0.16942039132118225]], [[-0.028081534430384636, 0.1966855227947235, -0.08970999717712402], [0.1521517038345337, 0.2275189906358719, 0.05551426112651825], [0.07683863490819931, -0.0750683918595314, -0.33553144335746765]], [[-0.041552916169166565, 0.006997542455792427, -0.09861455857753754], [0.2580753266811371, 0.0678374320268631, -0.06776246428489685], [0.14525654911994934, -0.0295097678899765, -0.15098103880882263]], [[-0.004645172506570816, 0.05399469658732414, -0.016537528485059738], [-0.06596013903617859, -0.1004081442952156, 0.014835025183856487], [-0.020913835614919662, 0.0653860941529274, 0.09865079820156097]], [[-0.030165577307343483, -0.10445647686719894, -0.16297687590122223], [0.05222187936306, -0.11465959250926971, -0.24301131069660187], [0.027350258082151413, 0.08986282348632812, -0.24103078246116638]], [[0.04452674090862274, 0.09928607940673828, 0.04608890041708946], [-0.08286888897418976, 0.07384093105792999, 0.08605708926916122], [-0.13712076842784882, -0.03524263948202133, -0.01029093936085701]], [[-0.04109623283147812, -0.13267990946769714, -0.15212270617485046], [-0.026470612734556198, -0.07346764951944351, -0.013045349158346653], [0.03417867049574852, -0.0331459604203701, 0.020739713683724403]], [[0.046933338046073914, 0.06285122781991959, 0.12334563583135605], [-0.1073458269238472, 0.12102720886468887, 0.16608472168445587], [-0.07858071476221085, 0.04101819917559624, 0.1562732458114624]], [[-0.0251814853399992, -0.0028561726212501526, 0.019320255145430565], [-0.153947651386261, -0.05720047652721405, -0.012789464555680752], [0.01212505903095007, 0.08526112884283066, 0.13670530915260315]], [[-0.032320600003004074, 0.05025966838002205, -0.026228930801153183], [0.10970619320869446, 0.12818625569343567, -0.14847780764102936], [0.22448787093162537, 0.08122745156288147, -0.2310953587293625]]], [[[0.034573860466480255, -0.15117865800857544, -0.11150755733251572], [-0.12123408168554306, -0.08113709092140198, -0.10503724962472916], [0.01282637007534504, -0.07408207654953003, 0.04201729595661163]], [[-0.03153150528669357, -0.0822058916091919, -0.0640845000743866], [-0.005511998198926449, -0.09607550501823425, -0.06598788499832153], [-0.2929736077785492, -0.08648005872964859, -0.13821353018283844]], [[0.14922010898590088, 0.004610941279679537, 0.06738121807575226], [0.040005240589380264, 0.026619724929332733, -0.10876983404159546], [0.1019456759095192, -0.017589915543794632, -0.01369229331612587]], [[-0.04284009337425232, -0.02698305808007717, -0.05383787676692009], [-0.16569499671459198, -0.21115189790725708, -0.12322431802749634], [-0.23423664271831512, -0.2979866862297058, -0.17492114007472992]], [[-0.0730719342827797, -0.06471285969018936, -0.03585273027420044], [-0.24432578682899475, -0.10323856770992279, 0.02046835981309414], [-0.3257153332233429, -0.004008920397609472, 0.03946306183934212]], [[-0.0835968479514122, -0.076985202729702, -0.1115947738289833], [0.05937037616968155, 0.1126113310456276, 0.04116630554199219], [0.05812491476535797, 0.10543625056743622, 0.2599455714225769]], [[0.07330335676670074, 0.1322048455476761, 0.1843494027853012], [0.03597286716103554, 0.10684163123369217, 0.1495557725429535], [0.09259765595197678, 0.037819329649209976, -0.09510031342506409]], [[0.02391144633293152, 0.07520595192909241, 0.17073935270309448], [-0.09825032204389572, 0.04954133555293083, 0.08499868959188461], [-0.38289135694503784, -0.12551583349704742, 0.054918911308050156]], [[0.1214347705245018, 0.05310805141925812, 0.027709828689694405], [-0.1346462517976761, -0.13670781254768372, -0.12745589017868042], [-0.04904346913099289, -0.11734895408153534, -0.09312550723552704]], [[-0.1456507444381714, -0.16649901866912842, -0.006482825148850679], [-0.02412514016032219, -0.11315520852804184, -0.09432066977024078], [-0.019334744662046432, -0.07575616240501404, -0.02357192151248455]], [[0.04296719655394554, 0.11313724517822266, -0.010767653584480286], [0.085771344602108, 0.08562184125185013, 0.11596304178237915], [-0.020717311650514603, 0.10459773987531662, 0.11781938374042511]], [[0.08578450232744217, 0.0664113312959671, 0.05419527366757393], [-0.026849325746297836, 0.003633619286119938, 0.0019684405997395515], [-0.06497258692979813, -0.05926237255334854, -0.005607202183455229]], [[-3.127231320831925e-05, -0.042481113225221634, -0.11024563014507294], [0.05128127336502075, 0.015102340839803219, 0.05091174319386482], [0.05720716714859009, 0.026116324588656425, 0.024916986003518105]], [[0.05480710789561272, 0.1045445054769516, -0.02967384085059166], [0.06189170852303505, -0.06458490341901779, 0.06913942843675613], [0.019033389165997505, 0.09951118379831314, 0.13414643704891205]], [[0.01920299045741558, -0.049426645040512085, -0.04162140563130379], [0.06163717433810234, -0.05665288865566254, 0.011436020955443382], [0.11048130691051483, 0.024425745010375977, 0.08988456428050995]], [[0.0397561639547348, -0.1326615959405899, -0.13195031881332397], [0.06181784346699715, -0.06488547474145889, 0.047118283808231354], [-0.05389728769659996, -0.10909532010555267, 0.06811141967773438]]], [[[-0.2820807993412018, -0.14593613147735596, -0.08654411137104034], [0.07691241055727005, 0.17757095396518707, 0.24495624005794525], [-0.02209066040813923, -0.20751187205314636, -0.12122365087270737]], [[0.027903055772185326, -0.14172054827213287, -0.05474486202001572], [0.0616450309753418, -0.4792245030403137, -0.06925136595964432], [0.17776651680469513, -0.42158326506614685, -0.031920403242111206]], [[0.03966156393289566, 0.07538924366235733, -0.0499814935028553], [0.004542960785329342, 0.2905232906341553, 0.023505764082074165], [0.1180376335978508, 0.338320255279541, 0.19653446972370148]], [[0.03884502500295639, -0.04766516759991646, 0.03987311199307442], [-0.19467170536518097, -0.40890198945999146, -0.024358849972486496], [-0.24326401948928833, -0.2706577777862549, 0.18672190606594086]], [[-0.09132735431194305, -0.11098337918519974, 0.030810216441750526], [-0.012892033904790878, -0.2767987847328186, -0.09067680686712265], [0.060455698519945145, -0.13311034440994263, -0.07430087774991989]], [[0.08207375556230545, 0.03333991765975952, 0.017067594453692436], [0.06446492671966553, 0.020990613847970963, -0.06139680743217468], [0.02287791483104229, 0.07156839221715927, 0.00466805137693882]], [[0.13222280144691467, 0.10655105113983154, 0.11513359844684601], [-0.07707839459180832, 0.05060649663209915, 0.008664494380354881], [-0.013622934930026531, 0.08848727494478226, 0.008943048305809498]], [[0.14559325575828552, 0.238666370511055, 0.18575312197208405], [-0.09234246611595154, -0.1105136051774025, 0.01579219102859497], [0.03527558594942093, -0.016967054456472397, 0.03639458119869232]], [[0.02527310699224472, -0.05119761452078819, 0.08223902434110641], [0.03946058452129364, -0.07362879067659378, 0.12779954075813293], [0.10650204122066498, -0.22871123254299164, 0.07246041297912598]], [[-0.11439912021160126, -0.06432005017995834, -0.21862992644309998], [0.07516714185476303, 0.027695946395397186, -0.1016601026058197], [0.005596320144832134, 0.09727564454078674, 0.031031684949994087]], [[-0.006880683824419975, -0.029870029538869858, 0.04564245417714119], [-0.06588061153888702, -0.224186971783638, 0.09066258370876312], [0.14834465086460114, -0.1121135726571083, 0.03619929775595665]], [[-0.1307707130908966, 0.01270741131156683, -0.10896369069814682], [-0.0019767433404922485, 0.009195398539304733, -0.040200091898441315], [-0.0315597839653492, 0.06708192080259323, -0.17881692945957184]], [[0.06039473041892052, -0.08341896533966064, -0.04749330133199692], [-0.1168629452586174, 0.021844787523150444, -0.14057570695877075], [-0.05608448013663292, 0.15479528903961182, 0.07444596290588379]], [[-0.03184937685728073, 0.07795993238687515, -0.02214849554002285], [0.020576823502779007, 0.045978229492902756, -0.14411456882953644], [-0.036742474883794785, 0.17204488813877106, -0.13061165809631348]], [[-0.03816363587975502, 0.06194046884775162, -0.008696452714502811], [-0.1810842901468277, -0.03164524585008621, -0.017360158264636993], [-0.11673518270254135, -0.007382617797702551, 0.008306377567350864]], [[0.04737558215856552, 0.0635363981127739, 0.055626410990953445], [-0.14705827832221985, -0.2084411084651947, -0.03640804812312126], [0.0253816656768322, -0.04347868263721466, 0.15505307912826538]]], [[[0.06257789582014084, 0.18002507090568542, 0.06611523777246475], [-0.19411930441856384, -0.060499999672174454, 0.06017922982573509], [-0.2581334710121155, 0.02412291057407856, -0.007430746220052242]], [[0.0010758786229416728, 0.03798377513885498, -0.02725113183259964], [-0.0839051604270935, -0.010422964580357075, -0.1166134849190712], [0.05841989070177078, 0.013636472634971142, -0.03420453891158104]], [[-0.14465703070163727, -0.28983941674232483, -0.10489392280578613], [-0.020921975374221802, -0.3906186521053314, -0.22907795011997223], [0.002547408454120159, -0.14365315437316895, -0.10364865511655807]], [[0.026653291657567024, 0.1057169958949089, 0.14075003564357758], [0.4189145863056183, 0.19705085456371307, 0.13832929730415344], [0.29812467098236084, 0.22500257194042206, 0.1984395533800125]], [[0.17873290181159973, 0.11675725877285004, 0.07501567900180817], [0.18525993824005127, 0.016724342480301857, -0.09533049166202545], [0.18402321636676788, 0.147655189037323, 0.09062692523002625]], [[-0.017275558784604073, -0.036746419966220856, 0.02386065013706684], [0.008357878774404526, -0.19824452698230743, 0.061240240931510925], [0.015295449644327164, -0.06305694580078125, -0.026258885860443115]], [[0.025515101850032806, 0.12404275685548782, 0.006269522942602634], [-0.006925120949745178, 0.0888688713312149, 0.023930618539452553], [-0.04411638528108597, -0.006843232549726963, 0.028464073315262794]], [[-0.1180984154343605, 0.08985074609518051, 0.01665419526398182], [0.02011621557176113, 0.0673380121588707, -0.16199687123298645], [-0.015190588310360909, 0.060439951717853546, 0.01066665817052126]], [[0.06786300987005234, 0.06953378021717072, 0.06137588992714882], [0.17775839567184448, 0.07540436089038849, 0.08855146914720535], [0.13307921588420868, 0.018580282106995583, 0.05798068642616272]], [[-0.09384306520223618, 0.016082750633358955, -0.024433698505163193], [-0.1614622324705124, 0.09008071571588516, 0.10454927384853363], [-0.07916587591171265, -0.019389186054468155, 0.16305534541606903]], [[-0.019797034561634064, -0.07517977058887482, 0.037698112428188324], [-0.21427392959594727, -0.29025617241859436, -0.10890008509159088], [-0.02576805092394352, -0.07685390114784241, -0.04664938896894455]], [[0.04509422928094864, 0.003977943677455187, 0.07942108809947968], [-0.05974190682172775, 0.04023208096623421, 0.0658118724822998], [-0.13017547130584717, -0.05685322359204292, 0.04369232803583145]], [[-0.08923517912626266, -0.05710930377244949, 0.0639500543475151], [0.0025012055411934853, -0.15689566731452942, -0.19044673442840576], [-0.033088091760873795, -0.1501971334218979, -0.06928164511919022]], [[-0.15310321748256683, -0.11116602271795273, -0.18001559376716614], [-0.18839678168296814, -0.13657110929489136, -0.22975195944309235], [-0.22698529064655304, -0.08318868279457092, 0.06193079799413681]], [[-0.09568434208631516, -0.023108886554837227, 0.20913851261138916], [0.07301159203052521, -0.011428860016167164, -0.04817339777946472], [-0.021289579570293427, 0.024700406938791275, 0.19458454847335815]], [[-0.10134671628475189, 0.08501044660806656, 0.09546013921499252], [-0.10438317805528641, -0.05622648820281029, 0.035029567778110504], [-0.011776012368500233, -0.035532400012016296, -0.016575418412685394]]], [[[-0.0821278914809227, 0.06345491111278534, -0.033451810479164124], [0.08979785442352295, 0.07886970788240433, -0.006716192699968815], [-0.1242586299777031, 0.052923958748579025, -0.16140080988407135]], [[0.03987749293446541, 0.14850392937660217, 0.1746637523174286], [-0.11216938495635986, 0.0012779805110767484, 0.09603895246982574], [-0.2201734185218811, -0.058183737099170685, -0.09562022984027863]], [[-0.05953162536025047, -0.0996539443731308, -0.08610738813877106], [0.08084098994731903, 0.13321101665496826, 0.156238853931427], [0.11660679429769516, 0.18483112752437592, 0.1180044636130333]], [[0.09340700507164001, 0.11003311723470688, 0.1358562707901001], [0.02886851690709591, 0.037394747138023376, -0.06479806452989578], [-0.24156184494495392, -0.07603400200605392, 0.031042180955410004]], [[-0.2407997101545334, -0.0495954230427742, -0.20178309082984924], [-0.2934664189815521, -0.11516411602497101, -0.13394013047218323], [-0.14263662695884705, -0.14227721095085144, 0.12362223118543625]], [[-0.016130762174725533, -0.10412660986185074, -0.2152726650238037], [-0.0844879075884819, -0.16004090011119843, -0.1753164827823639], [-0.044433027505874634, 0.029774772003293037, -0.023072438314557076]], [[0.14126943051815033, 0.10042809695005417, 0.09421634674072266], [0.14904886484146118, 0.08877815306186676, 0.0011996334651485085], [-0.3522287905216217, -0.2804853320121765, -0.27753156423568726]], [[-0.0906808003783226, 0.1675671935081482, 0.03925982490181923], [0.013706098310649395, 0.07363195717334747, 0.04424142464995384], [0.10101809352636337, 0.05662218853831291, 0.005901864264160395]], [[-0.05566909536719322, -0.02979240193963051, -0.08354808390140533], [0.04194090515375137, -0.000297236954793334, 0.04389973357319832], [0.23537789285182953, 0.2635153532028198, 0.28091198205947876]], [[0.15981847047805786, 0.1296243816614151, 0.03442126885056496], [0.05063707381486893, 0.044638440012931824, -0.037616707384586334], [-0.27055665850639343, -0.2668502628803253, -0.31903403997421265]], [[-0.07780875265598297, -0.09706996381282806, 0.08779258280992508], [-0.06107962504029274, -0.004061711952090263, -0.021107517182826996], [0.01769275777041912, 0.004924430977553129, -0.01341641042381525]], [[0.12115533649921417, 0.1766834706068039, 0.029743162915110588], [0.008154182694852352, 0.19103729724884033, -0.00747501477599144], [-0.178794726729393, -0.0036396521609276533, -0.17548735439777374]], [[-0.10411706566810608, -0.01982954330742359, -0.13155251741409302], [-0.12731392681598663, -0.10079191625118256, -0.03598052263259888], [-0.07642281800508499, 0.090798519551754, 0.0034837203565984964]], [[0.08099213242530823, 0.05125970393419266, 0.02480500191450119], [-0.011068938300013542, 0.08672863990068436, 0.004799732472747564], [0.008705244399607182, 0.012596862390637398, -0.03452332690358162]], [[-0.04193756356835365, 0.02100447006523609, -0.04758834093809128], [-0.16239970922470093, -0.1785174459218979, -0.06136016920208931], [-0.18142376840114594, -0.055363450199365616, -0.0829143300652504]], [[0.02542465552687645, 0.0021471602376550436, -0.07175954431295395], [-0.19652926921844482, -0.2086075246334076, -0.14943736791610718], [-0.05230819433927536, -0.074775829911232, -0.057003606110811234]]], [[[-0.16362003982067108, -0.26216012239456177, -0.14384305477142334], [0.06570441275835037, 0.23065103590488434, 0.1897192895412445], [0.202473983168602, 0.09727604687213898, 0.014874543063342571]], [[-0.10549823939800262, -0.1522073745727539, -0.1705702841281891], [0.060117803514003754, -0.006041652522981167, 0.025372818112373352], [0.09420152008533478, -0.0333552360534668, -0.10261404514312744]], [[0.16766078770160675, 0.18148356676101685, 0.1733298897743225], [0.05878865718841553, 0.19581259787082672, 0.15420076251029968], [0.0706346184015274, 0.08464165776968002, 0.2158641368150711]], [[-0.03755306079983711, 0.0002410903834970668, -0.005888022948056459], [-0.11115551739931107, -0.04385969415307045, 0.07624825835227966], [-0.040877316147089005, -0.07168467342853546, -0.033847250044345856]], [[-0.03216469660401344, -0.16296544671058655, -0.09108494967222214], [0.15378274023532867, -0.002541548339650035, 0.08663680404424667], [-0.011723833158612251, -0.08603345602750778, 0.02441377006471157]], [[0.027082841843366623, 0.05458426848053932, 0.08931620419025421], [0.09142901748418808, 0.010162063874304295, -0.05670520290732384], [-0.13534560799598694, -0.12106683850288391, -0.03582150489091873]], [[0.023818043991923332, 0.041754890233278275, 0.05354670062661171], [0.02439439669251442, 0.03252466395497322, 0.07100493460893631], [-0.16854524612426758, -0.09329488128423691, -0.05511164292693138]], [[-0.23463910818099976, -0.13934853672981262, -0.07529055327177048], [0.09057480841875076, 0.15382255613803864, 0.02271907590329647], [0.06760518997907639, 0.12302647531032562, 0.11535342782735825]], [[-0.052684150636196136, -0.1544172465801239, 0.03446599096059799], [-0.026076044887304306, -0.0694722905755043, -0.049353912472724915], [0.03932302072644234, 0.05718199908733368, -0.0033868453465402126]], [[-0.07011161744594574, -0.009197295643389225, 0.027915596961975098], [0.12440215051174164, 0.19789208471775055, 0.11795749515295029], [-0.0319843627512455, -0.1130077987909317, -0.04014204442501068]], [[-0.003853623988106847, -0.0004933604504913092, -0.09741155803203583], [0.08332762122154236, -0.08986055105924606, -0.036316514015197754], [0.11628871411085129, 0.07834634184837341, 0.03174141049385071]], [[-0.06255423277616501, -0.11903701722621918, 0.0002915015793405473], [0.13126197457313538, 0.12452603131532669, 0.1156945675611496], [-0.036108728498220444, -0.07129690051078796, -0.0029038111679255962]], [[-0.053509075194597244, 0.013977894559502602, -0.07639708369970322], [-0.05187584087252617, -0.04265889152884483, -0.21485882997512817], [-0.03581763058900833, 0.018632275983691216, 0.02702774479985237]], [[0.012327530421316624, -0.007417387794703245, 0.09225032478570938], [0.07995766401290894, 0.21303842961788177, 0.023839032277464867], [-0.07569082081317902, -0.046207625418901443, 0.18608245253562927]], [[0.01891428418457508, 0.0671558529138565, 0.03683906048536301], [-0.1757381558418274, -0.16377697885036469, -0.0919499322772026], [-0.07551180571317673, -0.04392767325043678, -0.11938487738370895]], [[0.018609611317515373, -0.05624478682875633, -0.008744723163545132], [0.11727941781282425, 0.13873291015625, 0.10280624032020569], [0.04366682097315788, -0.03305651620030403, -0.03590745851397514]]], [[[-0.1471223086118698, 0.1298617571592331, -0.037551335990428925], [-0.14006482064723969, 0.07562674582004547, 0.021849077194929123], [-0.07579386979341507, 0.03490542247891426, 0.056966159492731094]], [[-0.20999616384506226, -0.19152456521987915, -0.08098679780960083], [-0.07375184446573257, -0.29182562232017517, -0.1363057941198349], [-0.13559788465499878, -0.19349165260791779, -0.0687473863363266]], [[0.24455595016479492, 0.24001778662204742, -0.010096944868564606], [0.2146175503730774, 0.16826465725898743, 0.019561802968382835], [0.04304220527410507, 0.09565280377864838, 0.010767368599772453]], [[-0.0006411746726371348, -0.08569870889186859, 0.03625224903225899], [0.18786455690860748, -0.11862200498580933, 0.12185411900281906], [-0.03235260397195816, -0.07220065593719482, 0.08693882822990417]], [[-0.15651333332061768, -0.13843339681625366, 0.12340302020311356], [-0.1331177055835724, -0.19505952298641205, 0.21520285308361053], [-0.02510938234627247, -0.2736321985721588, -0.0983729213476181]], [[-0.05319586023688316, -0.18686893582344055, 0.02620365284383297], [0.05354765057563782, -0.16170984506607056, 0.032824430614709854], [0.061117157340049744, -0.003743069479241967, -0.1065160408616066]], [[-0.04132138565182686, 0.018753178417682648, -0.05900907889008522], [-0.10833808034658432, -0.021231306716799736, -0.23826076090335846], [-0.026752857491374016, 0.10603883862495422, 0.030900487676262856]], [[-0.030734218657016754, -0.09103543311357498, 0.07093168050050735], [-0.08210519701242447, -0.22230826318264008, 0.18612784147262573], [0.188130721449852, -0.08759745210409164, 0.019120454788208008]], [[0.07580827176570892, 0.0750216469168663, 0.1738770455121994], [0.15127557516098022, 0.0798473060131073, 0.17973880469799042], [0.1468554437160492, 0.15778861939907074, 0.08632581681013107]], [[-0.014213192276656628, -0.027578173205256462, -0.12735337018966675], [-0.07633862644433975, 0.0097223911434412, -0.18673303723335266], [0.12116757780313492, -0.027443965896964073, 0.05590476095676422]], [[0.05247274041175842, -0.10005098581314087, 0.25478994846343994], [-0.042386263608932495, -0.3001054525375366, 0.056420765817165375], [0.10031989216804504, -0.1766720861196518, -0.050621841102838516]], [[0.17855030298233032, 0.20325879752635956, 0.011114858090877533], [0.04612622782588005, -0.030228568241000175, -0.1147177666425705], [-0.016894642263650894, -0.06883089989423752, -0.123772993683815]], [[-0.15335434675216675, -0.1399335265159607, -0.020878121256828308], [-0.08243490010499954, -0.050314709544181824, 0.05690709501504898], [-0.13053597509860992, -0.0845959410071373, -0.03685643896460533]], [[-0.0006962433690205216, 0.016985749825835228, -0.08462683856487274], [-0.14491920173168182, -0.2084248661994934, -0.1667346954345703], [-0.014749525114893913, 0.05623438209295273, -0.0049677398055791855]], [[-0.037833020091056824, -0.18508420884609222, 0.073605477809906], [0.02310539223253727, -0.1996949017047882, -0.0746801346540451], [0.007288191467523575, -0.10524420440196991, 0.04451771825551987]], [[-0.07889727503061295, -0.20451343059539795, 0.1467975229024887], [-0.07049311697483063, -0.29437875747680664, 0.09051162004470825], [0.18736009299755096, -0.06771668791770935, -0.04957985505461693]]], [[[0.05779290199279785, 0.11157643795013428, -0.05745963379740715], [-0.043070968240499496, -0.009460984729230404, -0.11919109523296356], [-0.06359527260065079, -0.04432661831378937, -0.08098060637712479]], [[-0.018502702936530113, -0.13487470149993896, 0.0827673152089119], [-0.22922736406326294, -0.05040186271071434, 0.10349825769662857], [-0.16681009531021118, -0.049961548298597336, 0.04000132903456688]], [[0.14697405695915222, 0.027445562183856964, 0.20878350734710693], [0.06169092282652855, -0.02707740291953087, 0.03728032484650612], [0.06940767914056778, -0.18954870104789734, 0.012440931983292103]], [[0.5102427005767822, 0.41786491870880127, 0.3445945084095001], [0.19733071327209473, 0.2515214681625366, 0.16058571636676788], [0.14907746016979218, 0.03304123505949974, 0.1010778620839119]], [[-0.4441858232021332, -0.21779316663742065, -0.03179847449064255], [-0.3236705958843231, -0.13693660497665405, 0.048041779547929764], [-0.16453036665916443, -0.19035835564136505, -0.156492218375206]], [[-0.24654093384742737, -0.3324585556983948, -0.21237188577651978], [-0.23904147744178772, -0.061214931309223175, -0.06139250099658966], [0.0008418959914706647, 0.07042890787124634, 0.15954110026359558]], [[0.000502949405927211, 0.033600397408008575, 0.010587922297418118], [-0.047177549451589584, 0.055893804877996445, 0.031752169132232666], [-0.01973932608962059, 0.060222357511520386, -0.01579047366976738]], [[-0.26379653811454773, -0.03692358732223511, 0.022800076752901077], [-0.13491316139698029, -0.06209364905953407, 0.0602908618748188], [0.012955617159605026, 0.06024393066763878, -0.07422182708978653]], [[0.1139051541686058, 0.1852169930934906, 0.17126347124576569], [0.056740857660770416, -0.06028817594051361, -0.044802166521549225], [-0.015431529842317104, -0.053885746747255325, -0.03416728600859642]], [[-0.052063584327697754, -0.12504975497722626, 0.05840611830353737], [-0.013403105549514294, -0.06046502664685249, 0.03321433439850807], [0.06543829292058945, -0.02154824137687683, -0.01336288545280695]], [[-0.24806563556194305, -0.3608763515949249, -0.06110627204179764], [-0.32904988527297974, -0.15684781968593597, -0.04901444539427757], [-0.10196906328201294, 0.09048236906528473, 0.06496238708496094]], [[-0.035173773765563965, 0.000570882810279727, -0.1152305006980896], [0.019526513293385506, -0.0978507548570633, -0.007157646119594574], [-0.13184157013893127, 0.016515012830495834, -0.033544037491083145]], [[-0.18113917112350464, -0.07780233770608902, -0.13200396299362183], [-0.1449165940284729, -0.07843291759490967, -0.056596748530864716], [-0.13031117618083954, -0.09324290603399277, -0.15956999361515045]], [[0.09514688700437546, -0.07472163438796997, -0.0759345293045044], [-0.0456409752368927, -0.1605062335729599, 0.06522759795188904], [-0.02816089801490307, 0.1233835220336914, 0.0006251511513255537]], [[0.2136540561914444, 0.09109485894441605, 0.11792881786823273], [0.00693628890439868, 0.13833701610565186, 0.18510963022708893], [-0.007525813765823841, 0.09984009712934494, 0.03869425132870674]], [[0.037422508001327515, -0.0173762496560812, 0.03970099985599518], [0.04093257337808609, 0.06360801309347153, 0.09534902125597], [0.09766208380460739, 0.18548983335494995, 0.013601402752101421]]], [[[-0.26437073945999146, -0.05547242611646652, -0.12918893992900848], [0.20978273451328278, 0.06112966686487198, -0.05252144858241081], [0.07312386482954025, 0.21267949044704437, 0.011965381912887096]], [[0.03187514841556549, -0.00984225794672966, 0.02100568264722824], [0.06424368917942047, 0.025388294830918312, -0.05264396592974663], [-0.2587618827819824, -0.1376502811908722, -0.061179306358098984]], [[0.05271231010556221, 0.015020863153040409, 0.03728073835372925], [-0.03339400514960289, 0.08828884363174438, 0.060896843671798706], [0.03715808317065239, -0.1271679401397705, 0.2351798564195633]], [[0.11064057797193527, 0.1865125298500061, 0.2851031422615051], [0.4180213510990143, 0.6399930715560913, 0.2764512598514557], [0.3207436501979828, 0.2637273669242859, 0.524717390537262]], [[-0.11236591637134552, -0.16257353127002716, -0.18110588192939758], [0.005518503021448851, -0.061860185116529465, 0.09113873541355133], [0.23886847496032715, -0.09361372143030167, 0.03275987505912781]], [[-0.003755240933969617, -0.04087340459227562, 0.04751943051815033], [-0.04974433779716492, 0.07313215732574463, 0.12530221045017242], [-0.07461811602115631, -0.02070676162838936, 0.19655443727970123]], [[-0.05950815975666046, -0.02039794996380806, -0.08836153894662857], [0.053328756242990494, -0.08402519673109055, 0.06525372713804245], [-0.05299186706542969, 0.05086253210902214, -0.047159790992736816]], [[0.0032297151628881693, 0.14368338882923126, -0.03559494391083717], [-0.029008053243160248, -0.016936417669057846, 0.014446220360696316], [-0.19761313498020172, -0.1641869992017746, -0.4457397162914276]], [[-0.03677009046077728, 0.00046773365465924144, -0.004154855385422707], [0.10854914039373398, -0.12767596542835236, -0.12900610268115997], [0.11188946664333344, 0.08175506442785263, 0.13759759068489075]], [[0.06771786510944366, 0.012106543406844139, -0.0494636632502079], [0.09101611375808716, 0.10913215577602386, 0.11029275506734848], [0.007128874305635691, 0.06798870116472244, 0.08251773566007614]], [[0.034979552030563354, 0.027812980115413666, 0.0030260272324085236], [-0.08867057412862778, -0.18383166193962097, -0.040224239230155945], [-0.17793579399585724, -0.3201175630092621, -0.3295818865299225]], [[-0.012331134639680386, 0.03527553379535675, -0.07719908654689789], [-0.08409685641527176, -0.05178821086883545, -0.03176642954349518], [-0.028390245512127876, -0.053671061992645264, -0.08401717990636826]], [[0.034507229924201965, -0.06121787428855896, -0.04125651344656944], [-0.04642488807439804, -0.025093037635087967, -0.12731368839740753], [0.0015327025903388858, 0.1150389313697815, -0.12060748040676117]], [[-0.056880030781030655, -0.016837764531373978, -0.09839058667421341], [-0.22237567603588104, -0.049767713993787766, -0.11000197380781174], [-0.015058410353958607, -0.003528464585542679, -0.037626635283231735]], [[0.22275711596012115, 0.061262402683496475, 0.07313160598278046], [0.016733376309275627, 0.253433495759964, 0.08192351460456848], [-0.11894166469573975, -0.01906691864132881, 0.21421658992767334]], [[0.09009209275245667, 0.0592200867831707, 0.0801953598856926], [0.2953263223171234, 0.10774274915456772, -0.006403560284525156], [-0.17667041718959808, 0.11524949222803116, 0.058427244424819946]]], [[[0.19147911667823792, 0.06335291266441345, -0.14109031856060028], [0.12379467487335205, 0.23450027406215668, 0.20706160366535187], [0.004820903763175011, -0.007301013451069593, -0.0437656044960022]], [[0.1354506015777588, -0.038346242159605026, -0.013669801875948906], [-0.3148353397846222, -0.30719977617263794, -0.14417116343975067], [0.024470310658216476, 0.1313244104385376, 0.04169906675815582]], [[-0.02041277103126049, -0.003791769267991185, -0.10349441319704056], [-0.10237341374158859, -0.03800519183278084, 0.056319624185562134], [0.14530493319034576, 0.0834013968706131, 0.17305131256580353]], [[0.18895108997821808, 0.14243130385875702, -0.006306551396846771], [-0.15404833853244781, -0.2016667276620865, -0.033896807581186295], [-0.04189774766564369, 0.053934138268232346, -0.010836951434612274]], [[-0.026728888973593712, -0.08066187798976898, 0.08927197009325027], [0.14201463758945465, -0.046422187238931656, -0.2728850543498993], [0.2691965401172638, 0.1860860288143158, -0.024761412292718887]], [[0.08035685122013092, 0.11842377483844757, 0.1728373020887375], [0.09044434130191803, 0.1637779176235199, 0.12894947826862335], [-0.013064990751445293, -0.11549919098615646, -0.0742977038025856]], [[-0.13932494819164276, -0.13246367871761322, -0.03306463733315468], [0.12613452970981598, 0.18781161308288574, 0.10659963637590408], [0.04585589841008186, 0.08414517343044281, 0.08267459273338318]], [[-0.02478376030921936, 0.05169599875807762, 0.09104202687740326], [-0.25788524746894836, -0.368333637714386, -0.5121788382530212], [-0.0693209245800972, 0.06260993331670761, -0.17104563117027283]], [[0.11836406588554382, 0.08075661212205887, 0.12634022533893585], [-0.01302011962980032, -0.008399710059165955, 0.08044834434986115], [0.09567864239215851, 0.04768058657646179, 0.12344324588775635]], [[0.07108822464942932, -0.012078347615897655, -0.1362469494342804], [0.06840842962265015, 0.05187486857175827, -0.07831564545631409], [0.02894786186516285, 0.12055704742670059, 0.10590457171201706]], [[0.08129176497459412, 0.11886057257652283, 0.18397851288318634], [-0.18417558073997498, -0.4843321442604065, -0.5229088068008423], [0.09526189416646957, -0.1423441469669342, -0.1352042257785797]], [[-0.27217942476272583, -0.23260998725891113, -0.12401926517486572], [0.04768741503357887, -0.015477844513952732, -0.2035207748413086], [0.04703019931912422, 0.08396471291780472, -0.03260646015405655]], [[0.015731459483504295, 0.1411394327878952, 0.16076384484767914], [0.0023592528887093067, 0.05073045566678047, 0.032951101660728455], [-0.15385238826274872, -0.08463726937770844, -0.1784282624721527]], [[-0.04143926128745079, 0.0298153143376112, 0.008901647292077541], [-0.046214982867240906, -0.11397513002157211, -0.1049715057015419], [0.09485530108213425, 0.1521575152873993, 0.0064163897186517715]], [[0.1212901771068573, 0.06966743618249893, 0.11126895993947983], [-0.007370337378233671, -0.09919825196266174, 0.07080565392971039], [-0.08916421234607697, 0.008469393476843834, -0.10922600328922272]], [[0.18258672952651978, 0.11438164860010147, -0.01966239884495735], [-0.1696188598871231, -0.17687265574932098, -0.14849406480789185], [-0.2344253957271576, -0.059312835335731506, -0.16715720295906067]]], [[[-0.002862831810489297, -0.09482188522815704, -0.25244566798210144], [0.11532823741436005, -0.012352182529866695, -0.016549989581108093], [-0.27526840567588806, -0.3490833342075348, -0.26775720715522766]], [[-0.018572235479950905, -0.2628871500492096, -0.1297125667333603], [-0.14971022307872772, -0.36061838269233704, -0.24995803833007812], [-0.24868732690811157, -0.41332194209098816, -0.2865183651447296]], [[0.004079192411154509, -0.029963228851556778, -0.010582328774034977], [-0.12126569449901581, -0.1349303275346756, -0.13440513610839844], [-0.15157531201839447, -0.22438211739063263, -0.1862514168024063]], [[0.035437509417533875, -0.015523837879300117, 0.05959898978471756], [-0.025268590077757835, -0.1322356015443802, 0.05542802810668945], [0.010321884416043758, -0.2192862331867218, -0.20724882185459137]], [[-0.18422831594944, -0.11910203844308853, -0.24982278048992157], [-0.04969799146056175, -0.2242916077375412, -0.2882469892501831], [-0.16476012766361237, -0.32357728481292725, -0.4395003914833069]], [[-0.004092570394277573, 0.014596659690141678, -0.0628952831029892], [0.07890195399522781, 0.0448172390460968, -0.10660512745380402], [-0.09731263667345047, -0.06414489448070526, -0.017069673165678978]], [[-0.0399305559694767, -0.005410781595855951, 0.03353383019566536], [0.07350099086761475, 0.04953442141413689, 0.11543304473161697], [0.14232593774795532, 0.00748287420719862, 0.059017572551965714]], [[-0.09531142562627792, 0.0728265717625618, 0.04432637616991997], [0.2128751575946808, 0.1903243213891983, 0.2229718565940857], [0.05603533610701561, 0.1625196784734726, 0.11746006458997726]], [[0.19301380217075348, 0.029354220256209373, 0.10781266540288925], [0.23381508886814117, 0.10034513473510742, 0.15670403838157654], [0.14492109417915344, 0.027829615399241447, -0.03477306291460991]], [[0.038918573409318924, -0.022117724642157555, -0.03619254380464554], [0.018061993643641472, -0.06428895145654678, 0.01316166017204523], [-0.0138089619576931, 0.09346528351306915, 0.04674942046403885]], [[0.026827126741409302, 0.10062382370233536, 0.07742992043495178], [-0.0015981520991772413, 0.09006402641534805, 0.016697708517313004], [-0.0036696679890155792, 0.14031006395816803, 0.043680593371391296]], [[0.05023598670959473, 0.03738981485366821, 0.10208122432231903], [-0.08122742921113968, -0.011165732517838478, -0.035402812063694], [-0.017744584009051323, -0.07133780419826508, 0.05506816506385803]], [[0.07720736414194107, 0.08509600162506104, -0.015363642014563084], [-0.06923381239175797, -0.09912292659282684, -0.14592792093753815], [0.02508454956114292, -0.043084219098091125, -0.10806376487016678]], [[-0.18057267367839813, -0.034479282796382904, -0.10574270039796829], [-0.07191828638315201, 0.03922358527779579, -0.05710020661354065], [-0.040081340819597244, -0.055941905826330185, -0.07066162675619125]], [[0.03531164675951004, -0.028070971369743347, -0.011732700280845165], [-0.12180735170841217, -0.20447388291358948, -0.24948222935199738], [-0.02339421771466732, -0.061198022216558456, -0.11031711101531982]], [[0.11296629160642624, 0.05277059227228165, 0.019172020256519318], [0.23261228203773499, 0.05581944063305855, 0.11538752168416977], [0.2454732209444046, 0.059787362813949585, 0.15426567196846008]]], [[[0.08020442724227905, 0.129225954413414, 0.08577538281679153], [-0.03917872905731201, 0.0278579443693161, 0.034750040620565414], [-0.09173137694597244, -0.06794518232345581, -0.054859500378370285]], [[0.29452475905418396, 0.05913331359624863, 0.21009810268878937], [0.2500547766685486, 0.21514807641506195, 0.15074476599693298], [-0.22661390900611877, -0.03044535592198372, 0.0011988631449639797]], [[0.1878574639558792, 0.12227663397789001, 0.06109166517853737], [0.15368494391441345, 0.12872271239757538, 0.026931945234537125], [-0.007105435244739056, 0.056520696729421616, -0.0016045086085796356]], [[0.2674778997898102, -0.11624584347009659, -0.017563113942742348], [0.3708142340183258, 0.13713324069976807, -0.2378048151731491], [0.14965805411338806, 0.1565825641155243, -0.1049802154302597]], [[0.06280478835105896, 0.03303878754377365, 0.2874475419521332], [0.13266676664352417, 0.11838798224925995, 0.3843809962272644], [-0.06869638711214066, 0.027689406648278236, -0.06138079985976219]], [[-0.13512222468852997, -0.3297726511955261, -0.12306453287601471], [-0.1869216412305832, -0.1185164749622345, 0.08817733824253082], [-0.04528837278485298, 0.03638250008225441, 0.019247377291321754]], [[-0.26601213216781616, -0.1548539400100708, -0.08275057375431061], [-0.11510299891233444, -0.08486641198396683, -0.07270645350217819], [-0.04857947304844856, 0.060336846858263016, 0.04485947638750076]], [[-0.02672073058784008, -0.06533028930425644, -0.09037570655345917], [0.07503307610750198, 0.0279914028942585, 0.029341664165258408], [0.06091422960162163, 0.10735366493463516, -0.10470668226480484]], [[0.07217073440551758, 0.17400941252708435, 0.056172993034124374], [0.10053237527608871, 0.10255438834428787, 0.11265180259943008], [-0.05566297471523285, -0.08351132273674011, -0.14026835560798645]], [[0.0767764151096344, 0.026055341586470604, 0.04852880537509918], [-0.031301721930503845, 0.10536804795265198, -0.0030628873500972986], [-0.08673318475484848, 0.014726429246366024, -0.05918195843696594]], [[-0.07256750017404556, -0.49054285883903503, -0.0015396171947941184], [-0.04768238961696625, -0.18126244843006134, 0.18643538653850555], [-0.06682033091783524, -0.0010678076650947332, 0.12154222279787064]], [[0.012156050652265549, -0.05752365291118622, -0.07955163717269897], [-0.03415841609239578, -0.14346431195735931, -0.02735544927418232], [0.0007954733446240425, -0.005777348298579454, -0.002052774652838707]], [[-0.0561327263712883, -0.12594060599803925, -0.07580272108316422], [-0.12978675961494446, -0.1695079654455185, -0.04694247245788574], [0.027390625327825546, -0.13620823621749878, -0.05750994011759758]], [[-0.03321937471628189, -0.1124655157327652, -0.10122530162334442], [-0.1782500445842743, -0.31903916597366333, -0.01939874328672886], [-0.06143176928162575, -0.030330797657370567, 0.017292123287916183]], [[-0.03435622900724411, -0.27314329147338867, -0.04333347827196121], [-0.014938919804990292, 0.02042139135301113, 0.08396410197019577], [0.14271056652069092, 0.10618183761835098, 0.1670234352350235]], [[-0.03482288122177124, -0.5583938956260681, -0.19341157376766205], [0.16153764724731445, 0.024512412026524544, -0.08848802000284195], [0.04048686847090721, 0.01678885892033577, -0.11694426834583282]]], [[[0.10258002579212189, 0.13718214631080627, -0.1701776534318924], [0.16893894970417023, 0.09142516553401947, -0.10693282634019852], [0.2890598475933075, 0.12957148253917694, -0.06516408920288086]], [[0.29506075382232666, 0.1794143170118332, 0.09144403040409088], [0.23534904420375824, 0.16988566517829895, 0.08655553311109543], [0.22773303091526031, 0.11486689001321793, 0.11837377399206161]], [[-0.01964057981967926, 0.02291836217045784, 0.12425217032432556], [-0.12559211254119873, 0.008296019397675991, 0.20869794487953186], [-0.2621588408946991, -0.19801495969295502, 0.0535552054643631]], [[-0.004176542162895203, 0.04208258539438248, 0.0398302860558033], [0.012006351724267006, -0.004476208705455065, 0.0990712121129036], [-0.12059054523706436, -0.16030392050743103, 0.012490635737776756]], [[-0.07162777334451675, -0.5257989168167114, 0.05262753739953041], [0.03246116265654564, -0.6340283751487732, 0.037788160145282745], [-0.06149354204535484, -0.5251738429069519, -0.21125133335590363]], [[-0.11428401619195938, -0.07607415318489075, -0.019340991973876953], [-0.07099950313568115, -0.06723237037658691, 0.014405901543796062], [-0.009970854967832565, -0.10639599710702896, 0.0177913811057806]], [[0.15061281621456146, 0.04063570126891136, -0.07616285234689713], [0.09445783495903015, 0.10483487695455551, -0.04149160161614418], [0.07202184945344925, 0.08494006097316742, -0.07102888822555542]], [[0.05720549821853638, -0.1714945137500763, -0.21557128429412842], [0.10722514241933823, -0.25085750222206116, -0.38014358282089233], [0.10230106115341187, -0.14609722793102264, -0.1963758021593094]], [[0.07407259941101074, -0.012016011402010918, 0.08469187468290329], [0.062055137008428574, 0.05919216200709343, 0.006134992931038141], [0.06969868391752243, 0.030275676399469376, 0.08422844111919403]], [[0.07332506030797958, -0.07665153592824936, -0.1543053537607193], [0.18355140089988708, -0.033928439021110535, -0.21067190170288086], [0.16015571355819702, -0.04121135547757149, -0.16724412143230438]], [[0.0281060803681612, -0.04027234762907028, -0.09174337238073349], [0.08316725492477417, -0.07669556885957718, -0.04807858169078827], [0.0621679462492466, -0.0107203908264637, -0.04597823694348335]], [[0.07301121205091476, -0.024040985852479935, -0.07424476742744446], [0.05968337878584862, -0.07412157952785492, 0.036960307508707047], [0.03179781511425972, -0.11232467740774155, -0.14684168994426727]], [[-0.05198488011956215, 0.11141962558031082, 0.022725915536284447], [-0.14137428998947144, 0.017697585746645927, 0.19900338351726532], [-0.35985469818115234, 0.03585774451494217, 0.13979622721672058]], [[0.006785132922232151, -0.0717126652598381, 0.0050368644297122955], [0.014985793270170689, -0.04942218214273453, 0.023979583755135536], [-0.08910135924816132, -0.14417633414268494, 0.0830034613609314]], [[0.07755082100629807, 0.05072540044784546, 0.14243590831756592], [-0.09508943557739258, 0.09433624148368835, 0.1789793223142624], [-0.12201692909002304, 0.11238908767700195, 0.10208648443222046]], [[0.05925057455897331, -0.044872064143419266, -0.13767315447330475], [0.022732416167855263, -0.050022851675748825, -0.05920937657356262], [0.003858991200104356, -0.08955611288547516, 0.033176686614751816]]], [[[0.07358478754758835, -0.092192642390728, 0.09877722710371017], [0.15415458381175995, 0.16682597994804382, -0.056511491537094116], [0.03719227388501167, -0.043196145445108414, -0.18632955849170685]], [[0.039525341242551804, 0.05881275236606598, 0.04956057667732239], [0.1211443841457367, 0.08531976491212845, -0.05456966534256935], [0.06419862806797028, 0.024301091209053993, -0.040226902812719345]], [[-0.10241108387708664, -0.05616699531674385, 0.1894994080066681], [0.09331269562244415, 0.01597566157579422, 0.15404538810253143], [0.17506296932697296, 0.12187526375055313, 0.035264767706394196]], [[-0.12279930710792542, -0.03489743918180466, 0.219237819314003], [-0.0650918260216713, -0.19392816722393036, 0.2166120409965515], [0.05132627859711647, -0.2563672661781311, 0.1505255401134491]], [[-0.22067461907863617, -0.09094731509685516, -0.05501892417669296], [-0.19309557974338531, -0.19226588308811188, 0.18219640851020813], [-0.1190425381064415, 0.09031713008880615, 0.34097474813461304]], [[0.0011738026514649391, -0.05301275849342346, 0.06363166123628616], [-0.06703674793243408, -0.12209649384021759, 0.2603183388710022], [-0.02723933756351471, 0.07068115472793579, 0.2831438481807709]], [[0.0578707680106163, 0.03492084518074989, 0.0031418364960700274], [0.10859759151935577, 0.030057787895202637, 0.03208700194954872], [0.08276259899139404, -0.06837644428014755, -0.05962328240275383]], [[-0.2771698236465454, -0.1544407606124878, -0.07102295011281967], [-0.22000285983085632, -0.2286176234483719, -0.13214078545570374], [-0.3810938596725464, -0.22835314273834229, 0.07582483440637589]], [[-0.13602569699287415, -0.11031897366046906, 0.05816393718123436], [-0.07854817062616348, -0.05837944149971008, 0.16999652981758118], [-0.09255345165729523, 0.018656857311725616, 0.024136994034051895]], [[-0.03517191857099533, -0.07801385968923569, 0.0035773334093391895], [0.10909175872802734, -0.04797039180994034, -0.00029415893368422985], [-0.01746397092938423, -0.17796459794044495, 0.07829936593770981]], [[0.042803943157196045, -0.07324738055467606, 0.18008610606193542], [-0.37451809644699097, -0.030793920159339905, 0.26684823632240295], [-0.12389080226421356, 0.2885591983795166, 0.19428513944149017]], [[-0.01522449404001236, -0.022499801591038704, 0.14155589044094086], [0.01171728502959013, -0.08565961569547653, 0.018818117678165436], [-0.06009498983621597, -0.1278562694787979, -0.011354034766554832]], [[-0.04731396958231926, -0.10750021785497665, 0.0625511109828949], [-0.14978991448879242, -0.07566603273153305, -0.04432259127497673], [-0.05805743858218193, -0.09825023263692856, 0.04719580337405205]], [[-0.02965688519179821, -0.04552989825606346, -0.005858434364199638], [0.07550571113824844, 0.036095380783081055, -0.05462231859564781], [0.00943297054618597, -0.14347214996814728, -0.07583706080913544]], [[-0.04715627431869507, 0.0953335389494896, 0.07600284367799759], [-0.04294206574559212, 0.017570313066244125, 0.08158597350120544], [0.0037325473967939615, 0.09981934726238251, 0.0572672002017498]], [[0.037390220910310745, -0.015036576427519321, -0.039884522557258606], [-0.3375108242034912, -0.0812811627984047, 0.03186265751719475], [-0.18562732636928558, -0.09438915550708771, 0.04507486894726753]]], [[[-0.22561243176460266, -0.1632753312587738, -0.21583771705627441], [-0.08813656866550446, -0.0713934674859047, 0.07072402536869049], [0.016554370522499084, 0.07304546236991882, -0.02228238247334957]], [[0.07641590386629105, -0.1280815750360489, -0.30708780884742737], [-0.00636307243257761, -0.03378579020500183, -0.0516418032348156], [0.039035625755786896, -0.0380081906914711, -0.26461225748062134]], [[0.1737537533044815, 0.12209657579660416, 0.003202007617801428], [0.08162285387516022, 0.13081860542297363, -0.011419438757002354], [0.07593899220228195, 0.12624208629131317, -0.06116839870810509]], [[0.16709263622760773, 0.06591193377971649, -0.03795624524354935], [-0.17993558943271637, -0.1611308455467224, -0.06426908820867538], [-0.18379059433937073, -0.1489235907793045, 0.03982016444206238]], [[-0.05178716778755188, 0.08096721768379211, 0.1573210507631302], [0.12232362478971481, 0.06151494383811951, 0.135215625166893], [-0.02977638877928257, 0.011050294153392315, 0.017286401242017746]], [[0.12608399987220764, 0.017657851800322533, 0.05996298789978027], [0.09713714569807053, 0.11625005304813385, -0.03873450309038162], [0.14177222549915314, 0.1785731166601181, 0.02313578501343727]], [[0.00802826602011919, -0.011237278580665588, 0.11592821776866913], [-0.18088537454605103, -0.1600019335746765, -0.048792023211717606], [-0.07845746725797653, -0.08014543354511261, -0.16492341458797455]], [[-0.20863136649131775, -0.19406434893608093, -0.2281791716814041], [-0.09036798030138016, -0.05636448413133621, -0.11569159477949142], [-0.05083732679486275, -0.01546277105808258, 0.038224563002586365]], [[0.12185575813055038, 0.06550033390522003, 0.04997982084751129], [0.17706334590911865, 0.08615288138389587, 0.17406484484672546], [0.10779143124818802, 0.11760233342647552, 0.0955267921090126]], [[-0.0689808800816536, -0.04409443214535713, 0.09568063914775848], [-0.07990359514951706, -0.08181790262460709, 0.15179677307605743], [0.11532266438007355, 0.057279691100120544, 0.06818229705095291]], [[0.005854890216141939, -0.02739262580871582, -0.10342434793710709], [0.054876528680324554, -0.06741724163293839, -0.23936253786087036], [0.03888169676065445, 0.0980093702673912, 0.024580329656600952]], [[0.15002793073654175, 0.08368245512247086, 0.1616153120994568], [-0.04934392869472504, -0.18369841575622559, 0.01104430016130209], [-0.12389903515577316, -0.11868591606616974, -0.06630422174930573]], [[0.2561224400997162, 0.2781817615032196, 0.14252766966819763], [0.18540923297405243, 0.1855054497718811, -0.07835908979177475], [0.06147237867116928, 0.13154177367687225, -0.08402612060308456]], [[0.1150808036327362, 0.16884729266166687, 0.15593044459819794], [-0.13725528120994568, -0.2964506447315216, -0.4437396824359894], [-0.22025910019874573, -0.06069335713982582, -0.24481771886348724]], [[0.1325208842754364, 0.1863197684288025, 0.024625079706311226], [-0.03714369237422943, -0.06658726185560226, -0.2597492039203644], [-0.020615369081497192, -0.058766622096300125, -0.06591343879699707]], [[-0.05792022496461868, -0.26414093375205994, -0.39182212948799133], [-0.07660675048828125, -0.05906423553824425, -0.30368396639823914], [0.03812817111611366, 0.0965694859623909, -0.05818827822804451]]], [[[-0.006402037106454372, 0.07412546128034592, -0.09715698659420013], [-0.07945224642753601, 0.058781933039426804, -0.06673571467399597], [0.08047027140855789, 0.08380670845508575, 0.02662062831223011]], [[-0.03523638844490051, 0.01817636378109455, 0.06826049089431763], [-0.11339131742715836, -0.08314482122659683, -0.01472783088684082], [0.003229218302294612, -0.061441682279109955, 0.055336710065603256]], [[0.1003744825720787, 0.04976426437497139, 0.017466995865106583], [-0.05130133032798767, 0.04540227726101875, 0.0815889909863472], [0.12334205955266953, -0.06409003585577011, 0.032163262367248535]], [[0.14475251734256744, 0.20684181153774261, 0.27389290928840637], [0.10627250373363495, 0.24011766910552979, 0.2418065071105957], [0.055061399936676025, 0.0149359917268157, 0.15237893164157867]], [[0.10015284270048141, 0.05698787420988083, 0.15743336081504822], [0.09952207654714584, 0.16951794922351837, 0.06760657578706741], [-0.02708408050239086, 0.2518225610256195, 0.1000237911939621]], [[0.10099054872989655, -0.05364159494638443, -0.04920843988656998], [0.041521426290273666, -0.055413320660591125, -0.0038970685563981533], [0.06805358827114105, -0.005881056655198336, -0.08585865795612335]], [[0.1178690642118454, -0.02789495512843132, -0.09270041435956955], [-0.009380178526043892, 0.04608301445841789, -0.1111714318394661], [-0.04739938676357269, -0.09974103420972824, -0.15898163616657257]], [[0.012251049280166626, -0.055627331137657166, -0.11500943452119827], [0.0045426832512021065, 0.12547272443771362, -0.033988893032073975], [0.004611930809915066, 0.15916800498962402, 0.047229792922735214]], [[-0.2384040802717209, -0.20944824814796448, -0.03437226265668869], [-0.13608022034168243, 0.013804907910525799, 0.14801982045173645], [-0.0894337072968483, 0.17928080260753632, 0.14902502298355103]], [[0.14393199980258942, 0.09192641824483871, -0.02714296616613865], [-0.08505216240882874, -0.03755244240164757, -0.07105892896652222], [-0.07726217061281204, -0.00914090033620596, 0.03902379050850868]], [[0.08391638845205307, -0.060106489807367325, -0.0801406130194664], [0.11683246493339539, -0.056942760944366455, -0.05750816687941551], [0.16941048204898834, 0.14783167839050293, 0.04504255950450897]], [[0.11562090367078781, -0.0590691901743412, -0.11150369793176651], [0.10357566177845001, 0.0958031639456749, -0.20458921790122986], [-0.010976482182741165, -0.0008230865933001041, -0.12070643901824951]], [[-0.08418293297290802, -0.08855046331882477, -0.08857176452875137], [-0.009116900153458118, -0.1213267371058464, -0.1309443861246109], [0.07110162079334259, 0.019521791487932205, -0.09916628897190094]], [[0.025097472593188286, -0.07239405810832977, -0.08659752458333969], [0.08902356773614883, -0.07292591035366058, -0.1476215124130249], [0.03665483370423317, 0.11152300983667374, 0.15525826811790466]], [[-0.012326967902481556, 0.06293938308954239, 0.1297367811203003], [-0.056188229471445084, -0.15526244044303894, -0.04775554686784744], [0.11188605427742004, -0.02761860564351082, -0.1064775213599205]], [[-0.07576872408390045, -0.046948570758104324, -0.126413494348526], [0.07766661792993546, 0.017109835520386696, 0.05370781198143959], [0.10623301565647125, 0.07377611100673676, -0.025624463334679604]]], [[[0.14065061509609222, 0.08336715400218964, -0.048406604677438736], [0.07180751115083694, 0.2881854176521301, 0.009203639812767506], [-0.11383192241191864, 0.005461098160594702, -0.17487293481826782]], [[-0.18347948789596558, 0.11885712295770645, -0.13326923549175262], [-0.18702730536460876, 0.04902306944131851, -0.060370612889528275], [-0.09924619644880295, -0.02511589601635933, -0.1577674001455307]], [[0.1034228727221489, -0.06918550282716751, -0.06883358210325241], [0.22168999910354614, -0.14140233397483826, -0.006697137374430895], [0.215933695435524, -0.025722598657011986, -0.10155396908521652]], [[0.006795351859182119, 0.018516575917601585, 0.07228086143732071], [-0.29453685879707336, -0.12548181414604187, -0.162466362118721], [-0.011577652767300606, 0.009743266738951206, -0.06711376458406448]], [[-0.14468638598918915, -0.10182689130306244, 0.1156783178448677], [-0.07629332691431046, 0.01929759420454502, 0.22486507892608643], [-0.20069962739944458, -0.07093919813632965, -0.0814632922410965]], [[-0.0393543541431427, -0.07713041454553604, -0.004420194774866104], [-0.03987061232328415, -0.16425471007823944, -0.03177856281399727], [-0.07999149709939957, -0.18734736740589142, -0.08162545412778854]], [[-0.0024233427830040455, -0.07474644482135773, -0.06119122728705406], [0.11660226434469223, 0.022090822458267212, -0.09896796941757202], [0.020015647634863853, -0.09498237073421478, -0.097028449177742]], [[-0.09775631874799728, -0.031860899180173874, 0.2709895670413971], [0.018866999074816704, 0.0780799612402916, 0.3456626832485199], [-0.01752541959285736, -0.05080486834049225, -0.040488436818122864]], [[0.07877499610185623, 0.004759507719427347, 0.1694738268852234], [0.16028177738189697, 0.15338927507400513, 0.2136606127023697], [0.11967812478542328, 0.015436911955475807, 0.05416693910956383]], [[0.10192686319351196, 0.019866323098540306, 0.027263455092906952], [0.041695307940244675, 0.06576861441135406, 0.0641387328505516], [-0.08671362698078156, -0.0324736088514328, -0.18832354247570038]], [[-0.02845555730164051, 0.017423339188098907, 0.055657386779785156], [0.041843168437480927, -0.13317112624645233, 0.1358635276556015], [0.003894300200045109, -0.08767849206924438, 0.06822499632835388]], [[0.16078032553195953, 0.1510033756494522, 0.026613978669047356], [0.08751937747001648, 0.03316853567957878, -0.09125999361276627], [-0.009271394461393356, -0.1110389456152916, -0.10099083185195923]], [[0.09387549012899399, 0.07642721384763718, -0.028073284775018692], [0.11896953731775284, 0.04289122298359871, -0.07323355972766876], [0.1574123650789261, 0.16110292077064514, -0.006882511079311371]], [[0.10365668684244156, -0.1462518572807312, -0.06304459273815155], [0.11998814344406128, -0.0462409146130085, 0.06322670727968216], [-0.01239470113068819, 0.12506666779518127, 0.1989206224679947]], [[-0.10085056722164154, -0.13449324667453766, -0.07262730598449707], [-0.06842561811208725, -0.21986980736255646, -0.11004050076007843], [0.08885719627141953, -0.0669311061501503, -0.013676517643034458]], [[-0.03127718344330788, 0.2185681313276291, 0.030276818200945854], [-0.06417004764080048, 0.2236454039812088, 0.06361810863018036], [-0.12725691497325897, -0.01903090998530388, -0.028173042461276054]]], [[[-0.12806986272335052, 0.02593562752008438, 0.11122007668018341], [-0.005473739933222532, 0.07840627431869507, 0.08584121614694595], [-0.1342640519142151, -0.04844781011343002, -0.013130588456988335]], [[0.11603280901908875, -0.1240246370434761, -9.561375190969557e-05], [-0.03366505354642868, -0.04260975494980812, -0.16699914634227753], [-0.11322247236967087, -0.2366132289171219, -0.12761689722537994]], [[0.14217953383922577, -0.04833315312862396, -0.02523227594792843], [0.08970103412866592, -0.004091624636203051, -0.03485769405961037], [0.08920138329267502, -0.08803905546665192, -0.09524494409561157]], [[0.004462664481252432, -0.177638977766037, -0.0038438686169683933], [0.13741245865821838, -0.10213746875524521, -0.15413452684879303], [0.2906307578086853, 0.09081347286701202, -0.1235872358083725]], [[0.09079533070325851, 0.03548991680145264, -0.07120604068040848], [0.07889466732740402, -0.07086711376905441, -0.13829663395881653], [-0.009792668744921684, -0.14495103061199188, -0.06592579931020737]], [[0.1434960663318634, 0.19854800403118134, -0.12733784317970276], [0.25692641735076904, 0.0315757654607296, -0.1332087367773056], [0.07529810070991516, -0.1139703094959259, 0.015402374789118767]], [[0.10393720120191574, 0.0715629830956459, -0.01231442391872406], [0.08808248490095139, -0.02922198176383972, 0.06083405017852783], [-0.10521847009658813, -0.026271745562553406, -0.041348494589328766]], [[-0.016188718378543854, 0.0792054533958435, 0.09748233109712601], [0.1159593015909195, 0.06729422509670258, 0.11586802452802658], [-0.032300230115652084, 0.06440292298793793, 0.05857519060373306]], [[0.02739490009844303, -0.012917520478367805, 0.07181936502456665], [0.03624063357710838, 0.06955943256616592, 0.17264392971992493], [0.011497813276946545, 0.0140553442761302, 0.15675672888755798]], [[-0.06499422341585159, -0.13043145835399628, -0.07044552266597748], [-0.08860348910093307, 0.042607057839632034, -0.02169516496360302], [-0.00901253055781126, -0.003324932185932994, -0.020468708127737045]], [[0.15032579004764557, 0.08586956560611725, -0.0580727756023407], [0.17260919511318207, -0.04434117302298546, -0.04323309287428856], [-0.037573039531707764, -0.17812331020832062, -0.06972009688615799]], [[0.049619127064943314, -0.030880164355039597, -0.043495334684848785], [0.007135523017495871, -0.0008592885569669306, -0.08613172173500061], [0.013119477778673172, -0.11187232285737991, -0.046092186123132706]], [[-0.008043857291340828, -0.0382394939661026, -0.02300112694501877], [-0.039125069975852966, -0.13991141319274902, -0.20549257099628448], [-0.059206560254096985, -0.11662512272596359, -0.09821701049804688]], [[-0.19692681729793549, 0.007798993028700352, -0.07267092168331146], [-0.13324572145938873, 0.008503321558237076, -0.18373841047286987], [-0.01804495044052601, -0.1369483917951584, -0.28924131393432617]], [[0.07452873885631561, -0.18397243320941925, -0.08621107786893845], [0.09345818310976028, -0.13411249220371246, -0.1989188939332962], [0.1519617736339569, -0.0867319405078888, -0.026375506073236465]], [[-0.11021475493907928, -0.21781682968139648, -0.1322828233242035], [0.09871575981378555, -0.05034874752163887, -0.006449386011809111], [0.1263268142938614, -0.17225970327854156, -0.08814219385385513]]], [[[0.21704484522342682, 0.17254576086997986, 0.08515660464763641], [-0.1088075116276741, -0.15798278152942657, -0.14569561183452606], [-0.21790342032909393, -0.5526312589645386, -0.3535112142562866]], [[0.20933574438095093, -0.07584576308727264, -0.06785513460636139], [0.06304977089166641, -0.02422153204679489, -0.09228086471557617], [-0.1344999074935913, -0.10488574951887131, -0.1416422575712204]], [[0.10752467811107635, -0.03492196649312973, 0.0385664664208889], [0.02223310060799122, -0.10297777503728867, -0.08711344003677368], [-0.02583473175764084, -0.054275937378406525, -0.02181670442223549]], [[-0.017772281542420387, -0.09227162599563599, -0.14559544622898102], [0.04567638039588928, 0.03164928779006004, -0.04702934995293617], [0.07742847502231598, 0.08797215670347214, 0.005658203735947609]], [[-0.0021279267966747284, 0.08560619503259659, 0.16593855619430542], [-0.01437115017324686, -0.030344951897859573, -0.08959758281707764], [-0.1709519475698471, -0.14645300805568695, -0.16634564101696014]], [[-0.11777254939079285, -0.21070395410060883, -0.14269676804542542], [-0.0940844938158989, -0.14932608604431152, -0.19819079339504242], [0.09872753918170929, -0.0046769967302680016, 0.06286075711250305]], [[-0.09675050526857376, -0.18939220905303955, -0.10511716455221176], [0.11366059631109238, 0.16130377352237701, 0.1724705845117569], [-0.07824047654867172, 0.029730262234807014, -0.07464704662561417]], [[0.05782303959131241, 0.1536712944507599, 0.109163798391819], [0.15058265626430511, 0.11561273783445358, 0.12087159603834152], [-0.07364228367805481, -0.03515981137752533, 0.02478109486401081]], [[0.29838263988494873, 0.23815788328647614, 0.21858829259872437], [0.015982212498784065, -0.08064152300357819, -0.07179569453001022], [-0.0813305601477623, -0.1498197466135025, -0.09849053621292114]], [[0.10084827989339828, -0.042471401393413544, 0.01055652555078268], [0.014241563156247139, -0.10234027355909348, -0.08957720547914505], [0.014705666340887547, -0.006022968329489231, -0.007431819103658199]], [[-0.023820849135518074, -0.030549969524145126, -0.07132025808095932], [-0.07323913276195526, -0.017292065545916557, -0.07911662757396698], [-0.10192790627479553, -0.07485558837652206, -0.03210105001926422]], [[-0.1872043013572693, -0.151229590177536, -0.010722004808485508], [0.01841692440211773, 0.03953491151332855, 0.02752242237329483], [-0.05189144238829613, 4.779552182299085e-05, 0.03971997648477554]], [[-0.027903961017727852, 0.0037422217428684235, -0.05762913450598717], [0.09264891594648361, -0.03466130793094635, -0.020338786765933037], [0.059126537293195724, 0.17505905032157898, 0.11910203099250793]], [[-0.06327791512012482, -0.030467165634036064, 0.0893586128950119], [0.16873951256275177, 0.03367731347680092, 0.10043322294950485], [0.17656993865966797, 0.22924241423606873, 0.27653804421424866]], [[-0.11392174661159515, -0.12979726493358612, -0.15936055779457092], [-0.08491924405097961, -0.015772806480526924, -0.02615666389465332], [0.11226988583803177, 0.23144781589508057, 0.217041015625]], [[0.08860594034194946, -0.0057201022282242775, 0.001113253179937601], [0.14796456694602966, 0.055654190480709076, 0.03135043382644653], [0.06668097525835037, 0.00622553052380681, 0.026455990970134735]]], [[[0.005463036242872477, 0.20125341415405273, -0.008849430829286575], [0.03203706070780754, 0.190538227558136, 0.06055097654461861], [0.02927846647799015, 0.1277814656496048, 0.027610838413238525]], [[0.1946224719285965, -0.07134697586297989, -0.13677500188350677], [0.40418434143066406, -0.037825409322977066, 0.02746914140880108], [0.3491918444633484, -0.0807570368051529, 0.07234670221805573]], [[-0.04497501254081726, -0.053599096834659576, 0.060857437551021576], [-0.02139260247349739, -0.1950090229511261, -0.13816405832767487], [0.1007995456457138, 0.10214487463235855, 0.14332231879234314]], [[0.2382127195596695, 0.13033081591129303, 0.2500457465648651], 