{"features.0.weight": [[[[0.1449446827173233, -0.12261639535427094, -0.11744937300682068], [0.24763290584087372, 0.1800193339586258, 0.11764867603778839], [-0.1663811206817627, -0.14774717390537262, -0.08588328957557678]], [[-0.031004050746560097, -0.0019411903340369463, 0.12012632936239243], [-0.004855251405388117, 0.1917818784713745, 0.12242195010185242], [-0.23040713369846344, -0.006207833532243967, -0.3023819923400879]], [[-0.11937835812568665, -0.25325465202331543, 0.04188578203320503], [0.07157338410615921, 0.12365389615297318, 0.1812984198331833], [0.05938023701310158, -0.03751697763800621, 0.011111093685030937]]], [[[0.0007552715833298862, -0.08798816055059433, 0.05329933762550354], [-0.24979843199253082, -0.17922358214855194, -0.08718323707580566], [-0.10455024242401123, -0.14237374067306519, 0.1397908478975296]], [[-0.01934279315173626, 0.06963719427585602, -0.0951705351471901], [0.034539610147476196, 0.2888636589050293, -0.019641008228063583], [-0.11151115596294403, -0.039743319153785706, -0.1215304359793663]], [[0.0755845308303833, 0.058987826108932495, -0.14217747747898102], [0.2812814712524414, 0.06409779191017151, 0.059664059430360794], [0.10327555984258652, 0.28862789273262024, 0.12251110374927521]]], [[[-0.33018913865089417, -0.17951272428035736, 0.2815420627593994], [-0.06292443722486496, 0.1675015538930893, -0.0050624762661755085], [0.36809995770454407, 0.014661273919045925, -0.23844242095947266]], [[-0.336292564868927, -0.22367212176322937, 0.2609797418117523], [0.14769801497459412, -0.15064197778701782, 0.019893065094947815], [0.21514584124088287, 0.2583811283111572, -0.18888907134532928]], [[-0.3604663610458374, -0.14436087012290955, 0.22151035070419312], [0.10026466101408005, 0.005692664533853531, -0.21459287405014038], [0.19537973403930664, 0.2540939152240753, -0.1016598492860794]]], [[[-0.11050968617200851, -0.10280080139636993, 0.1877599060535431], [0.0051376475021243095, -0.17782950401306152, -0.03471815213561058], [0.14185677468776703, 0.12553977966308594, -0.10522132366895676]], [[-0.16396546363830566, -0.20749039947986603, 0.18133196234703064], [0.05103769153356552, -0.21583791077136993, -0.11974915862083435], [0.21327710151672363, -0.19247856736183167, -0.11835845559835434]], [[-0.0823528915643692, 0.004628676921129227, 0.17209196090698242], [-0.04924209415912628, -0.001986007671803236, -0.11277320981025696], [0.23109029233455658, -0.028501559048891068, 0.03899269923567772]]], [[[-0.06263359636068344, -0.06641998887062073, 0.20571370422840118], [0.2754833996295929, 0.10537337511777878, 0.16001638770103455], [0.1413988173007965, 0.1580808311700821, 0.10352328419685364]], [[-0.05974039435386658, -0.15287336707115173, -0.09741710871458054], [-0.011164159514009953, -0.26283037662506104, -0.2962522506713867], [-0.15315063297748566, -0.09700106829404831, -0.16130870580673218]], [[0.2669123709201813, -0.13905411958694458, -0.17160630226135254], [0.12404926121234894, 0.16555528342723846, -0.1992049664258957], [0.043149929493665695, 0.23148562014102936, -0.008760804310441017]]], [[[0.1502668559551239, -0.05051692947745323, 0.04999011754989624], [0.05501412972807884, 0.12527993321418762, 0.14454421401023865], [0.21780996024608612, 0.055253006517887115, -0.1629139930009842]], [[-0.09437298774719238, -0.09872709959745407, 0.06987997144460678], [-0.1335039585828781, 0.04039556160569191, 0.0470120944082737], [-0.08579790592193604, -0.016714107245206833, -0.05812813714146614]], [[-0.021127179265022278, 0.0717872679233551, -0.009751597419381142], [-0.04779505357146263, 0.09454710781574249, 0.05857035145163536], [0.14699912071228027, 0.18328626453876495, -0.06999099999666214]]], [[[-0.156349778175354, 0.017249027267098427, 0.1205204501748085], [-0.09201854467391968, 0.22349241375923157, -0.02039782516658306], [-0.061127644032239914, 0.13705280423164368, -0.030742378905415535]], [[-0.3632346987724304, -0.097212053835392, 0.11256375908851624], [-0.3397469222545624, 0.27238228917121887, 0.08606252819299698], [0.014999352395534515, 0.1380806416273117, -0.12807296216487885]], [[-0.22588467597961426, 0.10236856341362, -0.04428279399871826], [-0.05322248488664627, 0.34241101145744324, 0.02776646427810192], [-0.08776459842920303, 0.26241424679756165, -0.17208091914653778]]], [[[-0.07452033460140228, 0.2496694177389145, 0.08523337543010712], [-0.12269154191017151, 0.3507724106311798, -0.13399359583854675], [-0.17776109278202057, 0.13524584472179413, -0.089960016310215]], [[0.08834686875343323, 0.047003332525491714, 0.1432853788137436], [-0.2199537754058838, 0.03460606932640076, 0.06519792228937149], [-0.10020923614501953, 0.09192764759063721, 0.22152358293533325]], [[-0.025604043155908585, -0.14412230253219604, -0.2103014886379242], [0.08756046742200851, -0.04811583086848259, -0.16111043095588684], [-0.24605625867843628, 0.25797560811042786, -0.0633101612329483]]]], "features.0.bias": [-0.0751706212759018, 0.25590699911117554, 0.026734746992588043, -0.12750154733657837, -0.01479833573102951, 0.3198314905166626, -0.011840257793664932, 0.20249098539352417], "features.3.weight": [[[[-0.14530986547470093, -0.3688160479068756, -0.27338531613349915], [-0.4579392671585083, -0.35696375370025635, -0.16307592391967773], [-0.19985109567642212, -0.1152847558259964, 0.00851737055927515]], [[-0.04922391101717949, -0.03479211404919624, 0.042214639484882355], [-0.0544540137052536, -0.04612055420875549, -0.10239113867282867], [0.04848118871450424, -0.12744463980197906, -0.0028323030564934015]], [[0.08392664790153503, -0.007181528955698013, 0.03476196154952049], [-0.02170822024345398, 0.22500558197498322, -0.08936581760644913], [0.2594261169433594, -0.12636864185333252, 0.012508930638432503]], [[-0.06033531576395035, -0.14330662786960602, -0.07615894079208374], [-0.07681181281805038, -0.052266787737607956, 0.0652797520160675], [-0.16319133341312408, 0.10545149445533752, 0.07137870043516159]], [[-0.006033394951373339, 0.06169527769088745, 0.019142217934131622], [0.07136957347393036, -0.08373857289552689, 0.003163199406117201], [0.004140925128012896, -0.03787388280034065, 0.06490597873926163]], [[0.059185419231653214, 0.05574933439493179, 0.041500844061374664], [-0.07369082421064377, 0.17054492235183716, -0.03260897099971771], [-0.016328398138284683, 0.05252356082201004, 0.03049202635884285]], [[-0.09630260616540909, 0.003645804012194276, 0.15020345151424408], [0.015422830358147621, 0.22828222811222076, 0.033978067338466644], [0.2099008560180664, 0.02601599134504795, -0.0898708626627922]], [[-0.04761826619505882, 0.07564594596624374, 0.009071826003491879], [0.12337739765644073, 0.06685367226600647, -0.04411567002534866], [-0.010606507770717144, -0.029155300930142403, -0.0002443266857881099]]], [[[0.0976753756403923, 0.0437009260058403, -0.08183608949184418], [0.1430596262216568, 0.07135278731584549, -0.07042121887207031], [0.13784152269363403, 0.18180538713932037, 0.05939934030175209]], [[-0.18207338452339172, 0.25814780592918396, 0.13102945685386658], [0.1672130674123764, 0.4123152792453766, 0.08631271123886108], [0.1674688309431076, 0.3913183808326721, 0.1387786567211151]], [[0.02448952943086624, 0.08537282794713974, -0.09455935657024384], [-0.07703930884599686, -0.018909532576799393, 0.004570381715893745], [0.04265426844358444, -0.07542566955089569, -0.05937590450048447]], [[-0.08352570235729218, -0.09058227390050888, -0.03447573632001877], [-0.020206846296787262, -0.04009313881397247, 0.11418212205171585], [0.0720740482211113, 0.010071923956274986, -0.006649165879935026]], [[-0.05904029682278633, -0.1350155621767044, -0.1410769373178482], [-0.08837933093309402, -0.16268262267112732, -0.026411237195134163], [-0.0913325771689415, 0.13248027861118317, 0.08297106623649597]], [[0.011188553646206856, -0.015559988096356392, -0.047582242637872696], [0.0444297194480896, -0.09656337648630142, -0.24514538049697876], [-0.08905676752328873, -0.16851040720939636, -0.029761815443634987]], [[-0.05607809126377106, 0.07854293286800385, 0.118575319647789], [0.05225886031985283, 0.16785521805286407, 0.12528540194034576], [0.03330831229686737, 0.04232242330908775, 0.08654684573411942]], [[0.18231907486915588, -0.014484838582575321, 0.03021707572042942], [-0.09725058823823929, -0.28663548827171326, -0.22673173248767853], [-0.19831052422523499, -0.19345863163471222, -0.1886702924966812]]], [[[0.13489870727062225, 0.01567120850086212, 0.006688147783279419], [0.014713587239384651, 0.06763391941785812, 0.11070246249437332], [-0.18459217250347137, 0.1659441888332367, 0.1973177194595337]], [[0.16710403561592102, 0.056579191237688065, 0.11596012860536575], [0.09519816935062408, 0.1655832976102829, 0.03141656145453453], [-0.11449556052684784, -0.12261734157800674, -0.059427760541439056]], [[0.10111314058303833, 0.18671144545078278, 0.065047986805439], [0.010027000680565834, -0.024605315178632736, 0.2874224781990051], [0.21402385830879211, 0.23951056599617004, -0.05399151146411896]], [[-0.05830764397978783, -0.05372670292854309, -0.048370540142059326], [0.05028677359223366, -0.14014466106891632, 0.11537662893533707], [0.14468532800674438, 0.17510056495666504, -0.21177761256694794]], [[-0.025606606155633926, 0.02158084511756897, 0.08873121440410614], [0.003063892014324665, 0.11213590949773788, 0.14335373044013977], [0.07614829391241074, 0.025607984513044357, -0.17877335846424103]], [[-0.06316804140806198, 0.06532783061265945, 0.015675676986575127], [-0.027730006724596024, -0.042872097343206406, 0.189179465174675], [-0.0071777463890612125, 0.027256669476628304, -0.14466026425361633]], [[-0.07726868242025375, 0.01485908217728138, -0.020420124754309654], [-0.03289857506752014, -0.1215577945113182, 0.03645072877407074], [-0.08593303710222244, -0.21156549453735352, -0.313113272190094]], [[0.12451642751693726, -0.013926953077316284, -0.016450095921754837], [0.10022243112325668, 0.19198141992092133, 0.1694573014974594], [-0.20726455748081207, -0.145411416888237, 0.00942557118833065]]], [[[-0.10890136659145355, 0.002511857310310006, -0.13487209379673004], [-0.14464348554611206, -0.044573791325092316, 0.09726431220769882], [-0.29602283239364624, -0.18811644613742828, 0.06463588774204254]], [[0.0064936294220387936, -0.043902695178985596, 0.02833649516105652], [-0.06225815415382385, -0.17873166501522064, 0.1239219382405281], [-0.10127588361501694, -0.1813114732503891, 0.11133549362421036]], [[0.12707190215587616, -0.25581470131874084, -0.12559475004673004], [0.09662555158138275, -0.007480813190340996, -0.16603189706802368], [-0.03660636022686958, -0.014212069101631641, -0.05667682737112045]], [[0.18094663321971893, 0.07976463437080383, -0.05027350038290024], [0.2167339324951172, 0.32517537474632263, -0.2661990523338318], [0.0087317805737257, 0.31261634826660156, 0.06588613986968994]], [[0.09333539754152298, -0.07619447261095047, -0.07698782533407211], [0.1908653974533081, -0.1837039738893509, -0.03437415882945061], [0.03934558480978012, 0.0006274791085161269, -0.1768748164176941]], [[0.046889323741197586, 0.07054746150970459, 0.13296185433864594], [-0.05815505608916283, -0.13825039565563202, 0.16672921180725098], [-0.0902530774474144, -0.06579503417015076, 0.10399381816387177]], [[0.05428657308220863, 0.04885607957839966, 0.1844969093799591], [0.05845391005277634, 0.08134614676237106, 0.19896326959133148], [0.08316078037023544, -0.009457636624574661, 0.16170170903205872]], [[0.006669687107205391, 0.1666109263896942, 0.006859048269689083], [-0.1264677494764328, 0.10325848311185837, 0.082976795732975], [-0.144037663936615, -0.13078750669956207, 0.09773939847946167]]], [[[0.1473339945077896, -0.16601519286632538, -0.017369523644447327], [-0.13198094069957733, -0.10955091565847397, -0.13001444935798645], [-0.17697198688983917, -0.11575135588645935, -0.09836947172880173]], [[0.2111774981021881, 0.16006559133529663, 0.19491590559482574], [-0.07191075384616852, 0.2063605785369873, 0.03435048460960388], [-0.06436672806739807, 0.06633257865905762, -0.0007850122638046741]], [[-0.0050742425955832005, 0.10584291815757751, 0.25887778401374817], [-0.19246886670589447, -0.2919236123561859, -0.05337227135896683], [-0.07313878834247589, -0.24280017614364624, -0.2877067029476166]], [[-0.17095504701137543, -0.04568110778927803, -0.025445623323321342], [0.1390286535024643, 0.0922752097249031, 0.021937502548098564], [0.08201543986797333, -0.045647673308849335, 0.02144174836575985]], [[0.006443523336201906, 0.1939275860786438, 0.002429021056741476], [0.03474658355116844, 0.1433948427438736, 0.2785385847091675], [0.2271002233028412, 0.07337598502635956, 0.027439765632152557]], [[0.03550031781196594, 0.11035557836294174, 0.02480539120733738], [-0.014784455299377441, 0.1027940884232521, 0.14104130864143372], [-0.15204386413097382, -0.05523139610886574, 0.07298771291971207]], [[0.10272994637489319, -0.08221430331468582, -0.004447098355740309], [0.03559887781739235, 0.027593204751610756, 0.08606643974781036], [-0.07431615889072418, 0.05355566367506981, -0.07121436297893524]], [[-0.07922408729791641, -0.14478559792041779, -0.0698406845331192], [0.11351902782917023, 0.01826171949505806, -0.09551550447940826], [0.12783469259738922, 0.2694152891635895, 0.08801447600126266]]], [[[-0.11569932103157043, 0.1773536056280136, 0.019592776894569397], [0.2228507250547409, 0.13953593373298645, 0.17508843541145325], [0.045699555426836014, 0.18344347178936005, 0.11922185868024826]], [[-0.340055376291275, -0.033346567302942276, -0.14449627697467804], [-0.00023940355458762497, 0.15073999762535095, 0.12469078600406647], [0.02314666658639908, 0.03536408767104149, -0.03506824001669884]], [[-0.08958186954259872, 0.0819702297449112, -0.013610112480819225], [0.1109754890203476, -0.0024733238387852907, -0.051590289920568466], [-0.12475638091564178, -0.2940993905067444, -0.3448598086833954]], [[-0.17208053171634674, -0.10081183165311813, -0.02245159260928631], [-0.23251628875732422, -0.11189891397953033, 0.008334302343428135], [-0.163050577044487, -0.01966877281665802, 0.04891693964600563]], [[0.031242145225405693, 0.10878637433052063, 0.19146427512168884], [-0.02798406593501568, -0.05767767131328583, 0.18780933320522308], [-0.4068487584590912, -0.23268374800682068, -0.08266007155179977]], [[0.08486597239971161, 0.046279922127723694, -0.07061450183391571], [0.23987548053264618, 0.15733453631401062, -0.061769481748342514], [-0.09270627051591873, -0.09377498179674149, -0.1839807629585266]], [[0.07753587514162064, 0.17726269364356995, -0.0200580395758152], [0.17699401080608368, 0.1929687112569809, -0.06734512001276016], [-0.03692883998155594, -0.2555041015148163, -0.1651870310306549]], [[0.111033134162426, 0.07515617460012436, 0.014462258666753769], [-0.09388109296560287, -0.08922190964221954, 0.06807245314121246], [-0.013508264906704426, -0.09342004358768463, -0.10176010429859161]]], [[[-0.487528532743454, -0.4974464774131775, -0.38907644152641296], [-0.18513792753219604, -0.3023117780685425, -0.1888376921415329], [0.18109533190727234, -0.03109101392328739, -0.021162519231438637]], [[0.10449788719415665, 0.07730617374181747, -0.0854877233505249], [0.16737261414527893, 0.161738783121109, 0.05657486617565155], [0.15524524450302124, 0.06623270362615585, 0.06162486970424652]], [[-0.1879013478755951, -0.4355970025062561, -0.44292551279067993], [-0.08078566193580627, -0.3516824543476105, -0.41660067439079285], [0.0875973179936409, -0.024717913940548897, -0.04225319251418114]], [[0.1396457850933075, -0.032987914979457855, -0.06862090528011322], [-0.028826875612139702, -0.04132886603474617, -0.03537191078066826], [0.039627235382795334, -0.011356033384799957, -0.10571902245283127]], [[0.13695399463176727, 0.053739286959171295, 0.025243422016501427], [0.02009829320013523, -0.02538868971168995, -0.08808635175228119], [0.1564754843711853, 0.03769371286034584, 0.0560893714427948]], [[-0.08424524962902069, 0.08121268451213837, -0.09020133316516876], [0.023541174829006195, -0.005281136836856604, -0.0027668208349496126], [0.027594909071922302, 0.15722012519836426, 0.02130335010588169]], [[0.005615782458335161, 0.07617562264204025, -0.015262801200151443], [0.02263697050511837, 0.06844226270914078, -0.06520283222198486], [-0.0564705990254879, 0.0013598509831354022, 0.02048841491341591]], [[0.11145272105932236, 0.04191328212618828, 0.04552629590034485], [0.04552910104393959, -0.009169458411633968, 0.061889227479696274], [0.13344119489192963, 0.08805397897958755, 0.12883923947811127]]], [[[-0.11894568800926208, -0.05158704146742821, 0.004534929990768433], [-0.2431700974702835, -0.3117002248764038, -0.00945852231234312], [-0.21337273716926575, -0.24931173026561737, 0.0007423421484418213]], [[0.08592043071985245, -0.0377405621111393, -0.09275034070014954], [0.23463524878025055, -0.09351955354213715, -0.02238387241959572], [0.10143287479877472, 0.13314282894134521, -0.03600609675049782]], [[0.07956799119710922, -0.07679982483386993, -0.010401109233498573], [-0.008806969039142132, 0.21759849786758423, -0.19160178303718567], [-0.21279914677143097, 0.1579350233078003, -0.04113240912556648]], [[0.017651338130235672, 0.0035471878945827484, -0.055013034492731094], [-0.17832867801189423, 0.21118299663066864, -0.05341776832938194], [-0.1583886593580246, 0.17852282524108887, -0.013531207107007504]], [[0.2279149740934372, -0.23320160806179047, 0.08597924560308456], [0.053741924464702606, 0.09709715843200684, -0.19954626262187958], [-0.0462450310587883, 0.170756533741951, -0.13908283412456512]], [[0.036167342215776443, -0.1094430685043335, 0.15924164652824402], [0.0373743437230587, -0.17727157473564148, 0.0401279479265213], [0.17246592044830322, -0.12321526557207108, -0.13797010481357574]], [[-0.06417573243379593, -0.001274275709874928, -0.045643992722034454], [0.07137787342071533, -0.16351287066936493, 0.10627385228872299], [0.1602073460817337, -0.18849602341651917, 0.1265411525964737]], [[-0.09649477154016495, 0.08392167836427689, -0.004747356288135052], [0.07048593461513519, -0.08597025275230408, 0.11975626647472382], [0.06001776456832886, -0.2018793821334839, 0.10949219763278961]]], [[[0.022179359570145607, 0.005930057726800442, 0.04499151185154915], [-0.09246866405010223, -0.01678541861474514, 0.10387539863586426], [-0.14646923542022705, -0.282118022441864, -0.19979162514209747]], [[0.15665091574192047, -0.11025948077440262, -0.04838765040040016], [0.03230850026011467, -0.0982118621468544, -0.12032405287027359], [0.02385719306766987, 0.09474776685237885, 0.015684086829423904]], [[0.08859105408191681, -0.04525662213563919, 0.05034400150179863], [0.08741569519042969, 0.10821788758039474, 0.05688668414950371], [0.17659731209278107, 0.1632108986377716, 0.2223910689353943]], [[0.08953192830085754, 0.19621507823467255, 0.012219050899147987], [0.18033011257648468, 0.10098416358232498, 0.07879065722227097], [0.0207322146743536, 0.026653852313756943, 0.0339319184422493]], [[0.17306172847747803, 0.11348914355039597, 0.011650383472442627], [0.2091793566942215, -0.03180853649973869, -0.009729922749102116], [0.0719374567270279, -0.0777200385928154, -0.15289561450481415]], [[0.038381777703762054, -0.01843760721385479, -0.06975194811820984], [0.10729276388883591, -0.1866307556629181, 0.018511442467570305], [0.1292312890291214, -0.021280884742736816, 0.08250889927148819]], [[-0.22317804396152496, -0.2499200701713562, -0.17326322197914124], [-0.30977514386177063, -0.42082494497299194, -0.3028563857078552], [-0.253709077835083, -0.3480062186717987, -0.21465446054935455]], [[0.010340304113924503, 0.0930098444223404, 0.228705033659935], [-0.1520608365535736, -0.15828010439872742, -0.0959945023059845], [-0.14254149794578552, -0.2631317377090454, -0.16291919350624084]]], [[[0.2924710810184479, 0.14869612455368042, 0.12430331856012344], [0.046765200793743134, 0.25866925716400146, 0.20224393904209137], [0.1728031188249588, 0.08230862021446228, 0.07205496728420258]], [[0.13509419560432434, 0.1434733122587204, 0.05907710641622543], [0.022513991221785545, 0.030683238059282303, 0.07930618524551392], [-0.05351794883608818, -0.013453276827931404, 0.0067451768554747105]], [[-0.07233631610870361, 0.0698528066277504, 0.007332817651331425], [-0.04173890873789787, -0.10948263853788376, -0.15148410201072693], [-0.011108634993433952, 0.04857248440384865, -0.03734005615115166]], [[-0.1488708108663559, -0.03084365837275982, -0.033394474536180496], [0.1600707620382309, 0.06984195113182068, -0.08336423337459564], [0.018805788829922676, -0.003472489770501852, 0.04057067260146141]], [[-0.023564526811242104, -0.012606704607605934, -0.01722051575779915], [0.16295450925827026, -0.0032963468693196774, 0.00033710646675899625], [0.05284358933568001, -2.8194113838253543e-05, 0.08179528266191483]], [[-0.031794410198926926, -0.07606398314237595, -0.047622427344322205], [0.06712671369314194, 0.1149444729089737, -0.0049663023091852665], [-0.09844714403152466, -0.06748147308826447, -0.008877153508365154]], [[-0.07934607565402985, -0.2186940312385559, -0.07646296918392181], [-0.06677808612585068, -0.005055462475866079, -0.02407846786081791], [3.958745946874842e-05, -0.02247532643377781, -0.09553278982639313]], [[0.20437687635421753, 0.11971841752529144, -0.02100718766450882], [0.2297537922859192, 0.20158149302005768, 0.3114452064037323], [0.07770319283008575, 0.07724976539611816, 0.1985071450471878]]], [[[0.14053399860858917, -0.009142940863966942, -0.02760237641632557], [0.11561215668916702, 0.16614700853824615, 0.09371607005596161], [-0.019441593438386917, -0.0035833914298564196, 0.24135808646678925]], [[-0.047878049314022064, 0.06870831549167633, 0.061663154512643814], [-0.013993068598210812, -0.1019500344991684, -0.007072533946484327], [-0.12358499318361282, -0.030397461727261543, -0.011252593249082565]], [[0.1265742927789688, 0.2243407666683197, 0.15793830156326294], [0.05519101396203041, -0.028166813775897026, 0.06388956308364868], [-0.192251518368721, -0.3169132471084595, -0.2637481391429901]], [[0.10142318904399872, -0.05325523018836975, 0.17557165026664734], [-0.034834008663892746, -0.0008608209900557995, -0.02589418552815914], [-0.14733129739761353, -0.04666915908455849, -0.0319933220744133]], [[-0.13084787130355835, -0.08149360120296478, 0.11000902950763702], [-0.04391489923000336, 0.07818467915058136, 0.0572708360850811], [-0.06031133607029915, 0.036779507994651794, -0.21627210080623627]], [[-0.21816258132457733, -0.17327313125133514, -0.02205892838537693], [0.022552188485860825, -0.003025243990123272, 0.16470475494861603], [0.10956696420907974, 0.11673138290643692, 0.19359968602657318]], [[-0.09861961752176285, -0.13134188950061798, -0.08131885528564453], [-0.0199887752532959, -0.08281079679727554, -0.0024383545387536287], [-0.2039656788110733, -0.30011627078056335, -0.022093750536441803]], [[-0.2731344401836395, -0.39187073707580566, -0.051058053970336914], [-0.025379179045557976, 0.01282891072332859, 0.0786963626742363], [0.2012730985879898, 0.16091588139533997, 0.28735873103141785]]], [[[-0.12295345216989517, -0.04324830695986748, 0.06540609151124954], [-0.05220654979348183, -0.054486796259880066, 0.0641159787774086], [0.028306182473897934, -0.06291535496711731, 0.023860646411776543]], [[-0.09994488209486008, -0.22584615647792816, -0.011944116093218327], [-0.29930606484413147, -0.11633466929197311, 0.09500665962696075], [-0.2766524851322174, 0.0013397156726568937, 0.08864647150039673]], [[0.17272993922233582, -0.024117954075336456, 0.1493394821882248], [0.0410749614238739, 0.0032391829881817102, 0.09967707842588425], [-0.18251007795333862, 0.17007330060005188, 0.019613204523921013]], [[-0.21553200483322144, -0.007470640353858471, 0.05181911587715149], [-0.010558942332863808, -0.08210041373968124, 0.11828375607728958], [-0.07592704147100449, 0.10008087009191513, -0.03240039199590683]], [[-0.18562619388103485, 0.05129063501954079, -0.06591149419546127], [0.1081816554069519, -0.1510298103094101, 0.07213534414768219], [0.023074910044670105, -0.02898649498820305, -0.035828761756420135]], [[0.07255490869283676, 0.014620532281696796, 0.10490474104881287], [-0.10486296564340591, 0.07000744342803955, 0.0570429265499115], [-0.11772771924734116, -0.013999211601912975, -0.03834084793925285]], [[-0.04675581306219101, -0.24270844459533691, -0.1026582345366478], [-0.038695067167282104, 0.007115369662642479, 0.09965964406728745], [-0.04773973301053047, 0.15742100775241852, -0.10577955096960068]], [[0.127358540892601, 0.06705460697412491, -0.06129923835396767], [0.044464513659477234, 0.017389502376317978, 0.09987254440784454], [0.04563722386956215, 0.029545968398451805, -0.046600550413131714]]], [[[-0.273487389087677, 0.0651167631149292, 0.12066034227609634], [0.009668677113950253, 0.025433676317334175, -0.07925789803266525], [0.032969702035188675, -0.031730178743600845, -0.08056842535734177]], [[-0.062274813652038574, 0.2247559130191803, 0.08798724412918091], [-0.06516902148723602, -0.0027410571929067373, 0.028337150812149048], [0.061806194484233856, 0.052473802119493484, -0.06447558104991913]], [[0.03771751746535301, 0.07559245824813843, 0.040041036903858185], [0.17611457407474518, 0.1634952872991562, -0.12584877014160156], [-0.07355936616659164, 0.06341589987277985, 0.18189987540245056]], [[-0.0009555450524203479, -0.0804213359951973, -0.051975999027490616], [0.10062719136476517, -0.034789521247148514, -0.03650721535086632], [-0.11273123323917389, 0.07328759878873825, 0.09920254349708557]], [[0.05763006955385208, -0.3078624904155731, -0.2838381826877594], [-0.14550656080245972, -0.13033927977085114, -0.055301349610090256], [-0.055922117084264755, 0.052907757461071014, 0.11117644608020782]], [[0.0874471589922905, 0.273270845413208, 0.26945674419403076], [0.18044576048851013, 0.19471882283687592, 0.02529502473771572], [0.15689143538475037, 0.14001509547233582, 0.017022602260112762]], [[-0.0337664857506752, 0.13452158868312836, 0.17018252611160278], [-0.011300375685095787, 0.11413413286209106, 0.1545911729335785], [-0.13442100584506989, -0.19485414028167725, 0.07386116683483124]], [[0.18283416330814362, 0.06210316717624664, -0.2511516809463501], [-0.10293557494878769, -0.32675135135650635, -0.33305323123931885], [-0.2557595372200012, -0.34686189889907837, -0.16213221848011017]]], [[[0.3843313157558441, 0.32671165466308594, 0.1266379952430725], [-0.05863026902079582, -0.029261503368616104, -0.1914241462945938], [0.13722848892211914, 0.012546449899673462, 0.1343264877796173]], [[-0.12332526594400406, 0.04090752825140953, 0.08264602720737457], [0.05294181406497955, 0.06145169213414192, 0.008750016801059246], [-0.07739835977554321, -0.03736933693289757, -0.11541668325662613]], [[-0.20368799567222595, 0.002113670576363802, 0.025339460000395775], [-0.002040961291640997, 0.1056273803114891, -0.003685475792735815], [-0.06334606558084488, -0.15363137423992157, -0.15653052926063538]], [[-0.04578772559762001, -0.07657449692487717, -0.012977196834981441], [-0.0018598742317408323, -0.007841513492166996, 0.023759152740240097], [-0.03182857483625412, -0.003356924979016185, 0.09109260886907578]], [[-0.09042105823755264, -0.29731303453445435, -0.08216949552297592], [0.07696465402841568, -0.0316157303750515, 0.02943297289311886], [0.18121443688869476, 0.0177473034709692, 0.1324520707130432]], [[-0.013713772408664227, -0.15575332939624786, -0.06653051823377609], [0.01619073562324047, 0.06440209597349167, -0.03683871403336525], [0.11261024326086044, 0.1645858883857727, 0.06496488302946091]], [[-0.022413551807403564, 0.17166654765605927, 0.0015907342312857509], [-0.02154139243066311, 0.17235970497131348, -0.07679475843906403], [0.19769178330898285, 0.15207715332508087, 0.03172898665070534]], [[-0.23021739721298218, -0.06694434583187103, -0.20467886328697205], [-0.09016698598861694, -0.03578681871294975, -0.11580277234315872], [0.2053324431180954, 0.16524875164031982, 0.23450486361980438]]], [[[0.25517383217811584, 0.07110659033060074, -0.07034792751073837], [0.286855012178421, -0.09084128588438034, 0.02689303644001484], [0.11474652588367462, -0.06434817612171173, -0.09957635402679443]], [[0.1192120686173439, 0.0020729012321680784, -0.05749378353357315], [0.029195884242653847, -0.05401502922177315, -0.012885099276900291], [-0.027631759643554688, 0.10025353729724884, 0.01149711012840271]], [[-0.1947907656431198, -0.2925553321838379, -0.034451812505722046], [-0.23673641681671143, 0.13440169394016266, 0.1975756138563156], [0.03155740350484848, 0.228089839220047, 0.05275517329573631]], [[-0.04572998359799385, -0.05346730723977089, 0.12605498731136322], [-0.059256017208099365, 0.0921030044555664, 0.08238561451435089], [-0.047149937599897385, 0.08659695088863373, -0.09675611555576324]], [[0.23446255922317505, 0.03153183311223984, 0.028550488874316216], [-0.05658823624253273, -0.1601802110671997, -0.04340266063809395], [-0.020841795951128006, -0.014964486472308636, 0.05978139117360115]], [[0.11678245663642883, -0.07700858265161514, -0.23279975354671478], [0.08421166986227036, -0.06566160172224045, -0.06267210096120834], [-0.15019741654396057, -0.1404387205839157, -0.17737871408462524]], [[0.09481596201658249, -0.06720127165317535, 0.046782344579696655], [-0.09747735410928726, 0.19770117104053497, 0.2292415350675583], [0.22830159962177277, 0.1957591325044632, 0.14411099255084991]], [[0.13653482496738434, -0.041047681123018265, 0.04360982030630112], [0.06122909113764763, -0.0671687126159668, 0.028707746416330338], [-0.0841439813375473, -0.0009334397618658841, 0.0735434964299202]]], [[[-0.2011033296585083, -0.16775555908679962, 0.12228494882583618], [-0.09422164410352707, -0.2959056794643402, 0.003184225643053651], [-0.09307590126991272, -0.10571698099374771, -0.09776037186384201]], [[-0.10317568480968475, -0.06718683987855911, 0.09785497933626175], [-0.04244779795408249, 0.09987054765224457, -0.002237331587821245], [0.004086196422576904, -0.03958984464406967, 0.23497846722602844]], [[-0.2196064591407776, -0.03457826003432274, 0.051566269248723984], [-0.32716038823127747, 0.06380946934223175, 0.04045430198311806], [-0.057068757712841034, -0.020462004467844963, 0.08710166811943054]], [[0.07936814427375793, 0.12437830120325089, 0.03858037665486336], [-0.00605151429772377, 0.03738440200686455, 0.012694617733359337], [0.2320241779088974, -0.13734355568885803, 0.060191307216882706]], [[0.203219935297966, 0.35200247168540955, 0.1438160091638565], [0.17413607239723206, 0.289989709854126, 0.0002457114460412413], [0.02673179842531681, -0.04331691935658455, 0.051443248987197876]], [[0.199885293841362, 0.04998569190502167, -0.11290763318538666], [-0.06727250665426254, -0.08466401696205139, -0.025508910417556763], [-0.1386396437883377, 0.0200809296220541, -0.06577684730291367]], [[0.01725253276526928, -0.19044123589992523, 0.008632068522274494], [-0.1393204927444458, 0.05938677117228508, 0.08302577584981918], [-0.1507434993982315, 0.06447284668684006, -0.037745676934719086]], [[0.13332733511924744, -0.08555229753255844, -3.931173341698013e-05], [0.11959802359342575, 0.07808516174554825, -0.09236342459917068], [0.17253050208091736, -0.02952459827065468, -0.11532709002494812]]]], "features.3.bias": [0.18682458996772766, 0.20961713790893555, -0.08982252329587936, -0.1125984638929367, -0.29103389382362366, 0.16654331982135773, 0.3590952455997467, 0.12176475673913956, 0.35624170303344727, -0.20267920196056366, 0.03767288848757744, 0.2435343712568283, 0.1507432460784912, -0.1351121962070465, -0.06394065916538239, -0.12826170027256012], "features.6.weight": [[[[0.09062910825014114, 0.14134664833545685, 0.060633353888988495], [0.0063667306676507, 0.11415593326091766, 0.04764644429087639], [0.06887224316596985, -0.03885085508227348, 0.032389186322689056]], [[0.08839473128318787, 0.09319435060024261, -0.0936935693025589], [0.17656059563159943, 0.0433771088719368, -0.1657380610704422], [0.0780327320098877, -0.02415533736348152, -0.19294224679470062]], [[0.049843013286590576, 0.07276070863008499, -0.03979124873876572], [0.04096560552716255, -0.06596369296312332, -0.0998343825340271], [-0.06756863743066788, -0.10477431863546371, -0.07559158653020859]], [[-0.05046762153506279, -0.21428145468235016, 0.013031534850597382], [-0.08018805831670761, -0.1361469179391861, -0.03492498770356178], [-0.025800537317991257, -0.07580601423978806, 0.1316356509923935]], [[-0.11718588322401047, 0.05900467932224274, -0.061820562928915024], [0.03714039921760559, 0.06704764068126678, -0.16470980644226074], [-0.11775415390729904, -0.06963752210140228, -0.09346390515565872]], [[-0.11364838480949402, 0.15996278822422028, -0.07268912345170975], [-0.08407850563526154, -0.0012533132685348392, -0.2124340534210205], [-0.03136037662625313, -0.013950059190392494, -0.04894144833087921]], [[0.055809881538152695, 0.10619551688432693, 0.03703434392809868], [-0.0019427310908213258, 0.1389205902814865, -0.08664549142122269], [0.003028732491657138, 0.0278815608471632, -0.03980213403701782]], [[-0.16538380086421967, 0.02232910692691803, 0.18302501738071442], [-0.1445673704147339, 0.06201380491256714, 0.22437681257724762], [-0.23339959979057312, -0.014980411157011986, 0.16565059125423431]], [[0.012245024554431438, -0.025285063311457634, 0.16623809933662415], [-0.1272778958082199, -0.07370075583457947, 0.008985251188278198], [-0.08652202039957047, -0.09408159554004669, -0.07104533165693283]], [[-0.02118922956287861, 0.11016160249710083, 0.13112494349479675], [-0.04344000667333603, 0.04897430166602135, -0.044194545596838], [-0.0803765207529068, -0.03513188287615776, -0.12970958650112152]], [[-0.0793691948056221, -0.04291908070445061, -0.1132364273071289], [-0.013644677586853504, -0.06802411377429962, -0.06460797041654587], [0.0003960937901865691, -0.04582794010639191, -0.09411955624818802]], [[0.10350041836500168, -0.01872015744447708, 0.13332928717136383], [0.07622333616018295, -0.03618915379047394, 0.11928007006645203], [-0.048190951347351074, 0.024978574365377426, 0.07958098500967026]], [[0.14571283757686615, 0.13750159740447998, 0.05712772533297539], [0.16654528677463531, -0.02567470632493496, -0.15426595509052277], [-0.02713514305651188, -0.055708497762680054, -0.15819117426872253]], [[0.07523539662361145, 0.13748164474964142, -0.06081516295671463], [0.07771407812833786, -0.11938704550266266, -0.11830053478479385], [-0.04515756294131279, -0.17398343980312347, -0.08083958923816681]], [[0.14782576262950897, 0.0025785707402974367, -0.04405485838651657], [0.03785717487335205, 0.042578842490911484, 0.04557112976908684], [0.09027442336082458, 0.08887504041194916, 0.04119754210114479]], [[0.040139250457286835, -0.016597360372543335, 0.12683436274528503], [-0.030806558206677437, 0.07138559967279434, 0.26344120502471924], [-0.08666364848613739, 0.08192167431116104, 0.020515449345111847]]], [[[-0.035452570766210556, 0.0313369445502758, 0.041101716458797455], [-0.009847600944340229, 0.2016436606645584, 0.01084771566092968], [0.05329659953713417, 0.11099545657634735, 0.004707794636487961]], [[0.024583514779806137, 0.08145981281995773, -0.04782311990857124], [0.02650921605527401, 0.11265715211629868, 0.06129699572920799], [-0.015641208738088608, 0.1358719766139984, -0.17453889548778534]], [[-0.000304544490063563, -0.12899081408977509, 0.026667410507798195], [-0.27141568064689636, -0.196278914809227, -0.10089719295501709], [-0.25042057037353516, -0.0885651707649231, -0.13867095112800598]], [[-0.02918385900557041, 0.018144039437174797, 0.06501826643943787], [0.06121930107474327, 0.014184937812387943, -0.03648380935192108], [0.20461693406105042, 0.01666206121444702, 0.09273633360862732]], [[0.09630246460437775, -0.1140773817896843, -0.16077658534049988], [-0.09796468168497086, 0.008228172548115253, 0.13125813007354736], [0.007662681397050619, 0.008038006722927094, -0.14702920615673065]], [[0.026737641543149948, 0.02658383920788765, 0.1289161741733551], [-0.046717409044504166, 0.18083328008651733, 0.009495672769844532], [-0.17226280272006989, 0.08114703744649887, 0.021557359024882317]], [[-0.04189548268914223, -0.09438300877809525, 0.13885174691677094], [-0.04971838742494583, -0.05929713696241379, 0.21542823314666748], [0.03144461661577225, 0.23959966003894806, 0.1542581021785736]], [[0.1052124947309494, -0.1108630895614624, 0.02097366377711296], [0.06564562767744064, -0.08023104816675186, 0.08758778870105743], [0.011809401214122772, 0.03271619603037834, 0.14664766192436218]], [[0.0488552525639534, -0.0006120718317106366, 0.05254875123500824], [-0.020195119082927704, -0.09984701871871948, -0.015226932242512703], [0.052256084978580475, -0.18969568610191345, 0.04559599608182907]], [[0.15111283957958221, -0.02384880743920803, -0.06171145290136337], [-0.06923417747020721, -0.18054865300655365, -0.036968715488910675], [-0.26337069272994995, -0.13659855723381042, 0.04038364812731743]], [[-0.06386803835630417, -0.18928028643131256, 0.21976952254772186], [-0.04434433951973915, 0.18034997582435608, 0.2994389235973358], [0.022678207606077194, 0.15419833362102509, 0.12912556529045105]], [[0.14461146295070648, 0.3334880471229553, -0.0035445773974061012], [0.22072070837020874, 0.16628596186637878, 0.01934577152132988], [0.10414399951696396, -0.00500804977491498, 0.03925306722521782]], [[0.02137196995317936, -0.05683169886469841, -0.02444596216082573], [0.049719639122486115, 0.11025990545749664, -0.05055764317512512], [-0.03538480028510094, 0.027744309976696968, -0.06742428243160248]], [[-0.08850475400686264, 0.08690670132637024, 0.14656521379947662], [-0.003357726614922285, 0.2135591208934784, 0.052015017718076706], [0.04987539350986481, 0.09755414724349976, -0.10476253181695938]], [[-0.014659442938864231, 0.28766608238220215, 0.11239227652549744], [0.23349420726299286, 0.26345521211624146, -0.034363944083452225], [0.16851699352264404, 0.02825130708515644, 0.08844278752803802]], [[0.0815214142203331, 0.0682702288031578, -0.007151708006858826], [0.1349441260099411, 0.09676056355237961, -0.1859474927186966], [0.05758276581764221, -0.03652633726596832, -0.0964331179857254]]], [[[-0.08818522095680237, -0.10982711613178253, 0.12411829829216003], [-0.08816710114479065, -0.08133042603731155, 0.16025826334953308], [-0.11584462225437164, 0.05423617735505104, 0.07108451426029205]], [[0.16540665924549103, -0.16237536072731018, -0.22151969373226166], [0.3293812572956085, 0.03838109225034714, -0.4047674536705017], [0.2388954609632492, -0.03234199807047844, -0.19371865689754486]], [[-0.05608828365802765, 0.08387009054422379, 0.18418337404727936], [0.14430692791938782, -0.00234848540276289, 0.03687317669391632], [-0.017455052584409714, 0.04798459634184837, -0.05744794383645058]], [[-0.1258423924446106, -0.06762537360191345, 0.06798183917999268], [-0.14176616072654724, -0.14605598151683807, 0.10144320130348206], [0.015639450401067734, -0.04027469828724861, 0.01050538569688797]], [[-0.06861833482980728, -0.1925048828125, 0.1262190043926239], [0.21865315735340118, -0.1024860367178917, -0.10484401136636734], [0.08350218832492828, 0.04964121803641319, -0.03870446979999542]], [[-0.1545540690422058, -0.013565976172685623, 0.018513912335038185], [0.246183842420578, -0.03958572819828987, -0.12416499853134155], [0.05782196298241615, -0.023436885327100754, 0.06908925622701645]], [[0.07879617065191269, -0.08157075941562653, 0.0011009075678884983], [0.09715510904788971, 0.03519221022725105, -0.04048783332109451], [-0.04150699824094772, -0.07726716995239258, 0.04391760379076004]], [[0.13429471850395203, 0.029346857219934464, -0.11646369844675064], [-0.00930100865662098, 0.19114284217357635, 0.008192035369575024], [0.14679838716983795, 0.0176062174141407, 0.012045636773109436]], [[0.23533475399017334, 0.1068936288356781, -0.02201843447983265], [-0.013276934623718262, 0.15722103416919708, 0.08490568399429321], [-0.01962781324982643, 0.015110115520656109, 0.05772129446268082]], [[-0.19250798225402832, -0.009283150546252728, 0.1919994205236435], [-0.027038201689720154, 0.014592076651751995, 0.05800005421042442], [-0.022250685840845108, 0.0009291095775552094, 0.11387313902378082]], [[-0.1484937220811844, -0.0765552818775177, 0.2107379138469696], [0.017676549032330513, -0.02312842570245266, -0.06454653292894363], [-0.04467000439763069, -0.014898424968123436, -0.026039063930511475]], [[-0.24826176464557648, -0.06556516140699387, 0.3150670528411865], [-0.03309554234147072, -0.2956310510635376, 0.1712419092655182], [0.10293075442314148, -0.13035237789154053, -0.02902981825172901]], [[0.09392423927783966, -0.12660269439220428, 0.03743241727352142], [0.23031575977802277, -0.17353051900863647, -0.2658199369907379], [0.19173339009284973, -0.11017459630966187, -0.20032186806201935]], [[-0.11114322394132614, -0.17328742146492004, -0.030079547315835953], [0.18917207419872284, -0.030176499858498573, -0.19505120813846588], [0.09333183616399765, -0.07642250508069992, -0.06431272625923157]], [[-0.023449689149856567, -0.05643077939748764, -0.07863446325063705], [0.06984900683164597, 0.017490042373538017, -0.15158450603485107], [0.06676159054040909, 0.05395541712641716, -0.05136072635650635]], [[0.03284140303730965, -0.2706158459186554, 0.10791357606649399], [0.04195687547326088, -0.18588495254516602, 0.06984816491603851], [-0.011396246030926704, -0.16524967551231384, -0.017780851572752]]], [[[-0.05523646995425224, -0.263241708278656, -0.044736698269844055], [-0.047257013618946075, -0.1752210110425949, -0.14864563941955566], [0.022156549617648125, -0.10265668481588364, -0.024029262363910675]], [[0.10269004851579666, -0.008192573674023151, 0.07347281277179718], [0.04887830466032028, -0.06495841592550278, -0.11170542240142822], [-0.023455562070012093, 0.0031815925613045692, 5.1575025281636044e-05]], [[0.12716886401176453, 0.01167353242635727, -0.0069802976213395596], [0.07246715575456619, -0.04111273214221001, -0.10036715120077133], [0.0754355862736702, 0.09585030376911163, 0.09061723202466965]], [[-0.0020043407566845417, -0.024243919178843498, 0.0813894271850586], [0.07562601566314697, -0.2060500979423523, 0.2981959879398346], [-0.08411363512277603, -0.20360086858272552, 0.12792474031448364]], [[0.14473609626293182, 0.05729416385293007, 0.07041826099157333], [-0.09727342426776886, -0.16506025195121765, -0.14893871545791626], [0.08924464881420135, 0.08204107731580734, 0.07274556905031204]], [[0.020432278513908386, 0.008224768564105034, 0.00853996817022562], [-0.10673739016056061, 0.020410528406500816, -0.03084796480834484], [0.0008061353000812232, 0.01846044696867466, -0.04460877180099487]], [[0.03811226040124893, 0.013753855600953102, -0.05294194445014], [-0.015298651531338692, -0.007010687608271837, -0.11893736571073532], [-0.09562090039253235, -0.23137719929218292, -0.19899454712867737]], [[0.17702439427375793, -0.22389517724514008, -0.08773758262395859], [-0.04810658469796181, -0.331420361995697, 0.16046205163002014], [-0.09107118099927902, -0.060677312314510345, 0.2822510302066803]], [[-0.0024945845361799, -0.02966061793267727, 0.059051722288131714], [0.04908395931124687, 0.07968216389417648, 0.08476617187261581], [0.034586481750011444, 0.047057341784238815, 0.07846245914697647]], [[-0.09597575664520264, -0.1285826563835144, -0.115840382874012], [-0.1641329973936081, -0.06837436556816101, -0.2235889732837677], [-0.021473074331879616, -0.05254873260855675, -0.1412929892539978]], [[-0.11052482575178146, -0.08033904433250427, 0.022383039817214012], [-0.021159594878554344, 0.03904356807470322, 0.008135081268846989], [0.13371677696704865, 0.048890773206949234, 0.028524601832032204]], [[0.04570658504962921, -0.22920890152454376, 0.14929042756557465], [-0.08823531121015549, -0.20037654042243958, 0.08676571398973465], [0.11244672536849976, -0.06420198827981949, 0.12624576687812805]], [[0.11951159685850143, 0.19329172372817993, 0.21706156432628632], [0.08497463911771774, 0.08423642069101334, 0.07561352103948593], [0.04704534262418747, -0.02256929688155651, -0.05386234447360039]], [[-0.07559659332036972, -0.10942298918962479, -0.13571086525917053], [0.0651649609208107, -0.11312128603458405, -0.005843022372573614], [0.054624784737825394, 0.0993780866265297, -0.03411895036697388]], [[-0.16268552839756012, -0.2837305963039398, 0.007772315293550491], [0.12366236001253128, -0.01917617954313755, 0.17153038084506989], [-0.05182487890124321, -0.05863648280501366, 0.037809912115335464]], [[0.007427229080349207, 0.07655491679906845, 0.13067053258419037], [-0.05196543037891388, -0.266296923160553, -0.196386456489563], [-0.17097888886928558, -0.14889831840991974, -0.14338885247707367]]], [[[-0.06867484003305435, -0.056419357657432556, 0.029173418879508972], [-0.1420195996761322, -0.13031591475009918, -0.11293812841176987], [-0.12265411764383316, -0.17293478548526764, -0.025353597477078438]], [[-0.07898746430873871, -0.09654145687818527, -0.008222395554184914], [0.10772832483053207, 0.15233127772808075, 0.08987903594970703], [-0.15622037649154663, -0.049476202577352524, -0.1872439831495285]], [[-0.048263464123010635, -0.06934510916471481, -0.23385168612003326], [0.11275210976600647, 0.19927309453487396, 0.10003311932086945], [0.06499187648296356, 0.10795055329799652, 0.11673139035701752]], [[0.043354686349630356, -0.10036443173885345, 0.05684977397322655], [0.0003977918822783977, 0.009845164604485035, -0.08293276280164719], [-0.11780929565429688, -0.1808556616306305, -0.014670570380985737]], [[-0.003789606038480997, -0.030832044780254364, 0.04422352835536003], [0.05575665831565857, 0.11432965844869614, -0.04437848553061485], [-0.05115561559796333, -0.004065532702952623, -0.0641254186630249]], [[-0.0054160226136446, 0.13774850964546204, -0.011897494085133076], [0.11073151230812073, 0.23239506781101227, 0.18625447154045105], [-0.1298900693655014, 0.0214264914393425, -0.12431863695383072]], [[0.1472914218902588, 0.16104701161384583, 0.1335265338420868], [0.008193793706595898, 0.06835523992776871, 0.0646902546286583], [-0.25314754247665405, -0.3508826196193695, -0.2887825667858124]], [[0.29657086730003357, 0.18725207448005676, -0.0036634113639593124], [0.13197675347328186, -0.0152397770434618, 0.042389847338199615], [-0.08405917882919312, -0.07815313339233398, -0.048507869243621826]], [[0.03682158142328262, 0.1500963568687439, 0.08203490078449249], [-0.01449569035321474, -0.05882035568356514, 0.07176816463470459], [-0.05052271485328674, 0.010979750193655491, 0.11162105947732925]], [[-0.02538461796939373, 0.013956999406218529, -0.1319984495639801], [0.02721349149942398, 0.10326968878507614, -0.03798765689134598], [0.16431598365306854, 0.15738976001739502, -0.03674476966261864]], [[-0.02174924686551094, 0.02717103622853756, 0.003752858377993107], [0.05610281601548195, -0.04242253303527832, 0.008889377117156982], [0.05723858252167702, -0.012993816286325455, -0.0552290603518486]], [[-0.05910981073975563, 0.08246877044439316, 0.017131350934505463], [-0.017101122066378593, -0.07491997629404068, -0.11308630555868149], [-0.16212548315525055, -0.09566333889961243, -0.06213963031768799]], [[-0.06675457209348679, -0.08493706583976746, -0.12407796829938889], [-0.01172112487256527, 0.017286432906985283, 0.1161041259765625], [-0.16182003915309906, 0.0453055314719677, 0.04648415744304657]], [[-0.12026514858007431, 0.03097592480480671, 0.062463320791721344], [0.04067923128604889, 0.06427579373121262, 0.04085351899266243], [0.13795477151870728, 0.19846534729003906, 0.1517566293478012]], [[-0.11187221854925156, 0.041642945259809494, -0.07182656973600388], [-0.06253241747617722, -1.2805138794647064e-05, -0.03923015668988228], [-0.004388186149299145, 0.05518437176942825, 0.0728004202246666]], [[-0.0023266670759767294, 0.07783789932727814, -0.022585120052099228], [-0.07063418626785278, -0.04023978114128113, -0.0038541522808372974], [0.04193061217665672, -0.056724466383457184, -0.03695228323340416]]], [[[-0.05291006341576576, 0.06202372536063194, -0.02506350167095661], [-0.2181955724954605, -0.08327002078294754, -0.07939119637012482], [0.17245934903621674, 0.1624244749546051, 0.11351041495800018]], [[-0.004454506561160088, -0.013046866282820702, 0.0827227309346199], [0.1093219518661499, -0.010921814478933811, 0.0223076269030571], [-0.004021655302494764, -0.018066156655550003, 0.050909969955682755]], [[0.12349126487970352, 0.16617681086063385, 0.08166598528623581], [-0.07722462713718414, 0.017977098003029823, 0.04975717142224312], [-0.009575063362717628, -0.11771638691425323, -0.038737718015909195]], [[-0.1304377317428589, 0.05414734035730362, 0.020621633157134056], [-0.22416609525680542, -0.15096847712993622, -0.03301692008972168], [-0.0730573982000351, -0.18803025782108307, -0.08270297199487686]], [[-0.09680189192295074, -0.058333881199359894, -0.09685341268777847], [-0.2670365869998932, -0.18566764891147614, -0.08165176957845688], [-0.028069820255041122, -0.006922067608684301, 0.08310190588235855]], [[0.1611044853925705, 0.1529846489429474, 0.09609408676624298], [0.11605275422334671, 0.12360909581184387, 0.03923531994223595], [-0.021603688597679138, -0.009241790510714054, -0.04080025106668472]], [[-0.060684122145175934, 0.024042990058660507, 0.0430384986102581], [-0.21589325368404388, -0.13550277054309845, -0.10563300549983978], [-0.03583573177456856, 0.09746155887842178, 0.056748468428850174]], [[-0.2553333640098572, -0.1392691731452942, -0.009988817386329174], [-0.20022337138652802, -0.17537052929401398, -0.008030087687075138], [-0.05357859283685684, -0.1041424572467804, -0.024711057543754578]], [[0.18636421859264374, 0.15037988126277924, 0.10134253650903702], [0.03005705401301384, 0.0852343738079071, 0.038308579474687576], [0.006320327986031771, -0.1292397528886795, -0.07004943490028381]], [[0.14368733763694763, 0.13903510570526123, 0.1440889537334442], [-0.10993247479200363, 0.008189978078007698, 0.0640348419547081], [-0.14176104962825775, -0.13339266180992126, -0.057174768298864365]], [[0.08140876889228821, 0.09815705567598343, 0.006961969658732414], [0.11630392074584961, 0.1437978595495224, 0.1434130072593689], [0.070332370698452, 0.0026224725879728794, 0.10541728138923645]], [[-0.1411409080028534, 0.03336385264992714, -0.01988035999238491], [-0.19633547961711884, -0.05609782785177231, 0.016907159239053726], [0.033597301691770554, 0.13493099808692932, 0.11370531469583511]], [[0.03330066427588463, 0.01812918111681938, 0.07721249014139175], [-0.019959531724452972, -0.0724392756819725, 0.0640704557299614], [0.05083668977022171, -0.020300813019275665, 0.014944812282919884]], [[-0.020263683050870895, 0.09880995750427246, 0.03883589804172516], [-0.05115199834108353, 0.0025208056904375553, 0.004831349477171898], [-0.02631510980427265, 0.03800928220152855, -0.008237529546022415]], [[0.014338226988911629, -0.02532847411930561, -0.012406996451318264], [-0.06543198972940445, -0.03566116467118263, 0.056714583188295364], [0.02416119910776615, 0.06602315604686737, 0.07647775858640671]], [[0.038750436156988144, 0.03970394283533096, 0.0021888085175305605], [-0.28973716497421265, -0.24175402522087097, -0.2263738512992859], [-0.4567808508872986, -0.36625441908836365, -0.13362225890159607]]], [[[-0.023310191929340363, 0.049891967326402664, 0.11706019937992096], [0.08276070654392242, 0.19879472255706787, 0.06683583557605743], [0.15525884926319122, 0.14743871986865997, 0.047257598489522934]], [[0.025259558111429214, -0.016968412324786186, -0.029780972748994827], [0.04185471683740616, 0.10789398849010468, 0.21529507637023926], [0.05743052065372467, 0.028020791709423065, 0.06558751314878464]], [[-0.04296324774622917, -0.07787882536649704, -0.11151765286922455], [-0.08563000708818436, 0.01161216665059328, -0.0029659958090633154], [0.14260120689868927, -0.02965094894170761, -0.040851444005966187]], [[-0.09448780119419098, -0.12442662566900253, 0.02474510669708252], [0.005864119157195091, -0.1050603985786438, -0.07653747498989105], [-0.10721433907747269, -0.1698843538761139, -0.08599968999624252]], [[0.09002779424190521, -0.032497845590114594, -0.2296963781118393], [0.06518207490444183, -0.2642691731452942, -0.17785438895225525], [-0.07639896124601364, -0.15496648848056793, -0.0509551465511322]], [[-0.0388006754219532, -0.0069558038376271725, 0.053593169897794724], [0.03201888129115105, 0.07377392053604126, 0.11037460714578629], [0.11164455115795135, 0.005500553175806999, 0.016128646209836006]], [[0.24536053836345673, 0.14972496032714844, 0.010582664050161839], [0.05233307555317879, -0.029784362763166428, -0.06291936337947845], [-0.0705750361084938, -0.2562467157840729, -0.03735346719622612]], [[-0.08709818124771118, -0.13119494915008545, -0.29493099451065063], [-0.2587488889694214, -0.4369567036628723, -0.4283437132835388], [-0.2401583045721054, -0.3718445599079132, -0.20204216241836548]], [[0.11307471990585327, -0.05191231891512871, -0.000788025907240808], [0.10919500142335892, -0.10173682123422623, -0.3170022666454315], [-0.05970325320959091, -0.19105584919452667, -0.12114794552326202]], [[-0.029417430981993675, 0.06991931051015854, -0.0021194301079958677], [-0.09294915199279785, -0.17263932526111603, -0.2246917337179184], [-0.15182432532310486, -0.14315387606620789, -0.06896936148405075]], [[-0.06172209605574608, -0.12852315604686737, -0.1475728154182434], [-0.05745143070816994, -0.153321772813797, -0.08766300976276398], [-0.035836827009916306, -0.11642994731664658, -0.12818799912929535]], [[-0.08884518593549728, 0.216078981757164, 0.4323103129863739], [-0.011665597558021545, 0.21091723442077637, 0.042752500623464584], [0.16577710211277008, 0.15281258523464203, 0.06551876664161682]], [[0.09788364917039871, 0.08281126618385315, -0.07300756871700287], [0.1604471653699875, 0.12060776352882385, 0.16475717723369598], [0.06748250871896744, 0.08405447006225586, -0.07514272630214691]], [[-0.01743478514254093, -0.158035010099411, -0.18913151323795319], [-0.04437094181776047, -0.006713650189340115, 0.011491963639855385], [0.07434988021850586, 0.036708664149045944, -0.04831492155790329]], [[0.025455892086029053, 0.06280355900526047, 0.1086304560303688], [0.18331211805343628, 0.2580728232860565, 0.0714430958032608], [0.22990328073501587, 0.21558234095573425, 0.13290846347808838]], [[-0.0659710019826889, -0.22131530940532684, 0.0823691263794899], [-0.1281123161315918, -0.10469398647546768, -0.017262743785977364], [0.01693834736943245, 0.1102297231554985, 0.07900197058916092]]], [[[0.17933765053749084, 0.1591724455356598, 0.15679945051670074], [0.07522092014551163, 0.1601371318101883, 0.19102659821510315], [0.06703471392393112, 0.16510136425495148, 0.16627384722232819]], [[0.09034759551286697, 0.05448044463992119, -0.060722168534994125], [0.002698109718039632, 0.013036752119660378, 0.014456753619015217], [-0.0173818189650774, -0.012941942550241947, 0.09412308782339096]], [[-0.0005436703795567155, 0.01219090260565281, -0.06340687721967697], [-0.056866440922021866, -0.037804197520017624, -0.0675201341509819], [0.004636489320546389, 0.09086788445711136, 5.220382081461139e-05]], [[-0.06662940979003906, 0.11264026910066605, 0.1546718031167984], [-0.21647368371486664, -0.02333233505487442, 0.14631885290145874], [-0.18018515408039093, -0.1389118880033493, -0.08023620396852493]], [[0.03360013663768768, 0.05580953508615494, -0.030329829081892967], [0.034814558923244476, 0.06186332181096077, -0.03078155219554901], [-0.018249748274683952, -0.08258844912052155, -0.15565623342990875]], [[0.009675045497715473, 0.06597800552845001, 0.035579927265644073], [0.07953821867704391, -0.027241580188274384, -0.0018402553396299481], [0.0012004236923530698, 0.08926510810852051, 0.05650033429265022]], [[-0.0012505685444921255, -0.050936076790094376, 0.02667313441634178], [0.08891310542821884, -0.046832263469696045, 0.052543025463819504], [-0.06425977498292923, -0.0849248617887497, -0.014116974547505379]], [[0.03502318635582924, 0.2571025490760803, 0.24769183993339539], [0.07984595745801926, 0.024656113237142563, 0.16018147766590118], [0.12672971189022064, 0.046480387449264526, 0.16014453768730164]], [[-0.02230517379939556, 0.07323858886957169, 0.02558690309524536], [-0.21139109134674072, -0.16014046967029572, -0.17965373396873474], [-0.10809008777141571, 0.0026302537880837917, -0.016256680712103844]], [[-0.10085195302963257, -0.1021718829870224, -0.09236939996480942], [-0.13459055125713348, -0.08482906967401505, -0.157820925116539], [-0.14331170916557312, -0.04777759313583374, -0.16946077346801758]], [[0.16132867336273193, 0.037175264209508896, 0.007077903486788273], [-0.10683811455965042, 0.05378654971718788, -0.3071187734603882], [-0.09508805721998215, 0.016154829412698746, -0.15172192454338074]], [[0.17011134326457977, 0.16857099533081055, 0.18835152685642242], [0.06418763846158981, 0.09974761307239532, 0.050016842782497406], [0.0570688396692276, 0.14513540267944336, 0.1256512999534607]], [[0.022061344236135483, 0.029289420694112778, -0.01273861713707447], [-0.08143657445907593, 0.05018901824951172, -0.11058259010314941], [0.06807780265808105, -0.05076087266206741, -0.04641330987215042]], [[-0.014762584120035172, 0.07362718880176544, 0.040284253656864166], [-0.3879205286502838, -0.13505584001541138, -0.14968909323215485], [-0.12512874603271484, -0.006573154125362635, -0.14151298999786377]], [[-0.00687671871855855, -0.02298431657254696, 0.009144104085862637], [-0.1368711143732071, -0.12112390249967575, -0.06862831115722656], [-0.05576680973172188, 0.005374886095523834, -0.035814590752124786]], [[0.062424931675195694, 0.14400561153888702, 0.06939647346735], [-0.07673267275094986, 0.09007001668214798, -0.04845833033323288], [-0.028663337230682373, -0.10357427597045898, -0.022077228873968124]]], [[[0.09469244629144669, -0.0467229001224041, -0.11994265764951706], [0.1099887415766716, -0.04032185673713684, -0.058772794902324677], [-0.017913011834025383, 0.017085229977965355, -0.03341308981180191]], [[0.002921139355748892, -0.04358617961406708, -0.013941861689090729], [0.06777939945459366, 0.15608131885528564, 0.014269473031163216], [0.057585619390010834, -0.08946722000837326, 0.004814037121832371]], [[0.040655121207237244, 0.0942186713218689, 0.013144615106284618], [-0.006310370750725269, 0.137326180934906, 0.008575335144996643], [-0.053450245410203934, 0.10078930854797363, 0.03373149037361145]], [[-0.0897352322936058, -0.10782251507043839, -0.04318898543715477], [0.06748808920383453, 0.19454039633274078, 0.18608960509300232], [0.08707357197999954, 0.04628654196858406, 0.0020097289234399796]], [[-0.0026401844806969166, -0.053868141025304794, -0.005115875508636236], [5.898188646824565e-06, 0.05367445945739746, -0.1419975310564041], [0.02007584273815155, 0.07345006614923477, -2.1647343601216562e-05]], [[0.006598068866878748, -0.11488411575555801, -0.20329947769641876], [0.12477150559425354, -0.011570724658668041, -0.027809513732790947], [-0.0012484643375501037, -0.1250777393579483, 0.05709482729434967]], [[0.02780516818165779, -0.07251711189746857, -0.006172178778797388], [-0.18091325461864471, -0.24160414934158325, -0.13132768869400024], [-0.009249299764633179, -0.011897129006683826, -0.1672189086675644]], [[-0.07942412048578262, 0.12320619076490402, 0.17157495021820068], [0.12020416557788849, 0.13872887194156647, 0.1586899310350418], [0.03303471580147743, 0.009221736341714859, 0.013680923730134964]], [[-0.24675168097019196, -0.1359207183122635, -0.028016673400998116], [-0.04396858811378479, -0.10627634078264236, -0.11352870613336563], [0.06392856687307358, -0.05497170239686966, -0.15990859270095825]], [[0.09457742422819138, 0.20150969922542572, 0.18066318333148956], [-0.010272799991071224, -0.13745476305484772, -0.12818415462970734], [0.0003470153023954481, -0.07694395631551743, -0.22923995554447174]], [[-0.15451398491859436, -0.1626155525445938, -0.005038832779973745], [-0.027798263356089592, -0.06655105203390121, -0.16358062624931335], [0.14645744860172272, 0.14163647592067719, 0.03045569360256195]], [[0.11585134267807007, 0.038616497069597244, -0.0191667377948761], [0.10248132050037384, 0.12557730078697205, 0.029962878674268723], [0.02384180761873722, -0.08049523085355759, -0.08879075944423676]], [[0.15667282044887543, -0.019402340054512024, -0.1071338802576065], [0.16865645349025726, 0.07900508493185043, -0.016059109941124916], [-0.03179435431957245, 0.04870963469147682, 0.13594894111156464]], [[-0.07477942109107971, -0.023947549983859062, -0.11982696503400803], [-0.04767009988427162, -0.02073425054550171, -0.1653364598751068], [-0.051614031195640564, -0.057929858565330505, -0.059365272521972656]], [[-0.04925135150551796, 0.14787635207176208, -0.049056220799684525], [0.1346142441034317, 0.15504705905914307, 0.08369681239128113], [-0.01034303568303585, -0.03865082189440727, -0.013281350024044514]], [[0.03718012198805809, -0.042391303926706314, 0.13798657059669495], [0.12265626341104507, 0.04166462644934654, 0.09334629029035568], [-0.012853601947426796, -0.09321585297584534, -0.02445240132510662]]], [[[-0.15313009917736053, -0.12725405395030975, -0.09092938154935837], [-0.21234232187271118, -0.26236459612846375, -0.10914236307144165], [-0.14698591828346252, -0.21750754117965698, -0.10503104329109192]], [[-0.07002121955156326, -0.013873429037630558, -0.05504617840051651], [-0.06275054067373276, -0.04289986938238144, -0.025085926055908203], [0.02216779626905918, -0.03274178504943848, -0.0706871896982193]], [[0.055185165256261826, -0.15615202486515045, -0.42364099621772766], [0.22444486618041992, 0.1653933823108673, -0.05294773727655411], [0.17482852935791016, 0.28978919982910156, 0.30230647325515747]], [[0.1335284411907196, -0.11120961606502533, -0.07774278521537781], [0.023683538660407066, 0.16158674657344818, 0.08412517607212067], [0.015429013408720493, 0.0044445497915148735, 0.21196159720420837]], [[0.03532576933503151, -0.0468854121863842, -0.05330507829785347], [0.04697738587856293, 0.03390902653336525, 0.07930883765220642], [-0.024094967171549797, 0.07671869546175003, 0.02569645084440708]], [[-0.04020183905959129, 0.005848326720297337, -0.00448467256501317], [-0.05437248572707176, -0.26153770089149475, -0.09383399039506912], [-0.06928656995296478, -0.16682763397693634, -0.10953719168901443]], [[0.005769944284111261, 0.0838232934474945, 0.08338785916566849], [-0.0598299540579319, 0.0860414057970047, 0.09370115399360657], [-0.1094689816236496, -0.007608646526932716, 0.031102705746889114]], [[0.219926655292511, -0.017655102536082268, 0.08465167880058289], [0.12368001788854599, 0.280191570520401, 0.12525968253612518], [0.031248880550265312, 0.14580868184566498, 0.17969059944152832]], [[-0.027559002861380577, 0.04011920467019081, 0.006110867019742727], [0.027435895055532455, 0.04522549733519554, 0.08960136771202087], [0.016452990472316742, 0.010361815802752972, -0.0002673648705240339]], [[0.25092995166778564, 0.02371124178171158, -0.13214942812919617], [0.03796442970633507, 0.0710972249507904, -0.14496779441833496], [-0.011592073366045952, 0.08234255760908127, 0.13417404890060425]], [[-0.09898148477077484, -0.049501482397317886, -0.25364628434181213], [0.17978836596012115, 0.02635139413177967, -0.04492856562137604], [0.1081450805068016, 0.10301093757152557, 0.07419773936271667]], [[0.0650571882724762, -0.059807002544403076, -0.01961124688386917], [0.14828844368457794, -0.09523672610521317, -0.0003450607764534652], [0.03033634088933468, 0.12355519831180573, 0.00018430234922561795]], [[-0.06596282124519348, 0.02251083217561245, -0.007266276981681585], [-0.07540454715490341, 0.12275782227516174, -0.02230127714574337], [-0.1732466071844101, 0.09169341623783112, 0.1141248419880867]], [[-0.16619427502155304, -0.30049505829811096, -0.2861751914024353], [-0.028103774413466454, -0.18984849750995636, 0.0049920096062123775], [-0.1506378948688507, -0.14748957753181458, -0.11526045203208923]], [[-0.15705446898937225, -0.3889857828617096, -0.33560729026794434], [-0.19366459548473358, -0.248810812830925, -0.04134669154882431], [-0.12282123416662216, -0.15604007244110107, 0.0020124074071645737]], [[0.02766839973628521, -0.10914711654186249, 0.039112359285354614], [0.17914575338363647, 0.012783017940819263, 0.0008669762755744159], [-0.09692881256341934, 0.023308759555220604, 0.11280407756567001]]], [[[0.07721874117851257, -0.14088253676891327, -0.04478701204061508], [0.022997969761490822, -0.08365855365991592, 0.03350656479597092], [0.015198230743408203, -0.16052131354808807, 0.05276506394147873]], [[-0.02305385284125805, 0.28450626134872437, -0.1475677490234375], [-0.014004982076585293, 0.3463870584964752, 0.03913406282663345], [-0.010124924592673779, 0.38756558299064636, 0.020480100065469742]], [[-0.16219232976436615, -0.10277490317821503, -0.04948887228965759], [-0.11454319953918457, -0.015494481660425663, -0.05181438848376274], [-0.20205940306186676, -0.01279692817479372, 0.001858869451098144]], [[0.01739133894443512, -0.03586294874548912, -0.007805982138961554], [-0.010324360802769661, -0.13953936100006104, 0.08969839662313461], [0.0886477530002594, -0.07109369337558746, -0.05296957120299339]], [[-0.05454911291599274, -0.009224562905728817, -0.02777879312634468], [-0.1532607078552246, 0.12689268589019775, 0.0346590131521225], [-0.1032935157418251, 0.08189211040735245, -0.023455429822206497]], [[-0.056773118674755096, 0.036039263010025024, -0.08108961582183838], [-0.029674937948584557, -0.005187068600207567, 0.033125199377536774], [-0.02372143231332302, -0.033591143786907196, -0.06466972827911377]], [[-0.06966210901737213, 0.03353385627269745, -0.12041639536619186], [-0.030304420739412308, 0.2754664421081543, 0.031324513256549835], [-0.0648629292845726, 0.2933213412761688, 0.04304521158337593]], [[-0.004731358960270882, 0.08792634308338165, 0.12251558154821396], [0.045049022883176804, 0.12013432383537292, 0.2648274302482605], [-0.025764623656868935, -0.030334439128637314, 0.15313918888568878]], [[0.012264003977179527, 0.1573718935251236, 0.041930701583623886], [-0.06868108361959457, 0.026644166558980942, -0.014747926965355873], [0.058167289942502975, -0.059254955500364304, 0.05804859474301338]], [[0.06547848880290985, 0.06573440879583359, -0.021126464009284973], [0.04733175411820412, -0.08634249120950699, -0.029066365212202072], [0.1506650149822235, 0.11010953783988953, -0.09031111001968384]], [[-0.02476940117776394, -0.1814347803592682, 0.11103072017431259], [-0.0069995056837797165, -0.057628098875284195, 0.03370189666748047], [-0.1965264230966568, -0.09147864580154419, -0.09434739500284195]], [[0.06613526493310928, -0.010763402096927166, -0.22964562475681305], [0.04038699343800545, -0.1230025365948677, -0.21940627694129944], [0.04687526449561119, -0.07116619497537613, -0.15828606486320496]], [[-0.06498835980892181, 0.03901486471295357, -0.0596667155623436], [-0.14106084406375885, 0.09486717730760574, -0.14790748059749603], [-0.22281797230243683, 0.09258966892957687, -0.18518345057964325]], [[-0.03187127038836479, 0.02797570824623108, 0.10176187753677368], [0.0011154413223266602, 0.05045830458402634, -0.0439116470515728], [0.010466485284268856, -0.015242603607475758, -0.10563383996486664]], [[-0.016506554558873177, 0.0675172358751297, 0.07263665646314621], [-0.12190763652324677, 0.011731057427823544, 0.028820285573601723], [-0.08413379639387131, -0.006444858852773905, -0.033561237156391144]], [[0.1032804548740387, 0.03005046397447586, -0.024025704711675644], [0.1277082860469818, -0.1823136806488037, -0.0851152092218399], [0.013868757523596287, -0.0548258014023304, -0.07936060428619385]]], [[[0.20404139161109924, 0.05052653327584267, 0.003650080179795623], [0.11275018006563187, -0.036469507962465286, 0.12679629027843475], [0.06042684614658356, 0.0023734592832624912, 0.11972604691982269]], [[0.08241485804319382, 0.09222330152988434, -0.10044131428003311], [0.12532833218574524, 0.03425964340567589, -0.10624542832374573], [0.15577438473701477, -0.03616499900817871, -0.2833717465400696]], [[-0.12019134312868118, -0.14905887842178345, -0.15925879776477814], [-0.12248566746711731, -0.23036733269691467, -0.1872117519378662], [0.028884774073958397, -0.1569596230983734, -0.07754842936992645]], [[0.009460664354264736, -0.13740302622318268, 0.01763414964079857], [-0.01135195977985859, -0.1039455458521843, 0.09369555115699768], [-0.0224966648966074, -0.002194102620705962, 0.12655611336231232]], [[0.06339026242494583, -0.09259579330682755, -0.05865814909338951], [0.03007848560810089, -0.03928660601377487, -0.19326932728290558], [0.07266845554113388, -0.03172004222869873, -0.19188115000724792]], [[-0.04691242426633835, -0.012424579821527004, 0.040637630969285965], [0.06966663151979446, 0.009365341626107693, 0.014464249834418297], [0.13964344561100006, -0.02500094659626484, -0.05643697828054428]], [[0.08358068019151688, 0.057604625821113586, 0.047724563628435135], [0.16687317192554474, 0.06660515069961548, -0.0002328832051716745], [0.12044453620910645, 0.06395367532968521, -0.11550933867692947]], [[-0.006185603328049183, 0.10689562559127808, 0.133764386177063], [-0.02764132432639599, 0.02372257597744465, 0.1298811435699463], [0.0670178011059761, 0.04388201981782913, -0.044029600918293]], [[-0.037685327231884, 0.03727385029196739, 0.15498250722885132], [-0.13116252422332764, 0.017725618556141853, 0.04328953102231026], [0.08645527064800262, 0.10208847373723984, 0.12651246786117554]], [[0.0026852963492274284, 0.011731726117432117, 0.12128425389528275], [-0.04947993531823158, -0.12099573016166687, 0.0635058581829071], [0.0869331881403923, -0.009226326830685139, 0.06154397130012512]], [[-0.18279123306274414, -0.336144357919693, -0.17327354848384857], [-0.16411937773227692, -0.435340940952301, -0.13084635138511658], [-0.19055643677711487, -0.14499540627002716, -0.09745824337005615]], [[0.13348039984703064, -0.11847375333309174, 0.04542436823248863], [0.00938238762319088, -0.17150923609733582, 0.08314193040132523], [0.030742617323994637, -0.0814494639635086, 0.20410901308059692]], [[0.1185319572687149, 0.010799165815114975, -0.07730106264352798], [0.22361718118190765, 0.014033351093530655, -0.13894791901111603], [0.18044771254062653, 0.009363663382828236, -0.23944897949695587]], [[0.03570038825273514, 0.003409311408177018, 0.057510074228048325], [0.008212978020310402, -0.10549432784318924, 0.0560455396771431], [-0.012409146875143051, -0.009510278701782227, -0.0579080805182457]], [[0.11541947722434998, -0.25026455521583557, -0.08820176124572754], [-0.07946702092885971, -0.18622277677059174, -0.029181065037846565], [-0.022271014750003815, 0.03496851772069931, 0.12691207230091095]], [[0.14566358923912048, -0.006597498897463083, 0.00520007498562336], [-0.1297147125005722, -0.15565939247608185, -0.018396148458123207], [0.07378756254911423, 0.02533019706606865, 0.0932580754160881]]], [[[-0.0026418070774525404, 0.010928668081760406, -0.050044942647218704], [-0.026221398264169693, -0.06932331621646881, -0.01770893670618534], [0.09387677162885666, -0.02303781732916832, -0.05954468622803688]], [[0.011919967830181122, 0.04280795529484749, 0.07729661464691162], [0.018725384026765823, 0.016277678310871124, 0.03170553594827652], [-0.09229300916194916, -0.04433808848261833, -0.021428851410746574]], [[0.06665138900279999, 0.057016145437955856, 0.13008134067058563], [-0.10547137260437012, -0.1739010512828827, -0.03548157960176468], [-0.4474334120750427, -0.6656358242034912, -0.33531588315963745]], [[0.22479620575904846, 0.1416371762752533, 0.07587314397096634], [-0.2327636331319809, -0.011795955710113049, -0.027741389349102974], [-0.18567483127117157, -0.039591629058122635, 0.013445237651467323]], [[0.019825439900159836, 0.015343495644629002, 0.035766784101724625], [0.01389732863754034, 0.039616357535123825, 0.11418896168470383], [0.011802108027040958, -0.03907052427530289, 0.0867174044251442]], [[-0.03910846263170242, -0.00877130962908268, -0.05642402172088623], [0.0286718662828207, 0.046358708292245865, -0.0370372049510479], [-0.03816303610801697, -0.1643705815076828, -0.12642721831798553]], [[-0.17363852262496948, -0.14074315130710602, -0.0754595696926117], [0.157391756772995, 0.17679031193256378, 0.17411763966083527], [0.2504649758338928, 0.13006459176540375, 0.20298759639263153]], [[0.029032878577709198, 0.07015392184257507, 0.030656887218356133], [0.10881679505109787, 0.0606110580265522, 0.06882575899362564], [0.054647207260131836, 0.08808042109012604, -0.015058565884828568]], [[0.04203218221664429, 0.09555613994598389, 0.06373089551925659], [-0.09609300643205643, 0.02469572052359581, -0.04710756987333298], [0.036382585763931274, -0.03345613181591034, -0.1158367395401001]], [[0.08372855186462402, -0.021182628348469734, -0.01318892277777195], [-0.33316272497177124, -0.3681730031967163, -0.2529928386211395], [-0.20929895341396332, -0.1592855453491211, -0.06891025602817535]], [[0.0004922181251458824, -0.022572683170437813, 0.07818731665611267], [0.024028312414884567, 0.08452301472425461, 0.09952272474765778], [0.03588631749153137, -0.1304534375667572, 0.13967902958393097]], [[-0.002422743709757924, 0.08858076483011246, 0.1429075300693512], [0.041253697127103806, 0.03866710513830185, 0.16805998980998993], [0.05122987553477287, 0.08492637425661087, 0.244160458445549]], [[-0.03269841894507408, -0.004073536489158869, 0.03114643134176731], [0.07132080942392349, -0.028115414083003998, 0.09331243485212326], [-0.04922908917069435, -0.06103834509849548, -0.07730702310800552]], [[-0.006645417772233486, -0.03924599289894104, 0.03140130639076233], [-0.15853068232536316, -0.06630198657512665, -0.05980348959565163], [-0.025504015386104584, -0.04746846482157707, -0.10238010436296463]], [[0.19917351007461548, 0.11791544407606125, 0.12038415670394897], [-0.13899454474449158, -0.23312583565711975, -0.18434523046016693], [-0.23445004224777222, -0.33547914028167725, -0.12619516253471375]], [[0.11055465787649155, 0.07985170185565948, 0.199514701962471], [-0.0956752598285675, 0.04743560403585434, -0.02351212315261364], [-0.052223626524209976, 0.012960953637957573, -0.07586433738470078]]], [[[-0.05186779797077179, -0.0008286127122119069, 0.07306672632694244], [-0.012802520766854286, 0.016762951388955116, -0.07528523355722427], [-0.007372468244284391, -0.12194257229566574, -0.027826223522424698]], [[0.10547810792922974, 0.1885046511888504, 0.05452687293291092], [-0.09867767244577408, -0.136013001203537, -0.09764134883880615], [-0.03270183876156807, -0.02806955575942993, -0.08831150084733963]], [[-0.01588643342256546, 0.07837662845849991, 0.13089989125728607], [-0.1304764747619629, -0.059519097208976746, -0.13332319259643555], [-0.11788799613714218, -0.1629725694656372, -0.19959276914596558]], [[-0.10963734239339828, -0.12023850530385971, -0.08898677676916122], [0.0696973130106926, -0.12921513617038727, -0.10282517969608307], [0.11267374455928802, 0.07770347595214844, 0.13374090194702148]], [[0.01815684139728546, 0.11434635519981384, 0.20869766175746918], [0.06479030847549438, 0.0425119586288929, 0.17617136240005493], [-0.24051211774349213, -0.3000238239765167, -0.28329816460609436]], [[-0.01572498306632042, 0.1769990772008896, 0.11049139499664307], [-0.07841508090496063, -0.039503324776887894, -0.03132211044430733], [-0.12295770645141602, -0.10878917574882507, -0.1163187175989151]], [[-0.044724080711603165, -0.04098229482769966, 0.03442540019750595], [-0.12937556207180023, -0.048479415476322174, -0.08715934306383133], [0.07206258177757263, 0.06561696529388428, 0.17939616739749908]], [[0.00912733469158411, -0.2145596295595169, 0.1302700936794281], [0.2013193815946579, -0.11544433236122131, -0.14251965284347534], [0.1439538300037384, 0.1071462333202362, 0.07684770226478577]], [[0.05478719621896744, -0.054504599422216415, 0.060794517397880554], [0.17792944610118866, 0.03563758358359337, -0.09597474336624146], [0.28528663516044617, 0.22991877794265747, 0.35443273186683655]], [[0.16020417213439941, 0.14259767532348633, -0.004114160314202309], [-0.0551753006875515, 0.014762799255549908, -0.03577805683016777], [-0.005813776981085539, -0.09200794994831085, -0.02108622156083584]], [[-0.2321939915418625, 0.023465001955628395, 0.08427891880273819], [0.05482114106416702, 0.1666845679283142, 0.10826903581619263], [-0.05958893150091171, 0.012781093828380108, 0.019338959828019142]], [[0.06958623230457306, 0.10652758926153183, 0.08195282518863678], [0.016425643116235733, 0.04750850796699524, 0.1512967348098755], [0.017818450927734375, -0.14334264397621155, -0.025474516674876213]], [[0.07095597684383392, 0.1037580668926239, 0.09610328823328018], [-0.094981849193573, -0.09294595569372177, -0.010122211650013924], [-0.23534949123859406, -0.3029525578022003, -0.035203393548727036]], [[-0.010166645050048828, 0.17964144051074982, 0.04191994294524193], [-0.061948422342538834, -0.15533216297626495, -0.2911953926086426], [-0.03286958113312721, -0.16443951427936554, -0.03748225048184395]], [[-0.026734700426459312, -0.036398667842149734, -0.11834292113780975], [-0.13658130168914795, -0.5440700650215149, -0.4107076823711395], [0.20831327140331268, 0.16328071057796478, 0.17751848697662354]], [[0.04293634369969368, -0.15632513165473938, 0.009924446232616901], [0.052203867584466934, -0.09576717764139175, 0.1653774529695511], [0.14821140468120575, 0.038240496069192886, 0.1673801988363266]]], [[[0.05981223285198212, 0.17013882100582123, 0.04011309891939163], [0.06983843445777893, 0.08159255981445312, -0.11998825520277023], [0.040375854820013046, 0.03847096487879753, -0.14527660608291626]], [[0.02418043650686741, 0.08115517348051071, 0.07184834778308868], [-0.06725539267063141, 0.05935867503285408, 0.08541451394557953], [-0.012710188515484333, 0.004936573561280966, -0.04421841725707054]], [[-0.08813463896512985, 0.031220223754644394, 0.11966016888618469], [-0.02735816314816475, 0.10666006803512573, 0.1385485678911209], [-0.04845711216330528, 0.04618673026561737, 0.06718635559082031]], [[0.054741065949201584, -0.0829327404499054, 0.002805913332849741], [0.10554852336645126, 0.04339666664600372, -0.003594060428440571], [0.16961637139320374, 0.07882145047187805, 0.12706004083156586]], [[0.034519780427217484, -0.009304743260145187, 0.0033840807154774666], [0.012086399830877781, 0.024734752252697945, 0.07382149994373322], [-0.14513298869132996, -0.04059850051999092, 0.015256114304065704]], [[-0.14604240655899048, 0.003143212990835309, -0.0723363608121872], [-0.14360500872135162, -0.1909041404724121, -0.23680125176906586], [-0.021820778027176857, -0.11593399941921234, -0.12294129282236099]], [[-0.040737610310316086, -0.031868577003479004, -0.06792961806058884], [-0.11075529456138611, -0.05753650516271591, -0.11829930543899536], [-0.13883565366268158, -0.08304784446954727, 0.04931217432022095]], [[0.02858993411064148, 0.005959755275398493, 0.19083036482334137], [0.010447493754327297, 0.19175709784030914, 0.13614101707935333], [0.080985888838768, 0.12888695299625397, -0.03009627014398575]], [[-0.0969928726553917, -0.04058331251144409, 0.0934496745467186], [-0.15583844482898712, 0.01737825758755207, 0.06318986415863037], [0.025143107399344444, 0.07651534676551819, 0.14094972610473633]], [[-0.0036908802576363087, 0.006080141756683588, 0.12288743257522583], [-0.18742190301418304, -0.016556404531002045, 0.09771943837404251], [-0.25532346963882446, -0.11847029626369476, 0.028913402929902077]], [[-0.17246097326278687, -0.17880889773368835, 0.002508544595912099], [-0.2227446287870407, -0.2221982479095459, 0.017176004126667976], [-0.023921309038996696, -0.10756239295005798, 0.11355259269475937]], [[-0.0069874986074864864, 0.15498767793178558, -0.004784181248396635], [0.0774087905883789, 0.06484948098659515, -0.07575224339962006], [-0.026122527197003365, 0.1632847785949707, -0.08167077600955963]], [[-0.06705767661333084, -0.0213144663721323, 0.06168390437960625], [-0.19269485771656036, -0.10525751113891602, -0.07479598373174667], [-0.10125228762626648, -0.16007071733474731, -0.10459128022193909]], [[0.005167290102690458, -0.04249128699302673, -0.12128696590662003], [0.014700460247695446, -0.15774571895599365, -0.05279412865638733], [-0.03906819969415665, -0.17722870409488678, -0.0320655032992363]], [[-0.10148844122886658, -0.00959890615195036, 0.014349371194839478], [0.15642789006233215, 0.04381203651428223, -0.049134206026792526], [0.16297142207622528, 0.1066436693072319, -0.018320327624678612]], [[0.061860427260398865, 0.1288740485906601, 0.0839390829205513], [0.1345885843038559, 0.16781377792358398, 0.1698409616947174], [0.08531862497329712, 0.2364467978477478, 0.07911745458841324]]], [[[0.13226376473903656, 0.22521057724952698, 0.0381290502846241], [0.1611902117729187, 0.09583339840173721, -0.022174427285790443], [0.1534556746482849, 0.19186446070671082, 0.05004214495420456]], [[-0.1758149266242981, -0.1058383509516716, -0.05056656152009964], [-0.19977116584777832, -0.061678484082221985, -0.08821853250265121], [-0.11849060654640198, -0.082264743745327, 0.004555955063551664]], [[-0.028369102627038956, -0.089382603764534, -0.04743998125195503], [-0.11033112555742264, -0.04221010208129883, 0.018363600596785545], [-0.0904325321316719, -0.021392108872532845, -0.03233637660741806]], [[0.0594075471162796, 0.03806936368346214, 0.1232852041721344], [-0.008013611659407616, -0.1945658028125763, -0.20172002911567688], [-0.05921052023768425, -0.09726142883300781, -0.3066267669200897]], [[0.11758086830377579, 0.05563148483633995, -0.1259177029132843], [0.008360815234482288, 0.12372001260519028, 0.007600713521242142], [-0.07325751334428787, -0.029663966968655586, -0.03718067333102226]], [[0.04586799815297127, -0.01586431823670864, 0.030620722100138664], [-0.06009705364704132, 0.0008068204042501748, 0.050819482654333115], [-0.12333603203296661, -0.08654467761516571, -0.09097327291965485]], [[0.012965681031346321, -0.10363329201936722, -0.21691158413887024], [0.20192135870456696, 0.09283170104026794, -0.08945818245410919], [0.07341428846120834, 0.14254198968410492, 0.06905665993690491]], [[-0.004571585450321436, 0.125108003616333, -0.049974068999290466], [-0.010799654759466648, -0.09789575636386871, -0.09555713087320328], [0.07038317620754242, 0.0719684362411499, -0.007993638515472412]], [[0.01462095882743597, 0.0945705994963646, 0.212652325630188], [-0.017584508284926414, 0.04449902102351189, 0.20759864151477814], [-0.006477457005530596, -0.07577843964099884, 0.09044249355792999]], [[-0.002602058695629239, -0.01192784309387207, -0.038893334567546844], [0.02658255770802498, 0.12068576365709305, -0.017849689349532127], [0.056901559233665466, 0.02669774927198887, 0.0882328674197197]], [[-0.0006360014667734504, -0.05271386727690697, 0.018680812790989876], [-0.10676988214254379, 0.1023586243391037, 0.18836426734924316], [-0.02613143064081669, -0.12950016558170319, -0.05177447572350502]], [[0.09370691329240799, -0.008960798382759094, 0.025521667674183846], [0.04062006250023842, 0.09847397357225418, -0.1310936063528061], [0.09612277150154114, 0.09859814494848251, -0.026026155799627304]], [[0.008717656135559082, 0.15468277037143707, 0.07914101332426071], [0.09859293699264526, 0.026006409898400307, 0.09864448755979538], [0.1438288688659668, 0.024153953418135643, 0.24772725999355316]], [[-0.16826443374156952, -0.12725532054901123, 0.06517357379198074], [-0.248857319355011, -0.15472102165222168, -0.07642820477485657], [-0.2368004322052002, -0.08780819922685623, -0.049483999609947205]], [[-0.20553229749202728, -0.10316964983940125, 0.07493500411510468], [-0.07143283635377884, -0.2545330822467804, -0.05427052453160286], [-0.05692640319466591, -0.0467318519949913, -0.013792993500828743]], [[0.27549442648887634, 0.28962135314941406, -0.04673128202557564], [-0.002070691902190447, 0.17356616258621216, 0.0813697874546051], [0.028458155691623688, -0.12362588196992874, -0.12416418641805649]]], [[[-0.05692145600914955, -0.08190752565860748, -0.10232416540384293], [-0.049751684069633484, -0.0680442750453949, -0.06134985759854317], [0.042271751910448074, 0.04761158302426338, -0.0029245561454445124]], [[0.09221912175416946, 0.09164626151323318, -0.0006003369344398379], [0.025480331853032112, 0.10337411612272263, -0.04651634022593498], [-0.03558686375617981, -0.033395085483789444, 0.0216363538056612]], [[0.08250702172517776, -0.014265395700931549, 0.01709975302219391], [-0.008755823597311974, 0.1109502837061882, 0.12003295868635178], [-0.019392548128962517, -0.0061211916618049145, -0.08294980227947235]], [[0.07296466082334518, -0.04200895503163338, 0.060669392347335815], [-0.12548822164535522, -0.35207828879356384, -0.08175253123044968], [0.07596536725759506, 0.037506040185689926, -0.08653251826763153]], [[-0.14837640523910522, -0.18209929764270782, 0.003067850600928068], [0.06511780619621277, 0.022600984200835228, 0.11404376477003098], [0.11338968575000763, 0.18880394101142883, 0.07930529117584229]], [[0.011586641892790794, -0.032501086592674255, -0.018774645403027534], [-0.09565025568008423, -0.12375754863023758, -0.054865073412656784], [-0.05665525048971176, -0.08218639343976974, -0.1761699616909027]], [[-0.15410834550857544, -0.2953658699989319, -0.11920473724603653], [-0.009403932839632034, -0.10523393005132675, -0.08760952949523926], [0.12090262025594711, 0.024875732138752937, 0.04732576012611389]], [[-0.018095701932907104, -0.20659154653549194, -0.11007755249738693], [-0.14226751029491425, -0.14129306375980377, -0.18379899859428406], [0.09632721543312073, 0.22193259000778198, 0.08897466957569122]], [[0.2557072639465332, 0.09340592473745346, -0.05316799134016037], [0.19303664565086365, 0.060035765171051025, 7.306161569431424e-05], [0.030385442078113556, 0.12737205624580383, 0.12846840918064117]], [[-0.07278217375278473, -0.12499389052391052, 0.03564900532364845], [0.00754073029384017, 0.056487370282411575, 0.025347180664539337], [0.302008718252182, 0.23126795887947083, 0.1150367334485054]], [[-0.09896709024906158, 0.030204303562641144, 0.08947296440601349], [0.13592955470085144, 0.15834560990333557, 0.15231148898601532], [0.09102106094360352, 0.033066049218177795, 0.08513236790895462]], [[-0.023164693266153336, -0.1708952784538269, -0.12657058238983154], [-0.08449351042509079, -0.17895978689193726, -0.11456885188817978], [0.20272807776927948, 0.05005893483757973, -0.08593138307332993]], [[0.07666335999965668, 0.03069518320262432, 0.020029207691550255], [-0.06995416432619095, -0.09464442729949951, -0.03713473305106163], [-0.12936724722385406, -0.22130458056926727, -0.046314314007759094]], [[0.00012868791236542165, 0.020062098279595375, 0.11248009651899338], [0.08743079006671906, 0.10445857048034668, 0.023247305303812027], [-0.02201641909778118, -0.06977595388889313, -0.2160673439502716]], [[-0.04050422087311745, -0.003516731085255742, 0.23614804446697235], [0.006319595966488123, -0.18510396778583527, -0.13135820627212524], [0.04584469273686409, -0.033752985298633575, -0.1254669576883316]], [[0.021306924521923065, -0.16957882046699524, -0.18762825429439545], [-0.06787348538637161, 0.00880711991339922, 0.020935026928782463], [0.17480018734931946, 0.2590162456035614, 0.031206415966153145]]], [[[0.14136618375778198, 0.1367933601140976, -0.13877592980861664], [0.13935764133930206, 0.15931937098503113, 0.060426510870456696], [0.03882305324077606, 0.09636041522026062, 0.018521195277571678]], [[-0.1522248089313507, -0.10357287526130676, 0.1444382667541504], [-0.014728526584804058, -0.20054574310779572, 0.025292756035923958], [0.11434642225503922, -0.015450983308255672, 0.06519261747598648]], [[0.17665797472000122, 0.12777790427207947, 0.03618912026286125], [0.06110239401459694, 0.22534017264842987, 0.14899912476539612], [0.102644182741642, 0.12899905443191528, 0.061523519456386566]], [[-0.054349806159734726, -0.03734421730041504, -0.0847225934267044], [-0.18640239536762238, -0.027603885158896446, 0.047787487506866455], [-0.21445311605930328, -0.25404447317123413, -0.05942973867058754]], [[-0.09398085623979568, -0.05018645524978638, 0.03713681548833847], [-0.16811633110046387, -0.04578574001789093, -0.027173109352588654], [-0.1072506532073021, -0.043242018669843674, -0.08156648278236389]], [[-0.13935473561286926, -0.03557903692126274, -0.1056070402264595], [0.033944468945264816, 0.07622739672660828, 0.10081052035093307], [0.07032979279756546, 0.20031659305095673, 0.09477812051773071]], [[-0.05666903033852577, -0.0432618111371994, 0.06881026178598404], [-0.16730505228042603, -0.22453652322292328, -0.16131819784641266], [-0.2327372431755066, -0.29583296179771423, -0.3358757793903351]], [[-0.11780240386724472, 0.03053310513496399, 0.11123736947774887], [-0.14621320366859436, -0.22214354574680328, -0.18326999247074127], [-0.1831839680671692, -0.2197248935699463, -0.2382548302412033]], [[-0.13732199370861053, 0.09952003508806229, 0.248765230178833], [-0.177896648645401, -0.09990294277667999, 0.05413728207349777], [0.0004602433764375746, 0.19378991425037384, 0.1956930160522461]], [[-0.044153232127428055, 0.06977914273738861, -0.04877496510744095], [0.06282071769237518, -0.0398886613547802, 0.03221701830625534], [-0.07827801257371902, -0.03415830060839653, -0.14630024135112762]], [[-0.2306840568780899, -0.027856701985001564, -0.10595666617155075], [-0.1799136996269226, -0.11852476745843887, -0.12470709532499313], [-0.16587984561920166, -0.11042097210884094, -0.08923444896936417]], [[-0.03685745969414711, 0.014212943613529205, 0.004990068264305592], [0.059683386236429214, 0.12036572396755219, 0.09140553325414658], [0.07123040407896042, 0.0594620406627655, 0.08647917211055756]], [[0.07836147397756577, 0.015070530585944653, 0.02637019008398056], [0.056318532675504684, 0.004311215132474899, 0.07353437691926956], [0.010481009259819984, 0.008647693321108818, 0.19959381222724915]], [[-0.03777294233441353, 0.13229328393936157, 0.1090083196759224], [-0.15272405743598938, -0.03823259472846985, 0.045126091688871384], [-0.19615305960178375, -0.04723934456706047, -0.03319419175386429]], [[0.07348790764808655, -0.00018104538321495056, -0.027082687243819237], [-0.07783644646406174, -0.06630545109510422, -0.08687519282102585], [-0.2157650589942932, -0.046114031225442886, -0.002763930941000581]], [[-0.1649589091539383, -0.06918049603700638, -0.1456190049648285], [0.01818377897143364, 0.22018621861934662, 0.08831481635570526], [0.03482869639992714, 0.15113385021686554, -0.030445441603660583]]], [[[-0.13348011672496796, -0.06469554454088211, 0.04228061065077782], [-0.039404354989528656, -0.05896339565515518, 0.16638323664665222], [-0.023388106375932693, 0.09106985479593277, 0.15092049539089203]], [[0.08263865113258362, 0.06393896043300629, -0.0043081725016236305], [-0.018143288791179657, 0.06945812702178955, 0.09475160390138626], [-0.020892657339572906, -0.03422224894165993, -0.05947592854499817]], [[-0.01852567121386528, 0.03559200093150139, -0.24002878367900848], [0.04972286522388458, 0.06383764743804932, -0.11098086833953857], [0.0182790569961071, -0.04063393175601959, -0.0020934792701154947]], [[-0.05575680732727051, 0.0014613143866881728, 0.022292908281087875], [0.11708232015371323, 0.23197801411151886, 0.02110249549150467], [0.010373909026384354, 0.04651454836130142, 0.15685905516147614]], [[-0.1788945347070694, 0.02032368816435337, 0.0035740660969167948], [-0.2761676609516144, -0.007063423283398151, 0.17756453156471252], [-0.06628286093473434, -0.10578391700983047, 0.12336865812540054]], [[0.10630863159894943, 0.06635189801454544, 0.005675710737705231], [0.03892555832862854, -0.013662369921803474, 0.032966721802949905], [-0.04333808645606041, -0.08503005653619766, -0.05083578824996948]], [[-0.0948726162314415, 0.08522385358810425, 0.08798574656248093], [-0.2657491862773895, 0.1350819617509842, 0.3084455132484436], [-0.28600451350212097, -0.0630718544125557, 0.26484471559524536]], [[-0.2885926365852356, -0.28447026014328003, 0.1581232100725174], [-0.04270179569721222, -0.08391972631216049, 0.021278876811265945], [-0.08627502620220184, -0.029785966500639915, -0.02588684856891632]], [[0.286075234413147, -0.0769740641117096, -0.13501028716564178], [0.24759002029895782, -0.08723019063472748, -0.30983737111091614], [0.0688081905245781, -0.05548843741416931, -0.15348729491233826]], [[0.08047278970479965, 0.04059816524386406, 0.0305634755641222], [-0.053107865154743195, 0.17457953095436096, 0.12738944590091705], [-0.09852921217679977, -0.07344396412372589, 0.09937862306833267]], [[0.061950165778398514, 0.06696009635925293, -0.14556650817394257], [0.04640617594122887, 0.06052111089229584, -0.05994276702404022], [0.08820029348134995, -0.019169211387634277, -0.25405892729759216]], [[0.0010941523360088468, -0.027658386155962944, -0.07809489965438843], [-0.042212873697280884, -0.10279761254787445, 0.054580528289079666], [0.002518982859328389, -0.05214466154575348, 0.12047236412763596]], [[-0.1169990673661232, -0.01012034248560667, 0.05599914491176605], [-0.12032613903284073, -0.04333655908703804, 0.10435505956411362], [-0.0042925807647407055, -0.050697408616542816, -0.0259550828486681]], [[-0.01274180132895708, -0.04618274047970772, -0.03129757568240166], [0.17544738948345184, -0.1244737058877945, -0.34763476252555847], [0.08633700758218765, -0.027476008981466293, -0.1999536156654358]], [[0.17619095742702484, 0.10071296989917755, -0.10659602284431458], [0.19800645112991333, -0.08494257926940918, -0.3353114426136017], [0.16271784901618958, 0.04187413305044174, -0.2458076775074005]], [[-0.10177502781152725, 0.08092620968818665, -0.015262724831700325], [-0.11867417395114899, -0.29009658098220825, 0.09390473365783691], [-0.050110891461372375, -0.11718420684337616, -0.07405760884284973]]], [[[0.008421196602284908, 0.026934316381812096, -0.102413110435009], [0.016475802287459373, -0.07148123532533646, -0.13663633167743683], [-0.109774149954319, -0.1796388179063797, -0.21220733225345612]], [[0.01762511394917965, -0.009605906903743744, 0.06347830593585968], [-0.058228760957717896, 0.12654311954975128, 0.008351095020771027], [-0.18719765543937683, -0.05747675150632858, -0.04969923570752144]], [[0.05168919637799263, 0.07494223117828369, 0.10690722614526749], [0.11285010725259781, 0.28130847215652466, 0.11350371688604355], [-0.09978728741407394, 0.03536339849233627, 0.07941711694002151]], [[-0.1111849695444107, -0.21270889043807983, -0.15762075781822205], [-0.038398243486881256, -0.14827275276184082, -0.14515607059001923], [0.18013831973075867, 0.22973395884037018, 0.23835326731204987]], [[0.1165345311164856, 0.19812706112861633, 0.06923729926347733], [0.059211768209934235, 0.06743635982275009, -0.01373976282775402], [-0.05358237400650978, -0.17906387150287628, -0.058950167149305344]], [[-0.0902630016207695, 0.004588683135807514, 0.061445362865924835], [-0.0696214884519577, -0.035893749445676804, -0.14576424658298492], [-0.07824656367301941, -0.2548810839653015, -0.2514660656452179]], [[-0.13389849662780762, 0.025425143539905548, -0.13018330931663513], [-0.14738862216472626, -0.12973655760288239, -0.10503379255533218], [-0.21262100338935852, -0.3539313077926636, -0.2923908829689026]], [[-0.15249457955360413, -0.17254072427749634, -0.0984770655632019], [0.04286038130521774, -0.07876039296388626, -0.01573035679757595], [-0.01874660886824131, 0.05739068239927292, 0.016473695635795593]], [[0.05360688269138336, -0.10330495238304138, -0.14369843900203705], [0.0028813176322728395, -0.00989654939621687, -0.08096572011709213], [0.15576402842998505, 0.2141185700893402, 0.09763438999652863]], [[0.010202881880104542, 0.12283583730459213, 0.09267617762088776], [0.18670424818992615, 0.20265434682369232, 0.15830063819885254], [-0.09406328201293945, -0.012586234137415886, 0.09581230580806732]], [[0.05846816301345825, 0.03838969022035599, 0.09374392777681351], [-0.039007604122161865, 0.02670891396701336, 0.049203433096408844], [-0.12195385992527008, -0.23381128907203674, -0.027454610913991928]], [[-0.29602405428886414, -0.2125396728515625, -0.2466907650232315], [-0.10974375158548355, -0.026482868939638138, -0.046666793525218964], [0.0002907216257881373, -0.06957724690437317, -0.04647316411137581]], [[-0.13755781948566437, 0.039137791842222214, -0.008966599591076374], [-0.08264435082674026, -0.0051826476119458675, -0.05863644555211067], [0.021513359621167183, -0.010928804986178875, -0.07721291482448578]], [[0.01258923951536417, -0.02727574110031128, -0.031822044402360916], [-0.04229002818465233, -0.15667201578617096, -0.01711399294435978], [-0.03161798045039177, 0.01761448010802269, -0.06784345954656601]], [[0.018129941076040268, 0.023534655570983887, 0.08120445162057877], [0.03772285580635071, -0.0004406808875501156, 0.04536666348576546], [-0.07495484501123428, 0.14004507660865784, 0.19241929054260254]], [[-0.04442841187119484, 0.00946019310504198, -0.014411050826311111], [0.11103836447000504, 0.16467292606830597, 0.18593963980674744], [-0.018465394154191017, -0.042560309171676636, -0.11189210414886475]]], [[[-0.0021529237274080515, -0.019656874239444733, -0.1566755175590515], [-0.1574568748474121, -0.25615543127059937, -0.09633024781942368], [0.14694949984550476, 0.023147013038396835, 0.1599298119544983]], [[-0.049017272889614105, 0.024934982880949974, 0.0736643448472023], [0.08585026860237122, 0.03869257867336273, 0.1285138875246048], [-0.14446598291397095, -0.07150913774967194, 0.03354203328490257]], [[0.0020034308545291424, -0.14486029744148254, -0.012510817497968674], [-0.07877644896507263, -0.24651435017585754, -0.18779008090496063], [0.015248163603246212, -0.03413679823279381, 0.026591626927256584]], [[-0.01762770116329193, 0.09556369483470917, 0.1257401406764984], [-0.1419202983379364, -0.08798234164714813, 0.03466569632291794], [0.049784719944000244, 0.09874866902828217, -0.11447111517190933]], [[-0.058107294142246246, -0.07661813497543335, 0.04994279518723488], [-0.10401981323957443, -0.16874532401561737, -0.1087077260017395], [-0.06473676860332489, -0.07148071378469467, -0.1282319873571396]], [[0.008271136321127415, 0.08911450207233429, 0.03499835357069969], [0.07407456636428833, 0.11695273965597153, 0.11231247335672379], [-0.09425202757120132, -0.2128780484199524, -0.12822504341602325]], [[0.021152714267373085, 0.03297286853194237, 0.07597485929727554], [0.05764785036444664, 0.07751482725143433, -0.03731228783726692], [0.11381504684686661, 0.1123003289103508, -0.02473226748406887]], [[-0.16598734259605408, -0.014394097030162811, -0.06710053980350494], [-0.06771285831928253, -0.0914180651307106, -0.03416873514652252], [0.02655120939016342, 0.014731214381754398, -0.05930451676249504]], [[0.05585082620382309, 0.02815265581011772, 0.02682323195040226], [0.07315922528505325, 0.0366743840277195, 0.07200729846954346], [0.24766062200069427, 0.18357275426387787, 0.04057513549923897]], [[0.0019088394474238157, -0.07189362496137619, 0.011589761823415756], [-0.19212017953395844, -0.3139209747314453, -0.14715051651000977], [-0.03197190910577774, -0.19954581558704376, -0.11299209296703339]], [[-0.005378719884902239, -0.049680400639772415, 0.054749131202697754], [-0.22949877381324768, -0.28912535309791565, -0.05215737596154213], [0.08621394634246826, 0.18003275990486145, 0.20635958015918732]], [[-0.08780834823846817, -0.018632370978593826, -0.061946801841259], [-0.20837543904781342, -0.09253988415002823, 0.04745299741625786], [-0.22401556372642517, 0.002804851159453392, -0.02476709894835949]], [[0.1286911517381668, -0.028960347175598145, 0.09882301837205887], [0.048659712076187134, -0.06907665729522705, 0.0019496537279337645], [0.09032659232616425, 0.06663112342357635, 0.13813340663909912]], [[-0.10530752688646317, -0.030841514468193054, -0.14644686877727509], [-0.2159368097782135, -0.11570364981889725, -0.2027023583650589], [0.12629565596580505, 0.15319572389125824, 0.2218247354030609]], [[-0.15343448519706726, -0.14502589404582977, -0.017818555235862732], [-0.15848754346370697, -0.1414184421300888, 0.09775207936763763], [0.15650485455989838, 0.22458365559577942, 0.27433478832244873]], [[-0.06328973174095154, -0.026702528819441795, -0.09004896879196167], [-0.1868000626564026, -0.11937306076288223, -0.05644657462835312], [-0.11533426493406296, -0.02534598484635353, -0.09191717207431793]]], [[[0.11008468270301819, 0.0845603495836258, 0.08233173191547394], [0.18375298380851746, 0.06523094326257706, 0.1357572376728058], [-0.009518043138086796, -0.16643905639648438, 0.08682931214570999]], [[0.026618804782629013, -0.06423895806074142, -0.04453428462147713], [0.13123400509357452, 0.062125395983457565, -0.02441011369228363], [-0.07935664057731628, -0.09194998443126678, -0.04784371331334114]], [[-0.05585940554738045, -0.1053762435913086, -0.0515311062335968], [0.2588352859020233, 0.13507458567619324, 0.12456172704696655], 